%YAML:1.0
---
opencv_ml_svm:
   format: 3
   svmType: C_SVC
   kernel:
      type: RBF
      gamma: 5.3830000000000000e+00
   C: 2.6699999999999999e+00
   term_criteria: { epsilon:1.1920928955078125e-07, iterations:1000 }
   var_count: 64
   class_count: 2
   class_labels: !!opencv-matrix
      rows: 2
      cols: 1
      dt: i
      data: [ 0, 1 ]
   sv_total: 1532
   support_vectors:
      - [ 2.70877153e-01, 6.53124452e-02, 9.21954438e-02, 1.24364361e-01,
          5.10739237e-02, 1.29394844e-01, 1.63888961e-01, 2.33422756e-01,
          3.54907334e-01, 2.32088551e-01, 1.10889912e-01, 1.55135885e-01,
          8.43495503e-02, 5.77229336e-02, 9.43086147e-02, 1.54819548e-01,
          2.79898167e-01, 1.23838723e-01, 9.16995332e-02, 0.,
          6.98211044e-02, 4.31414843e-02, 5.70445508e-02, 3.01811546e-01,
          4.30424660e-01, 0., 3.85284051e-02, 2.14840304e-02,
          8.77345279e-02, 2.28470881e-02, 0., 2.34448478e-01,
          6.79588765e-02, 0., 0., 0., 6.79337457e-02, 0., 0.,
          8.72796923e-02, 6.13464825e-02, 5.11970110e-02, 3.30948383e-02,
          9.96209979e-02, 1.74178675e-01, 0., 0., 0., 6.65677264e-02,
          4.63033281e-02, 0., 3.03503554e-02, 6.88962862e-02, 0., 0., 0.,
          0., 0., 3.46963778e-02, 0., 6.44050837e-02, 3.50041948e-02,
          3.49132381e-02, 0. ]
      - [ 2.47754231e-01, 1.33021817e-01, 1.04641087e-01, 5.15898131e-02,
          1.13099977e-01, 1.08873203e-01, 9.10932124e-02, 2.36357346e-01,
          3.74446690e-01, 2.68173754e-01, 1.61896974e-01, 1.17248610e-01,
          1.48195446e-01, 1.40984297e-01, 1.35589197e-01, 2.42102832e-01,
          1.82542473e-01, 3.00833974e-02, 8.08033273e-02, 1.06377386e-01,
          1.56708568e-01, 1.39681756e-01, 1.25564441e-01, 1.32271498e-01,
          3.69683087e-01, 9.64706540e-02, 5.53937368e-02, 9.96807143e-02,
          5.13299070e-02, 6.26601055e-02, 8.27402249e-02, 1.49476036e-01,
          8.37045237e-02, 1.22594289e-01, 1.02538928e-01, 0.,
          1.43225282e-01, 0., 0., 0., 0., 0., 0., 0., 9.74882171e-02,
          6.33982718e-02, 7.24667087e-02, 1.18975647e-01, 0.,
          3.64109129e-02, 4.63225320e-02, 0., 7.45236352e-02, 0., 0., 0.,
          6.13509715e-02, 4.03880216e-02, 5.29832952e-02, 5.59283495e-02,
          1.30778164e-01, 0., 0., 0. ]
      - [ 2.04439387e-01, 1.81868419e-01, 7.20734224e-02, 1.42145172e-01,
          1.73416436e-01, 1.79790467e-01, 2.70646602e-01, 1.92377195e-01,
          1.99622288e-01, 1.84661686e-01, 1.02847055e-01, 1.37194306e-01,
          2.75616825e-01, 1.72428206e-01, 1.84821218e-01, 1.83441490e-01,
          3.13254327e-01, 1.42819569e-01, 9.97461975e-02, 6.27726540e-02,
          6.20288812e-02, 3.63947116e-02, 1.54574290e-01, 2.67176598e-01,
          2.65246391e-01, 1.37700215e-01, 0., 0., 3.97398770e-02,
          8.33430737e-02, 5.56832813e-02, 8.94823149e-02, 1.69480339e-01,
          5.59219979e-02, 0., 5.56526594e-02, 9.17753205e-02, 0., 0., 0.,
          0., 0., 0., 0., 9.22045112e-02, 0., 1.13942578e-01, 0.,
          8.11282992e-02, 4.81832176e-02, 0., 8.63480791e-02,
          1.02479585e-01, 0., 0., 0., 0., 0., 0., 0., 7.88146406e-02,
          8.50504488e-02, 0., 5.69303185e-02 ]
      - [ 2.94927955e-01, 1.20905638e-01, 6.22777790e-02, 0.,
          1.14249960e-01, 7.64129534e-02, 1.51052415e-01, 2.96488911e-01,
          2.88333237e-01, 1.81181267e-01, 1.18699186e-01, 7.19454661e-02,
          1.40818983e-01, 7.42563680e-02, 1.47325411e-01, 2.94143319e-01,
          2.04510808e-01, 1.60817191e-01, 1.55670658e-01, 7.55803064e-02,
          1.30765975e-01, 9.85619575e-02, 1.65128812e-01, 2.58392483e-01,
          2.09695116e-01, 1.18055515e-01, 4.51401249e-02, 5.41012026e-02,
          1.21904731e-01, 1.37046993e-01, 2.04465032e-01, 1.64321661e-01,
          0., 0., 0., 0., 1.15487471e-01, 6.48289993e-02, 0.,
          8.22109282e-02, 1.05759367e-01, 9.11671892e-02, 0., 0.,
          1.21748902e-01, 0., 7.82582834e-02, 4.58896160e-02,
          8.05198997e-02, 0., 0., 0., 9.66196135e-02, 6.94006011e-02, 0.,
          4.52266037e-02, 1.00136168e-01, 0., 0., 0., 7.38511086e-02, 0.,
          5.12145869e-02, 6.83420971e-02 ]
      - [ 1.10477619e-01, 6.64782152e-02, 6.82876781e-02, 2.40140781e-01,
          2.86282063e-01, 1.41691804e-01, 2.11058512e-01, 1.89125985e-01,
          3.23950559e-01, 1.59804076e-01, 1.14189677e-01, 2.23148629e-01,
          2.15387329e-01, 9.41271186e-02, 1.01081528e-01, 5.19804731e-02,
          1.15673356e-01, 1.50324538e-01, 2.26726845e-01, 7.16463104e-02,
          2.07208812e-01, 1.19512841e-01, 1.88405916e-01, 2.09657252e-01,
          2.32665941e-01, 1.27302900e-01, 1.44108534e-01, 9.68191326e-02,
          1.69571161e-01, 5.90289049e-02, 1.33084953e-01, 6.52652979e-02,
          7.09157065e-02, 0., 7.25849718e-02, 0., 1.13365501e-01,
          6.98476955e-02, 0., 0., 6.63396269e-02, 0., 0., 0.,
          1.16027996e-01, 9.34830531e-02, 0., 1.85394939e-02,
          1.17072932e-01, 8.22506621e-02, 0., 0., 9.29807723e-02, 0., 0.,
          4.90068644e-02, 0., 0., 0., 0., 4.11725789e-02, 0.,
          7.17134178e-02, 0. ]
      - [ 3.73697072e-01, 9.79957208e-02, 0., 5.35885356e-02,
          1.17549464e-01, 0., 9.90338475e-02, 2.87290215e-01,
          3.28113228e-01, 1.73436984e-01, 4.38271835e-02, 0.,
          1.21482015e-01, 1.70571268e-01, 1.28421724e-01, 2.49155328e-01,
          1.36674359e-01, 8.55261236e-02, 7.01203942e-02, 6.27304316e-02,
          1.90773547e-01, 0., 1.92409486e-01, 1.61883071e-01,
          2.45103359e-01, 1.11628138e-01, 0., 1.18517093e-01,
          2.78703690e-01, 1.67064503e-01, 1.48824766e-01, 1.87675223e-01,
          5.36597334e-02, 0., 0., 0., 9.71294716e-02, 0., 8.48869234e-02,
          4.40201536e-02, 5.01043610e-02, 0., 0., 0., 1.03157960e-01, 0.,
          0., 4.49574366e-02, 1.30397424e-01, 5.48759811e-02,
          3.93957347e-02, 0., 2.57957298e-02, 0., 0., 0., 0., 0., 0., 0.,
          1.06546119e-01, 7.36444741e-02, 9.74164158e-02, 1.02445237e-01 ]
      - [ 2.29534537e-01, 1.19640924e-01, 1.17968515e-01, 1.22521073e-01,
          2.39631191e-01, 4.83517684e-02, 1.48802400e-01, 1.82899714e-01,
          2.49869645e-01, 1.79730192e-01, 1.11335024e-01, 2.00083882e-01,
          2.37381071e-01, 1.49297833e-01, 1.28756627e-01, 8.78830478e-02,
          1.32150039e-01, 5.67827635e-02, 1.04946494e-01, 1.29859149e-01,
          2.36382037e-01, 2.10807189e-01, 1.52277738e-01, 1.40305623e-01,
          2.14103118e-01, 1.79595664e-01, 1.46282718e-01, 2.13323757e-01,
          1.36831552e-01, 9.20252651e-02, 1.76009297e-01, 8.07298273e-02,
          6.64416105e-02, 0., 0., 5.19328862e-02, 1.40138492e-01, 0.,
          3.07143424e-02, 0., 0., 5.91776036e-02, 0., 0., 1.32220462e-01,
          7.66522437e-02, 1.06813744e-01, 8.06101114e-02, 1.48562849e-01,
          1.14562266e-01, 0., 0., 1.03207909e-01, 0., 0., 0., 0., 0., 0.,
          0., 8.80500227e-02, 0., 0., 1.05373137e-01 ]
      - [ 2.76538312e-01, 2.19393730e-01, 1.65639460e-01, 6.28923401e-02,
          1.65192291e-01, 1.09129421e-01, 4.51823808e-02, 2.50647902e-01,
          2.16449648e-01, 1.95392609e-01, 1.54934108e-01, 1.22556202e-01,
          1.98703066e-01, 1.56618014e-01, 1.85272515e-01, 1.74391612e-01,
          1.27353251e-01, 1.51478618e-01, 1.14910714e-01, 3.92373651e-02,
          7.81104043e-02, 9.55852270e-02, 1.09536901e-01, 2.01429799e-01,
          1.93855524e-01, 1.09364390e-01, 1.05292529e-01, 2.72596348e-02,
          1.93372175e-01, 1.68670550e-01, 1.68839321e-01, 1.29618347e-01,
          1.77247331e-01, 1.16067894e-01, 0., 0., 1.16313480e-01, 0., 0.,
          0., 0., 0., 0., 0., 1.21258393e-01, 0., 1.69757128e-01,
          8.30472186e-02, 1.21205404e-01, 0., 0., 0., 3.58951204e-02, 0.,
          0., 0., 0., 0., 0., 0., 1.36684537e-01, 9.63670835e-02,
          9.57647040e-02, 1.75897717e-01 ]
      - [ 2.36195430e-01, 1.74014077e-01, 1.64934143e-01, 9.11890864e-02,
          1.62159681e-01, 1.86513454e-01, 1.79152176e-01, 1.65809393e-01,
          2.46624827e-01, 1.67005584e-01, 1.08442716e-01, 8.18787515e-02,
          1.84890479e-01, 1.75318345e-01, 1.96520150e-01, 1.89230561e-01,
          1.67660639e-01, 1.90159947e-01, 7.66805783e-02, 9.11890864e-02,
          1.37236133e-01, 0., 1.85510412e-01, 9.64207202e-02,
          2.53587902e-01, 1.94498688e-01, 1.64683953e-01, 1.04220226e-01,
          2.00118899e-01, 0., 1.94399834e-01, 1.73260853e-01,
          1.02558784e-01, 4.31206562e-02, 0., 6.44804239e-02,
          1.02558784e-01, 0., 0., 6.44804239e-02, 6.44804239e-02, 0., 0.,
          0., 1.02558784e-01, 0., 7.46871680e-02, 6.44804239e-02,
          1.02558784e-01, 1.24865130e-01, 0., 0., 8.88185129e-02, 0., 0.,
          0., 0., 0., 0., 0., 1.35672525e-01, 7.66805783e-02, 0.,
          9.11890864e-02 ]
      - [ 2.67167240e-01, 1.71670824e-01, 1.49333447e-01, 1.93192482e-01,
          1.55687705e-01, 1.64498463e-01, 1.77840441e-01, 2.28124008e-01,
          2.12208256e-01, 1.27405271e-01, 1.45085335e-01, 1.70467228e-01,
          1.01188533e-01, 2.11406454e-01, 9.38249603e-02, 1.75357819e-01,
          2.77379721e-01, 8.61186683e-02, 7.60222301e-02, 8.05955604e-02,
          1.66503131e-01, 6.17813021e-02, 1.65984303e-01, 2.20101818e-01,
          2.49256194e-01, 5.62524498e-02, 7.62887001e-02, 9.02546793e-02,
          1.28346473e-01, 8.21944326e-02, 1.46067768e-01, 2.27185860e-01,
          4.83798757e-02, 0., 0., 5.15768602e-02, 1.17740333e-01,
          1.04841188e-01, 7.82147497e-02, 0., 7.78165758e-02,
          6.46289960e-02, 0., 0., 1.11264840e-01, 7.79350698e-02,
          6.73262030e-02, 0., 9.22491848e-02, 0., 0., 0., 8.49661008e-02,
          0., 0., 9.07653794e-02, 7.51968697e-02, 9.98464599e-02, 0., 0.,
          6.67504519e-02, 0., 0., 7.65488744e-02 ]
      - [ 1.51659876e-01, 2.85195321e-01, 2.47750908e-01, 9.50426310e-02,
          1.91523895e-01, 6.95722401e-02, 1.02335148e-01, 1.48289517e-01,
          2.38771647e-01, 3.42329860e-01, 2.40117490e-01, 1.47104666e-01,
          2.21411705e-01, 1.32000193e-01, 7.66499117e-02, 1.20697081e-01,
          2.33541906e-01, 1.59838051e-01, 2.17096865e-01, 1.47778973e-01,
          1.03567421e-01, 8.26147944e-02, 8.58807862e-02, 1.54350162e-01,
          2.67177641e-01, 1.92554086e-01, 1.31269619e-01, 6.15327880e-02,
          1.15352727e-01, 8.15947950e-02, 7.76373446e-02, 3.79978977e-02,
          1.08656310e-01, 4.60505411e-02, 0., 7.29981959e-02,
          8.20867047e-02, 0., 0., 0., 0., 0., 0., 0., 8.47362131e-02,
          5.35424612e-02, 0., 0., 0., 0., 0., 0., 0., 0., 0., 0.,
          4.87667695e-02, 4.43498790e-02, 0., 0., 9.01416093e-02, 0.,
          6.66431636e-02, 5.65637089e-02 ]
      - [ 1.59135148e-01, 7.82121271e-02, 8.02971050e-02, 1.90298371e-02,
          1.54916912e-01, 1.71682209e-01, 1.37032017e-01, 2.35240817e-01,
          3.07415396e-01, 2.14516580e-01, 1.82496995e-01, 1.78749666e-01,
          2.48225063e-01, 1.61271676e-01, 5.77816293e-02, 1.06776707e-01,
          9.92394388e-02, 1.25647694e-01, 0., 4.59520407e-02,
          2.68343270e-01, 1.77842960e-01, 2.22307429e-01, 2.66590506e-01,
          2.32692823e-01, 3.65443118e-02, 0., 3.29606421e-02,
          5.24252728e-02, 0., 0., 0., 1.77488312e-01, 9.53086317e-02, 0.,
          0., 6.93521127e-02, 0., 0., 0., 0., 0., 0., 0., 1.73215091e-01,
          1.73886582e-01, 6.93913996e-02, 1.16904922e-01, 1.98538497e-01,
          1.36271268e-01, 1.00230835e-01, 0., 1.49817690e-01, 0., 0., 0.,
          0., 0., 0., 0., 1.51338726e-02, 0., 0., 0. ]
      - [ 2.55900830e-01, 1.49308830e-01, 1.60578027e-01, 1.37844190e-01,
          1.43908188e-01, 2.03614891e-01, 2.43078813e-01, 2.52186149e-01,
          2.33723700e-01, 1.37318641e-01, 1.45386294e-01, 1.10685445e-01,
          2.29698852e-01, 1.50380909e-01, 9.80285332e-02, 2.07542747e-01,
          2.68085599e-01, 1.56151921e-01, 6.13449141e-02, 5.85674681e-02,
          1.02691874e-01, 5.52752092e-02, 8.67502615e-02, 1.99737698e-01,
          2.99823850e-01, 1.03826299e-01, 7.85319060e-02, 7.33347908e-02,
          9.95556191e-02, 4.76720519e-02, 8.83991420e-02, 1.92790464e-01,
          0., 0., 7.77201131e-02, 1.32526144e-01, 1.45659149e-01, 0., 0.,
          0., 3.87113616e-02, 0., 0., 9.66734961e-02, 1.73183560e-01, 0.,
          0., 0., 0., 0., 3.80935371e-02, 8.88508484e-02, 9.78925824e-02,
          0., 0., 0., 4.16555591e-02, 3.43959481e-02, 0., 3.05828024e-02,
          6.08850382e-02, 0., 4.06154506e-02, 0. ]
      - [ 1.87260807e-01, 1.40110150e-01, 9.27670524e-02, 5.62870540e-02,
          9.18435901e-02, 7.63266236e-02, 8.16641003e-02, 2.87930638e-01,
          3.66336823e-01, 1.19941957e-01, 1.03127375e-01, 1.23983413e-01,
          1.74478203e-01, 1.38963997e-01, 1.76585659e-01, 1.02157876e-01,
          2.32092112e-01, 8.27573538e-02, 0., 3.39068249e-02,
          1.06505401e-01, 1.45197138e-01, 1.73307225e-01, 2.25221679e-01,
          2.66783834e-01, 1.65113851e-01, 0., 8.47835094e-02,
          1.14184104e-01, 1.06455706e-01, 1.13617986e-01, 2.42206067e-01,
          1.59951359e-01, 6.73397034e-02, 0., 2.51621418e-02,
          1.04043230e-01, 0., 0., 5.82272150e-02, 5.77128008e-02, 0.,
          6.07599393e-02, 0., 6.12136684e-02, 0., 0., 1.26509562e-01,
          2.01786533e-01, 0., 0., 0., 9.57058519e-02, 0., 0., 0., 0., 0.,
          0., 0., 9.62480977e-02, 0., 0., 2.37115800e-01 ]
      - [ 1.14153631e-01, 9.18004215e-02, 3.82987447e-02, 2.39859093e-02,
          9.36518982e-02, 5.56494631e-02, 6.56451583e-02, 2.87285686e-01,
          3.09698403e-01, 1.89160809e-01, 6.03213720e-02, 6.17406331e-02,
          1.40765458e-01, 1.10852383e-01, 1.44609019e-01, 3.68854135e-01,
          1.79769665e-01, 0., 1.12203419e-01, 1.15396455e-01,
          9.33062881e-02, 1.70455977e-01, 1.42686561e-01, 1.72191188e-01,
          4.97077703e-02, 1.13422368e-02, 4.03393321e-02, 1.61027342e-01,
          4.94489163e-01, 8.97759795e-02, 3.76179442e-02, 2.39859093e-02,
          8.51542577e-02, 5.26414923e-02, 0., 0., 5.04684784e-02, 0., 0.,
          0., 0., 0., 6.87769428e-02, 6.99303448e-02, 1.29077435e-01, 0.,
          0., 8.66921097e-02, 5.72258756e-02, 0., 9.33458209e-02,
          8.48369002e-02, 1.19886354e-01, 0., 0., 0., 0., 0., 0., 0.,
          1.88240632e-01, 3.49348858e-02, 0., 4.77072969e-02 ]
      - [ 9.28168073e-02, 3.58196571e-02, 6.00715578e-02, 1.43926278e-01,
          1.94350362e-01, 5.19456789e-02, 5.95224276e-02, 1.09218076e-01,
          1.31989807e-01, 1.21987700e-01, 1.42321751e-01, 3.97519410e-01,
          2.57356435e-01, 7.75046200e-02, 4.20097448e-02, 0.,
          1.76954627e-01, 4.71036695e-02, 8.86953026e-02, 1.70512751e-01,
          1.94927365e-01, 1.27935693e-01, 2.36703813e-01, 3.74039352e-01,
          2.31931731e-01, 4.17132564e-02, 0., 9.05897692e-02,
          1.03038304e-01, 5.27071133e-02, 9.00722519e-02, 3.03488653e-02,
          0., 0., 0., 8.12025666e-02, 8.32638144e-02, 0., 0., 0.,
          1.17752813e-02, 0., 0., 0., 2.60265797e-01, 1.24686480e-01, 0.,
          1.05730847e-01, 2.40645468e-01, 1.19870834e-01, 8.97594020e-02,
          0., 1.28453150e-01, 0., 0., 0., 0., 0., 0., 0., 0., 0., 0.,
          1.15533397e-01 ]
      - [ 7.80880228e-02, 1.49880081e-01, 6.47197664e-02, 2.60753870e-01,
          2.21008003e-01, 1.03643805e-01, 1.11331396e-01, 1.64466083e-01,
          1.49030998e-01, 2.22659335e-01, 1.74250782e-01, 2.69850105e-01,
          2.27001667e-01, 1.66944787e-01, 3.39795575e-02, 0.,
          1.07383341e-01, 2.40313232e-01, 9.30836648e-02, 1.95220262e-01,
          1.21426217e-01, 1.07200563e-01, 1.42190844e-01, 1.06665902e-01,
          1.41053945e-01, 1.51444748e-01, 2.59045929e-01, 1.99986055e-01,
          2.67053038e-01, 8.81273970e-02, 1.79865975e-02, 3.09560075e-02,
          1.39801344e-02, 9.70113203e-02, 1.17068253e-01, 0.,
          1.29646435e-01, 0., 0., 0., 0., 0., 0., 0., 1.16463833e-01,
          1.21707648e-01, 6.67863041e-02, 0., 4.33158614e-02,
          5.88168055e-02, 4.07262705e-02, 9.56763625e-02, 1.00033700e-01,
          0., 0., 0., 1.53144700e-02, 0., 0., 6.49019554e-02,
          1.92242742e-01, 0., 0., 0. ]
      - [ 4.37174410e-01, 2.64274739e-02, 2.08779909e-02, 1.14702107e-02,
          2.02320665e-02, 0., 0., 3.18110377e-01, 3.95976037e-01, 0.,
          1.15832314e-02, 0., 3.52433287e-02, 1.55969895e-02,
          5.73407859e-02, 2.57637173e-01, 1.18203804e-01, 0.,
          6.71689585e-02, 5.34010306e-02, 1.00055002e-01, 0.,
          1.13974854e-01, 6.51279017e-02, 2.26521000e-01, 1.73856422e-01,
          1.11113273e-01, 2.13349342e-01, 3.21928501e-01, 1.57035425e-01,
          1.75612256e-01, 2.40473717e-01, 0., 0., 0., 0., 1.80378370e-02,
          0., 0., 1.32858548e-02, 1.49423704e-02, 5.12963394e-03,
          1.04159433e-02, 0., 1.83005910e-02, 0., 9.12192278e-03, 0., 0.,
          0., 0., 5.53920157e-02, 5.65709025e-02, 0., 0., 0.,
          2.36259624e-02, 0., 0., 8.31019580e-02, 2.40771875e-01, 0., 0.,
          0. ]
      - [ 2.32146978e-01, 1.38302878e-01, 1.39379412e-01, 1.16991073e-01,
          1.60678461e-01, 1.65701583e-01, 1.96878254e-01, 1.46491125e-01,
          2.32598618e-01, 1.58437014e-01, 9.16022435e-02, 1.81938976e-01,
          2.42774352e-01, 1.82272166e-01, 1.73321560e-01, 1.89306021e-01,
          1.49177492e-01, 1.15559690e-01, 1.80420160e-01, 9.41661447e-02,
          1.89264908e-01, 1.42143771e-01, 1.84575096e-01, 1.81535795e-01,
          1.61649361e-01, 1.53589234e-01, 1.24871068e-01, 1.59093231e-01,
          2.24792421e-01, 1.11341700e-01, 5.74813634e-02, 3.84318680e-02,
          2.65542418e-02, 0., 5.54238260e-02, 0., 1.48660839e-01, 0., 0.,
          3.54074016e-02, 0., 5.26577719e-02, 0., 7.70991072e-02,
          1.30154088e-01, 3.27443890e-02, 4.40073982e-02, 0.,
          1.46923557e-01, 1.28874347e-01, 0., 0., 1.06102444e-01, 0., 0.,
          0., 0., 0., 0., 0., 1.08817659e-01, 9.65646431e-02, 0.,
          1.29651189e-01 ]
      - [ 1.45010427e-01, 1.99803412e-01, 1.64768651e-01, 1.24845177e-01,
          2.24057555e-01, 6.04749657e-02, 5.17559424e-02, 1.02592818e-01,
          1.70275539e-01, 1.20167024e-01, 1.01973534e-01, 1.85907871e-01,
          3.95574987e-01, 3.48680288e-01, 6.59772903e-02, 1.14868559e-01,
          3.84141989e-02, 3.84807177e-02, 0., 1.23793125e-01,
          2.43822515e-01, 2.14751139e-01, 6.85764700e-02, 9.17617604e-02,
          1.32192224e-01, 1.86200440e-01, 2.71116376e-01, 9.97012407e-02,
          1.46542415e-01, 6.89854771e-02, 0., 0., 0., 0., 0., 0.,
          1.32130891e-01, 6.02774285e-02, 0., 0., 3.67787965e-02, 0., 0.,
          3.36709917e-02, 2.61162549e-01, 0., 0., 0., 5.20130731e-02,
          6.27454370e-02, 1.14499480e-01, 0., 1.16304763e-01, 0., 0., 0.,
          0., 0., 0., 8.18828791e-02, 1.14181317e-01, 0., 4.06462476e-02,
          0. ]
      - [ 1.18488729e-01, 1.13665886e-01, 1.17396742e-01, 1.45867869e-01,
          1.45509809e-01, 1.09766580e-01, 1.55030832e-01, 2.26517528e-01,
          3.04140866e-01, 2.15943769e-01, 1.80194467e-01, 2.03152195e-01,
          1.34574533e-01, 1.61316358e-02, 1.69104531e-01, 1.78519621e-01,
          1.76355839e-01, 7.54040182e-02, 0., 8.48114714e-02,
          1.14671834e-01, 9.02403370e-02, 2.17244565e-01, 2.59301305e-01,
          2.56467789e-01, 1.87315553e-01, 9.53851864e-02, 1.69810146e-01,
          1.36359140e-01, 1.59211099e-01, 1.12970620e-01, 4.97771911e-02,
          9.71925631e-02, 1.19147427e-01, 0., 0., 1.03292868e-01, 0., 0.,
          0., 0., 0., 0., 0., 1.13839529e-01, 0., 1.46187663e-01,
          1.28348932e-01, 9.19980854e-02, 1.65099502e-01, 0., 0.,
          1.33220360e-01, 0., 0., 0., 0., 0., 0., 0., 9.67898145e-02, 0.,
          1.09848194e-01, 0. ]
      - [ 2.70660996e-01, 1.16130672e-01, 1.21293962e-01, 1.32172495e-01,
          1.67262822e-01, 1.06427133e-01, 1.44007787e-01, 1.77781582e-01,
          1.63378462e-01, 1.63415045e-01, 1.30967274e-01, 1.80554822e-01,
          1.91493154e-01, 2.39987075e-01, 1.75567597e-01, 1.73522696e-01,
          1.80532232e-01, 1.01809479e-01, 2.16193855e-01, 1.97297573e-01,
          1.54222712e-01, 1.43303260e-01, 1.82134032e-01, 1.25776753e-01,
          1.30178422e-01, 1.65385574e-01, 8.41950700e-02, 1.15265802e-01,
          1.72874168e-01, 1.07031293e-01, 9.99398082e-02, 1.11599274e-01,
          0., 0., 0., 0., 9.62370485e-02, 9.70568880e-02, 0., 0.,
          1.15878321e-01, 1.14594780e-01, 7.70598650e-02, 6.78561628e-02,
          1.50463924e-01, 8.04730430e-02, 0., 0., 9.03912783e-02, 0.,
          1.55304670e-01, 0., 1.43973172e-01, 0., 0., 0., 5.81481569e-02,
          0., 8.74326602e-02, 7.43308589e-02, 1.28887638e-01, 0., 0.,
          9.80053097e-02 ]
      - [ 2.80416548e-01, 1.40188441e-01, 1.23246655e-01, 8.85951072e-02,
          1.75196543e-01, 2.29690254e-01, 1.78912029e-01, 2.63074398e-01,
          1.97507039e-01, 1.76320776e-01, 1.76435679e-01, 1.49988651e-01,
          1.73388854e-01, 1.20357297e-01, 2.49096826e-02, 2.51737595e-01,
          1.55710801e-01, 6.76977485e-02, 6.89378306e-02, 4.50875312e-02,
          7.57735744e-02, 2.75120474e-02, 2.32158542e-01, 1.96422502e-01,
          2.55906165e-01, 1.36857241e-01, 2.46506203e-02, 6.32996559e-02,
          1.24303170e-01, 7.62971342e-02, 1.19395703e-01, 2.24263787e-01,
          3.43378186e-02, 0., 0., 1.40318722e-01, 1.53730214e-01, 0., 0.,
          0., 0., 7.19376802e-02, 0., 1.13658413e-01, 1.79129332e-01, 0.,
          0., 0., 0., 0., 6.60683215e-02, 0., 7.08796903e-02, 0.,
          1.24685407e-01, 0., 9.19709653e-02, 0., 4.50731888e-02,
          1.00663446e-01, 1.10689834e-01, 0., 0., 0. ]
      - [ 2.26338238e-01, 9.07522514e-02, 1.51125327e-01, 2.05559552e-01,
          1.22469261e-01, 7.30636865e-02, 0., 2.27010518e-01,
          2.58944869e-01, 1.91278428e-01, 1.14382252e-01, 2.40858719e-01,
          2.33413115e-01, 1.39022291e-01, 1.61512449e-01, 5.09301908e-02,
          1.34450659e-01, 1.57440215e-01, 1.43910676e-01, 2.06279278e-01,
          1.58400014e-01, 1.08266465e-01, 9.51983929e-02, 2.38988951e-01,
          2.64904529e-01, 8.16107467e-02, 0., 2.02668473e-01,
          7.23263025e-02, 1.79405108e-01, 1.50132924e-01, 1.04816906e-01,
          6.98423088e-02, 1.25489503e-01, 9.10837948e-02, 0.,
          1.03370428e-01, 0., 0., 0., 0., 0., 4.68345135e-02, 0.,
          9.08095613e-02, 7.95996860e-02, 6.84501901e-02, 9.34532508e-02,
          0., 0., 0., 7.94606432e-02, 1.06133886e-01, 0., 0., 0.,
          3.00988369e-02, 5.34350611e-02, 6.61719367e-02, 4.39594015e-02,
          1.63102627e-01, 6.57298863e-02, 0., 0. ]
      - [ 5.09258322e-02, 0., 0., 0., 7.72791728e-02, 0., 0.,
          3.19297254e-01, 2.09467724e-01, 1.04042083e-01, 9.69256982e-02,
          1.29033297e-01, 7.64905885e-02, 8.24640244e-02, 1.40891820e-01,
          4.15549636e-01, 1.74830317e-01, 0., 3.97421941e-02,
          2.96553493e-01, 2.52312645e-02, 1.09960400e-01, 1.52902111e-01,
          3.79423857e-01, 1.17960252e-01, 5.86241111e-02, 2.87749153e-02,
          3.12157512e-01, 1.19555563e-01, 1.47020653e-01, 1.29451334e-01,
          2.37046003e-01, 0., 0., 0., 0., 0., 0., 0., 0., 0., 0., 0., 0.,
          0., 0., 0., 0., 4.26486209e-02, 7.71293938e-02, 0.,
          1.13156520e-01, 1.22622512e-01, 0., 0., 0., 0., 0., 0., 0.,
          2.07845330e-01, 1.04547869e-02, 0., 0. ]
      - [ 1.30998805e-01, 1.24076396e-01, 1.54175133e-01, 1.33676574e-01,
          1.33213505e-01, 1.38486549e-01, 1.41287521e-01, 2.75442898e-01,
          2.21000433e-01, 2.10109368e-01, 2.42039531e-01, 1.26282379e-01,
          1.34071246e-01, 9.98645872e-02, 4.83680516e-02, 8.54776725e-02,
          1.30397007e-01, 1.02092780e-01, 1.40035301e-01, 4.36018184e-02,
          1.15640752e-01, 1.55456111e-01, 1.62001878e-01, 2.40142822e-01,
          2.40540400e-01, 1.30688280e-01, 1.44072369e-01, 1.99793532e-01,
          1.40609518e-01, 1.60340682e-01, 1.96304783e-01, 9.02744681e-02,
          2.03162506e-01, 0., 0., 0., 7.77083263e-02, 0., 0., 0.,
          5.09463623e-02, 0., 0., 0., 1.41525030e-01, 0., 0.,
          1.91216186e-01, 1.98871389e-01, 1.34283319e-01, 0., 0.,
          1.16562486e-01, 0., 0., 0., 0., 0., 0., 0., 4.42706607e-02, 0.,
          0., 1.00691773e-01 ]
      - [ 1.65153652e-01, 1.25665054e-01, 1.14407763e-01, 1.95858896e-01,
          2.19642848e-01, 2.13020548e-01, 3.69540490e-02, 1.23618849e-01,
          1.93698332e-01, 1.79472774e-01, 1.60786584e-01, 2.51437932e-01,
          2.77147651e-01, 5.32127954e-02, 1.40406534e-01, 1.15969755e-01,
          1.38940752e-01, 1.17426530e-01, 1.72857523e-01, 1.22721814e-01,
          1.86635986e-01, 1.70118287e-01, 1.12026624e-01, 1.90389499e-01,
          1.55626446e-01, 7.21804649e-02, 0., 1.46350935e-01,
          2.79254854e-01, 1.19852170e-01, 1.70222402e-01, 1.04812749e-01,
          0., 0., 0., 0., 2.20774680e-01, 0., 0., 0., 4.08716351e-02, 0.,
          0., 1.03745274e-01, 1.66813836e-01, 1.43115908e-01, 0., 0.,
          5.93401007e-02, 6.02272525e-02, 0., 0., 1.30164593e-01, 0., 0.,
          0., 0., 0., 0., 6.68178126e-02, 8.59379172e-02, 6.64700270e-02,
          0., 0. ]
      - [ 2.72107925e-02, 3.75061035e-02, 1.12411842e-01, 2.07207158e-01,
          1.44029260e-01, 1.19528912e-01, 1.61059782e-01, 1.75213099e-01,
          2.97347218e-01, 1.97446406e-01, 1.60342112e-01, 2.90737748e-01,
          3.28118652e-01, 1.56421989e-01, 5.73848337e-02, 6.05550893e-02,
          1.76327452e-01, 1.47640213e-01, 2.41713613e-01, 6.54625297e-02,
          1.25813022e-01, 8.18247572e-02, 0., 1.97362289e-01,
          3.01254392e-01, 1.47845611e-01, 1.65052801e-01, 1.36553362e-01,
          9.42609459e-02, 1.51735827e-01, 1.77815631e-01, 1.54890761e-01,
          0., 0., 0., 0., 4.59060967e-02, 3.13166790e-02, 2.93420907e-02,
          0., 5.61135411e-02, 9.38818976e-02, 0., 0., 6.93944991e-02, 0.,
          3.60388011e-02, 4.67223823e-02, 5.44266142e-02, 0., 0., 0.,
          1.50938313e-02, 0., 0., 0., 1.84860919e-02, 0., 0., 0.,
          8.09316561e-02, 3.44263911e-02, 5.22325858e-02, 1.12167843e-01 ]
      - [ 2.19045773e-01, 1.92195579e-01, 5.09413518e-02, 3.25638987e-02,
          9.05512944e-02, 0., 6.51938245e-02, 6.88773990e-02,
          1.73682138e-01, 2.87898242e-01, 2.24729493e-01, 2.58324951e-01,
          2.94024378e-01, 1.70364216e-01, 1.57948703e-01, 1.39363065e-01,
          1.99949875e-01, 1.73860699e-01, 1.35674566e-01, 1.96404338e-01,
          2.01181084e-01, 1.70838863e-01, 8.75910372e-02, 1.18371956e-01,
          3.53880763e-01, 1.56133428e-01, 4.67927903e-02, 0.,
          1.10698931e-01, 0., 3.74586321e-02, 8.50166827e-02,
          9.44382325e-02, 0., 0., 0., 4.45230901e-02, 0., 0., 0., 0., 0.,
          0., 0., 1.44583240e-01, 1.40303731e-01, 1.04828164e-01,
          7.58919492e-02, 3.92727107e-02, 0., 6.67999610e-02, 0.,
          5.69541305e-02, 0., 0., 4.31373753e-02, 8.66982415e-02, 0., 0.,
          6.68849200e-02, 1.46779701e-01, 0., 0., 0. ]
      - [ 2.51905322e-01, 2.38742769e-01, 7.21537396e-02, 8.59266296e-02,
          1.01749815e-01, 4.81855348e-02, 3.35598066e-02, 1.11911334e-01,
          2.82490671e-01, 1.60052031e-01, 1.96838513e-01, 1.39109626e-01,
          1.87192425e-01, 1.46941692e-01, 9.64591801e-02, 1.31957859e-01,
          2.00109184e-01, 2.44038984e-01, 1.49453923e-01, 1.05652988e-01,
          1.53159156e-01, 8.01291019e-02, 4.21992242e-02, 1.32871181e-01,
          3.68225813e-01, 2.55101591e-01, 1.50876820e-01, 1.10018067e-01,
          7.98191205e-02, 4.81855348e-02, 2.37303656e-02, 1.33126959e-01,
          9.34437588e-02, 0., 5.85268140e-02, 7.44727477e-02,
          1.16355360e-01, 0., 0., 0., 6.73802793e-02, 0., 1.43058077e-01,
          9.78538394e-02, 1.89307660e-01, 0., 5.35855591e-02, 0., 0.,
          5.96787110e-02, 5.50685897e-02, 0., 9.35962126e-02, 0., 0., 0.,
          6.31025583e-02, 0., 7.52289146e-02, 0., 1.09296829e-01,
          5.85268140e-02, 6.27846494e-02, 0. ]
      - [ 1.09164439e-01, 1.10402927e-01, 0., 1.26693949e-01,
          1.81429580e-01, 1.62516177e-01, 1.37102067e-01, 1.41444653e-01,
          1.20016083e-01, 1.22391783e-01, 1.57685354e-01, 2.79065669e-01,
          3.92614365e-01, 2.54812747e-01, 1.85351446e-01, 1.68064520e-01,
          1.80752426e-01, 1.02497414e-01, 1.33199513e-01, 1.06884003e-01,
          2.12965295e-01, 1.56790137e-01, 1.45553306e-01, 1.43183783e-01,
          1.55959174e-01, 1.67492121e-01, 1.15639389e-01, 9.41091180e-02,
          1.34893060e-01, 1.16417781e-01, 1.37264431e-01, 8.36163014e-02,
          7.49439746e-02, 6.13180846e-02, 0., 0., 1.08651467e-01,
          7.52762482e-02, 0., 0., 0., 0., 9.85005572e-02, 1.15006670e-01,
          1.73554838e-01, 1.11515500e-01, 4.55732383e-02, 0.,
          3.86618711e-02, 0., 6.51292205e-02, 7.12110177e-02,
          1.49278417e-01, 0., 0., 0., 0., 1.50491130e-02, 0., 0.,
          5.08116521e-02, 0., 3.79642360e-02, 0. ]
      - [ 9.52371210e-02, 5.61331734e-02, 8.54871050e-02, 1.11297205e-01,
          1.55626044e-01, 1.06476367e-01, 1.07688874e-01, 1.12968549e-01,
          1.68413877e-01, 2.59084612e-01, 2.01697528e-01, 2.62455404e-01,
          2.10695475e-01, 9.57991332e-02, 2.68359721e-01, 1.22916557e-01,
          1.75090134e-01, 2.17324197e-01, 1.18692741e-01, 9.44910496e-02,
          2.41828635e-01, 2.52110511e-01, 2.49879718e-01, 1.29392520e-01,
          1.84357435e-01, 8.17028731e-02, 1.35413885e-01, 7.54972696e-02,
          1.28512219e-01, 0., 0., 1.67980433e-01, 6.34913221e-02,
          3.69204730e-02, 6.84731901e-02, 0., 1.09159626e-01,
          5.91491312e-02, 0., 0., 6.55967668e-02, 0., 1.18728340e-01, 0.,
          2.10020632e-01, 5.72452508e-02, 0., 0., 6.63662106e-02, 0.,
          1.29552484e-01, 0., 1.60992667e-01, 0., 0., 0., 0., 0., 0.,
          4.94117774e-02, 8.37681070e-02, 5.48946187e-02, 0., 0. ]
      - [ 4.37911034e-01, 4.94855344e-02, 0., 3.16019952e-02,
          8.10398236e-02, 5.85327409e-02, 0., 2.32823417e-01,
          3.77573609e-01, 1.35169044e-01, 1.35234103e-01, 2.73313582e-01,
          1.17240332e-01, 1.08178765e-01, 9.69500393e-02, 2.15556622e-01,
          2.67765701e-01, 1.43740863e-01, 1.62854970e-01, 2.67616808e-01,
          1.78710043e-01, 1.62929788e-01, 4.63939048e-02, 1.39585719e-01,
          2.38351062e-01, 9.22573358e-02, 4.26337421e-02, 7.39841089e-02,
          6.74692318e-02, 6.83136806e-02, 6.13627322e-02, 9.49673504e-02,
          9.02628452e-02, 0., 0., 0., 8.40343814e-03, 0., 1.86959933e-02,
          0., 2.58831792e-02, 0., 0., 0., 5.63719757e-02, 0.,
          5.23352548e-02, 5.95924966e-02, 0., 0., 0., 2.68358495e-02,
          9.65481550e-02, 5.14076538e-02, 0., 3.79516222e-02,
          1.87906586e-02, 3.34982686e-02, 2.58109812e-02, 4.46710065e-02,
          5.69948889e-02, 0., 0., 0. ]
      - [ 1.17584176e-01, 0., 4.91927043e-02, 0., 1.17000621e-02,
          6.64049610e-02, 7.72521719e-02, 2.14233458e-01, 4.59945321e-01,
          2.29376763e-01, 1.15371287e-01, 2.15768695e-01, 2.00343102e-01,
          1.49894208e-01, 1.31660864e-01, 1.56903282e-01, 1.99066401e-01,
          1.53221294e-01, 9.53395739e-02, 9.30794477e-02, 1.03106514e-01,
          1.35684490e-01, 1.23580955e-01, 2.74667084e-01, 3.12328577e-01,
          4.42447253e-02, 0., 0., 1.14920825e-01, 0., 6.57696500e-02, 0.,
          0., 0., 3.17897648e-02, 0., 6.40838817e-02, 0., 5.53261787e-02,
          0., 6.08187392e-02, 0., 1.01643749e-01, 1.32772237e-01,
          1.85076237e-01, 0., 0., 6.25044554e-02, 2.21964136e-01,
          1.43988267e-01, 0., 0., 1.65877014e-01, 0., 0., 0., 0., 0., 0.,
          0., 4.68002483e-02, 0., 5.83003908e-02, 0. ]
      - [ 1.60921931e-01, 1.81536332e-01, 1.50779754e-01, 1.47263035e-01,
          1.98077127e-01, 1.55552179e-01, 2.25289732e-01, 1.64779186e-01,
          1.93271011e-01, 1.57514915e-01, 1.99533194e-01, 1.44759700e-01,
          2.13607311e-01, 1.00755811e-01, 1.11850627e-01, 1.53974503e-01,
          1.98277444e-01, 1.94246888e-01, 1.20064929e-01, 2.30458096e-01,
          1.36562467e-01, 1.74629584e-01, 1.62785605e-01, 1.64653465e-01,
          1.88109577e-01, 1.18818857e-01, 1.42981172e-01, 1.56232014e-01,
          1.59329474e-01, 0., 1.00000910e-01, 1.24297298e-01, 0., 0.,
          8.82384554e-02, 0., 1.50443032e-01, 8.82384554e-02, 0., 0.,
          7.22704902e-02, 0., 0., 0., 1.47731066e-01, 1.06683515e-01,
          3.50867286e-02, 6.66236952e-02, 6.66236952e-02, 1.21543996e-01,
          0., 9.96256694e-02, 1.56122103e-01, 0., 3.50867286e-02, 0., 0.,
          3.50867286e-02, 0., 0., 7.22704902e-02, 0., 0., 6.66236952e-02 ]
      - [ 2.28581637e-01, 4.26859781e-02, 5.00472188e-02, 3.40630449e-02,
          5.48517406e-02, 0., 6.08182736e-02, 9.82295796e-02,
          5.03987610e-01, 1.71591729e-01, 8.61494541e-02, 3.01280729e-02,
          5.99648170e-02, 3.17414179e-02, 7.82439336e-02, 4.80962068e-01,
          2.15581566e-01, 3.38914394e-02, 4.38807942e-02, 1.77709997e-01,
          1.15979180e-01, 5.86136505e-02, 0., 2.85359621e-01,
          2.21153155e-01, 4.37263139e-02, 0., 1.38520867e-01,
          1.47570968e-01, 8.55344608e-02, 6.57990351e-02, 2.77084947e-01,
          1.48374448e-02, 0., 1.67163126e-02, 0., 4.99502830e-02,
          4.63696234e-02, 2.40862109e-02, 3.97321023e-02, 1.91550590e-02,
          5.23183569e-02, 0., 0., 3.31775360e-02, 0., 0., 0.,
          5.00500426e-02, 0., 2.90638041e-02, 6.60418198e-02,
          7.41872266e-02, 0., 0., 0., 2.11275388e-02, 0., 0.,
          4.61451970e-02, 4.92102355e-02, 0., 4.26856354e-02,
          2.97006145e-02 ]
      - [ 1.42924681e-01, 1.59994334e-01, 5.65625951e-02, 1.49109051e-01,
          1.91933692e-01, 1.65835291e-01, 1.69193953e-01, 1.55841082e-01,
          2.01295972e-01, 1.91782132e-01, 1.86288789e-01, 2.06352428e-01,
          3.18961114e-01, 1.34453490e-01, 1.63215041e-01, 1.23477407e-01,
          1.60747513e-01, 1.75279662e-01, 1.74276933e-01, 2.86212265e-01,
          2.00872511e-01, 7.33641386e-02, 1.14780389e-01, 1.56078428e-01,
          6.76651746e-02, 1.70759812e-01, 1.01915918e-01, 2.06618652e-01,
          1.64595589e-01, 0., 1.25611946e-01, 1.08681232e-01, 0., 0., 0.,
          5.30800596e-02, 5.41423075e-02, 0., 0., 7.80682638e-02,
          3.63419279e-02, 6.45635426e-02, 4.78701070e-02, 5.04483543e-02,
          1.38094664e-01, 1.07625626e-01, 5.86471669e-02, 0., 0.,
          6.94461688e-02, 9.25884470e-02, 7.20794648e-02, 1.36097446e-01,
          5.94559349e-02, 2.87946984e-02, 0., 4.13194001e-02, 0., 0.,
          3.27047408e-02, 2.94915736e-02, 0., 0., 0. ]
      - [ 2.91264802e-01, 7.43525550e-02, 2.06558049e-01, 1.44046515e-01,
          2.06118286e-01, 2.95063585e-01, 9.18908343e-02, 2.96655506e-01,
          1.24409139e-01, 1.20389231e-01, 0., 3.14426720e-01,
          3.09600413e-01, 7.88703784e-02, 0., 0., 3.33350182e-01,
          9.87470895e-02, 8.28238279e-02, 9.24424604e-02, 1.74981002e-02,
          8.36818218e-02, 1.02536485e-01, 2.60925144e-01, 2.44014144e-01,
          0., 0., 0., 6.36841776e-03, 0., 0., 0., 9.29808021e-02,
          5.46325147e-02, 0., 1.49437487e-01, 1.52043894e-01, 0., 0., 0.,
          0., 0., 0., 0., 1.78680986e-01, 6.99951053e-02, 0., 0.,
          1.15764491e-01, 0., 0., 0., 1.55993737e-02, 0., 0., 0., 0., 0.,
          0., 0., 0., 0., 0., 0. ]
      - [ 2.38147125e-01, 1.62275687e-01, 7.81928077e-02, 9.61801559e-02,
          7.63827935e-02, 5.28426357e-02, 2.71850944e-01, 3.69790018e-01,
          3.23129773e-01, 8.20912719e-02, 6.52614534e-02, 8.71453658e-02,
          9.35159028e-02, 3.14000100e-01, 2.06207216e-01, 1.78174749e-01,
          1.80177510e-01, 6.99972659e-02, 3.94752882e-02, 2.52222288e-02,
          4.55393158e-02, 1.19376279e-01, 2.26223469e-01, 2.43059456e-01,
          2.29723215e-01, 8.24225619e-02, 4.47455496e-02, 3.15418132e-02,
          1.03095986e-01, 5.15231453e-02, 8.04895535e-02, 1.14887454e-01,
          1.03246808e-01, 0., 0., 0., 0., 0., 0., 0., 0., 0., 0., 0.,
          1.14950620e-01, 0., 1.12170599e-01, 2.24621907e-01,
          1.30659893e-01, 0., 0., 0., 4.44696769e-02, 0., 0., 0., 0., 0.,
          0., 0., 4.74048369e-02, 0., 0., 8.84858295e-02 ]
      - [ 1.02623165e-01, 1.38336346e-01, 2.25312993e-01, 1.73458263e-01,
          1.41058818e-01, 0., 0., 8.17988962e-02, 2.28971601e-01,
          2.88666934e-01, 2.10842878e-01, 1.65700391e-01, 2.15647787e-01,
          1.72056600e-01, 1.56672314e-01, 1.50779217e-01, 1.90822169e-01,
          1.26377940e-01, 1.22611023e-01, 1.42912105e-01, 1.83210090e-01,
          1.90856770e-01, 1.96454599e-01, 1.60224900e-01, 2.78087109e-01,
          1.23267055e-01, 1.31000653e-01, 1.11940488e-01, 1.40982419e-01,
          1.31235078e-01, 8.88926089e-02, 1.32136568e-01, 1.17202215e-01,
          0., 0., 3.09479758e-02, 7.95781091e-02, 5.07379062e-02,
          4.73049954e-02, 0., 3.80197577e-02, 0., 0., 5.35949208e-02,
          1.47519127e-01, 0., 7.81061947e-02, 0., 1.32663071e-01,
          1.17079578e-01, 0., 0., 9.41093341e-02, 0., 0., 0., 0., 0., 0.,
          0., 6.67175278e-02, 0., 8.31364989e-02, 1.24526851e-01 ]
      - [ 1.92042559e-01, 1.45076692e-01, 2.13641971e-02, 5.54897375e-02,
          1.86801270e-01, 7.52610043e-02, 1.88752621e-01, 1.28769025e-01,
          1.88564464e-01, 1.61962226e-01, 1.70921490e-01, 1.26368016e-01,
          1.85276568e-01, 1.72200158e-01, 1.93485320e-01, 3.11947346e-01,
          3.45701873e-01, 1.87571466e-01, 0., 9.85367596e-02,
          1.91827074e-01, 4.70826030e-02, 1.75308764e-01, 2.98306972e-01,
          2.74807990e-01, 6.32378310e-02, 0., 0., 1.14675730e-01, 0.,
          2.64599714e-02, 3.22014987e-01, 0., 3.07542458e-02,
          2.59492490e-02, 0., 5.80643639e-02, 2.83988379e-02,
          2.60351580e-02, 0., 0., 0., 0., 5.21023758e-02, 4.84593399e-02,
          0., 0., 0., 5.41225038e-02, 0., 0., 0., 4.60330285e-02, 0., 0.,
          0., 0., 0., 0., 0., 3.31040323e-02, 0., 0., 4.67711464e-02 ]
      - [ 2.29088858e-01, 7.84164295e-02, 7.93526620e-02, 9.00321752e-02,
          1.61264464e-01, 9.13217068e-02, 8.66714269e-02, 3.15300554e-01,
          2.19532177e-01, 1.49313524e-01, 1.29593417e-01, 1.59487680e-01,
          1.08659513e-01, 1.64417580e-01, 1.17513537e-01, 3.70089501e-01,
          1.89104453e-01, 1.70433030e-01, 1.05635040e-01, 1.11839399e-01,
          1.41225770e-01, 1.91477418e-01, 1.19961008e-01, 2.34334439e-01,
          2.78166205e-01, 7.08739087e-02, 8.11754689e-02, 0.,
          7.84954950e-02, 1.00043856e-01, 2.70382732e-01, 1.64023742e-01,
          2.97080129e-02, 0., 2.94027943e-02, 0., 8.72754976e-02, 0.,
          5.04370853e-02, 7.14906976e-02, 1.10220328e-01, 0., 0.,
          2.93549839e-02, 7.15424791e-02, 0., 0., 2.73642316e-02, 0., 0.,
          3.99566740e-02, 6.57527298e-02, 7.29879290e-02, 0., 0., 0., 0.,
          3.82464826e-02, 0., 6.62818328e-02, 8.44855160e-02,
          4.14717905e-02, 4.41040806e-02, 0. ]
      - [ 2.24122226e-01, 2.67818570e-01, 8.87155905e-02, 0.,
          3.37134004e-02, 0., 0., 1.28168494e-01, 2.79440582e-01,
          1.66343361e-01, 2.52824843e-01, 2.25768968e-01, 2.34399363e-01,
          8.64876285e-02, 1.11715965e-01, 9.03761238e-02, 1.31269723e-01,
          1.24946766e-01, 2.08540499e-01, 1.68928102e-01, 1.91153333e-01,
          2.47417018e-01, 1.51100144e-01, 1.57245010e-01, 1.97934911e-01,
          0., 0., 0., 7.20822811e-02, 2.25774139e-01, 1.48702174e-01,
          1.74607754e-01, 7.08027184e-02, 1.46161452e-01, 5.75033128e-02,
          7.76872933e-02, 1.49690107e-01, 0., 0., 0., 0., 0., 0., 0.,
          1.36843234e-01, 6.71672970e-02, 0., 0., 9.29126516e-02,
          7.43577853e-02, 7.45653212e-02, 0., 7.05645904e-02, 0., 0., 0.,
          0., 0., 0., 0., 1.81102797e-01, 8.20375830e-02, 0.,
          7.18711540e-02 ]
      - [ 3.20681930e-01, 1.72464296e-01, 1.24696888e-01, 1.34522378e-01,
          1.72057599e-01, 1.29395336e-01, 4.36595604e-02, 2.81809628e-01,
          3.45009655e-01, 8.39657038e-02, 9.00026858e-02, 1.13216422e-01,
          1.68628305e-01, 1.45241886e-01, 1.17897972e-01, 2.39253059e-01,
          2.75343955e-01, 5.76718487e-02, 3.21285389e-02, 0.,
          1.24669649e-01, 8.50295499e-02, 4.36434336e-02, 2.86890626e-01,
          1.78229645e-01, 9.13698003e-02, 1.43625438e-01, 1.98435247e-01,
          2.84206480e-01, 1.60986066e-01, 0., 1.49616420e-01,
          4.86258380e-02, 0., 0., 0., 3.98214944e-02, 0., 2.84092184e-02,
          0., 0., 2.46273540e-02, 0., 2.49395836e-02, 5.84128983e-02, 0.,
          1.94464028e-02, 2.07669809e-02, 0., 0., 0., 0., 3.71813104e-02,
          0., 2.46273540e-02, 3.64951529e-02, 5.28407991e-02,
          3.37522440e-02, 0., 2.39796434e-02, 6.36079684e-02, 0., 0., 0. ]
      - [ 2.17166051e-01, 7.26332664e-02, 6.88573942e-02, 1.87614813e-01,
          1.18189178e-01, 7.32013956e-02, 3.98359336e-02, 1.84946656e-01,
          2.47807026e-01, 1.02640890e-01, 9.01825577e-02, 2.33584017e-01,
          3.06228042e-01, 1.15629487e-01, 9.81902406e-02, 1.98536664e-01,
          2.30081603e-01, 8.41166601e-02, 1.02835789e-01, 2.51001269e-01,
          2.06291005e-01, 1.18708268e-01, 3.04288082e-02, 1.41700655e-01,
          1.99997097e-01, 1.05441235e-01, 0., 2.14852825e-01,
          2.27820441e-01, 2.67323833e-02, 1.18736133e-01, 1.02464162e-01,
          2.21417733e-02, 0., 0., 0., 1.38971984e-01, 7.20411539e-02,
          3.14804874e-02, 0., 0., 0., 0., 1.11969456e-01, 2.25943893e-01,
          0., 0., 1.77589990e-02, 0., 0., 0., 1.38213173e-01,
          1.47980392e-01, 6.31463230e-02, 3.62105742e-02, 0.,
          5.42360470e-02, 0., 0., 5.85877262e-02, 1.82660848e-01, 0., 0.,
          0. ]
      - [ 1.44918904e-01, 1.16295211e-01, 6.17347807e-02, 0.,
          7.44755417e-02, 1.05979137e-01, 2.05702066e-01, 1.89370379e-01,
          1.74729571e-01, 1.26635388e-01, 7.24253356e-02, 9.13727805e-02,
          2.27627084e-01, 2.50270456e-01, 2.00860515e-01, 1.17381297e-01,
          3.33175093e-01, 2.94743568e-01, 1.19899072e-01, 1.24679230e-01,
          8.72035772e-02, 1.99407548e-01, 2.27722839e-01, 2.10880458e-01,
          2.15486735e-01, 1.11419789e-01, 3.75935324e-02, 0.,
          1.16585292e-01, 4.95686494e-02, 8.72043073e-02, 1.47985294e-01,
          2.03291047e-02, 0., 0., 0., 9.51157585e-02, 4.14966121e-02, 0.,
          0., 0., 0., 5.65823764e-02, 5.38542271e-02, 1.45652518e-01, 0.,
          1.43511042e-01, 1.01376466e-01, 0., 0., 0., 4.28709015e-02,
          2.31028840e-01, 1.26957536e-01, 2.14954112e-02, 0.,
          1.11347094e-01, 4.31393236e-02, 4.98582534e-02, 0.,
          5.24895228e-02, 0., 0., 0. ]
      - [ 2.21135527e-01, 1.58993781e-01, 1.29550382e-01, 1.05512425e-01,
          1.79256752e-01, 1.91727251e-01, 1.24434866e-01, 1.99291795e-01,
          2.63608217e-01, 2.11210161e-01, 1.94614828e-01, 1.55584022e-01,
          1.19249657e-01, 1.48055553e-01, 1.52634412e-01, 2.09918782e-01,
          1.67947650e-01, 0., 1.47883549e-01, 1.53055757e-01,
          1.79472819e-01, 9.28828344e-02, 1.58949986e-01, 2.02768147e-01,
          2.34194145e-01, 4.85843308e-02, 1.14830397e-01, 1.66381001e-01,
          1.60842523e-01, 1.00619927e-01, 1.41812101e-01, 2.15942517e-01,
          1.08579874e-01, 8.44872668e-02, 0., 8.92036781e-02,
          1.02348223e-01, 3.24745700e-02, 0., 0., 0., 0., 0., 0.,
          1.25542030e-01, 1.16819642e-01, 0., 9.29666236e-02,
          5.57030663e-02, 0., 6.23434633e-02, 0., 6.59087524e-02,
          5.09894937e-02, 0., 0., 5.83155490e-02, 0., 0., 3.79054360e-02,
          7.94037357e-02, 3.02697066e-02, 7.83479512e-02, 6.32272139e-02 ]
      - [ 1.32528424e-01, 1.29344985e-01, 2.12524444e-01, 1.22711957e-01,
          3.04615289e-01, 1.43883452e-01, 1.30687907e-01, 5.42429574e-02,
          2.16258496e-01, 8.33046138e-02, 1.63465157e-01, 2.78342783e-01,
          1.68909833e-01, 8.65979344e-02, 1.78553715e-01, 2.38885432e-01,
          1.68002948e-01, 1.36715680e-01, 5.36024906e-02, 6.16827048e-02,
          2.21413985e-01, 1.59475058e-01, 2.37427518e-01, 2.58648247e-01,
          2.10101068e-01, 1.03279486e-01, 7.31145442e-02, 1.10288069e-01,
          1.34714797e-01, 7.93886036e-02, 1.03305019e-01, 8.47801864e-02,
          9.81978178e-02, 0., 1.05361961e-01, 0., 1.27278894e-01, 0., 0.,
          0., 0., 0., 0., 3.63826491e-02, 1.25627324e-01, 0., 0.,
          1.57105923e-01, 8.33326206e-02, 0., 0., 0., 7.91452304e-02,
          7.38089383e-02, 5.57876937e-02, 0., 3.79472338e-02, 0., 0., 0.,
          1.27114743e-01, 3.91245820e-02, 0., 5.92197627e-02 ]
      - [ 1.32229686e-01, 8.11329260e-02, 1.68474898e-01, 1.54508576e-01,
          1.50600865e-01, 1.42812952e-01, 6.46513253e-02, 2.38994762e-01,
          2.71920413e-01, 1.20452635e-01, 1.30571246e-01, 2.46717229e-01,
          2.54679978e-01, 1.04433686e-01, 1.81912735e-01, 1.90146700e-01,
          1.88105121e-01, 6.94241226e-02, 1.58652529e-01, 2.70332605e-01,
          1.78330898e-01, 0., 1.30179077e-01, 1.48018867e-01,
          2.50676751e-01, 7.34191984e-02, 5.21879680e-02, 2.16917798e-01,
          1.87736079e-01, 1.08781189e-01, 1.05680861e-01, 0.,
          3.65569517e-02, 0., 0., 5.80801256e-02, 1.63164318e-01,
          6.67375103e-02, 0., 0., 0., 0., 0., 0., 1.14474140e-01,
          5.65388128e-02, 0., 4.86256182e-02, 5.21588959e-02, 0.,
          9.09755602e-02, 0., 1.13887608e-01, 0., 0., 0., 0., 0., 0.,
          6.18410446e-02, 1.35380641e-01, 5.56267947e-02, 1.24097005e-01,
          5.90521321e-02 ]
      - [ 7.12983236e-02, 6.65099546e-02, 1.46708235e-01, 1.60019621e-01,
          3.53665113e-01, 1.56063855e-01, 6.53260201e-02, 9.74654257e-02,
          1.96385920e-01, 0., 1.72364697e-01, 2.94533074e-01,
          3.59348327e-01, 3.37304175e-02, 0., 0., 1.21296547e-01,
          1.86270446e-01, 9.65400413e-02, 1.54179975e-01, 1.18388630e-01,
          8.52488428e-02, 1.12408601e-01, 6.55563399e-02, 2.14415312e-01,
          1.36067733e-01, 2.20468208e-01, 6.22331277e-02, 3.03388387e-01,
          1.34509027e-01, 0., 6.22717440e-02, 0., 4.05987278e-02,
          1.38886601e-01, 5.48831187e-02, 1.45831555e-01, 0., 0., 0.,
          1.88125260e-02, 0., 0., 0., 1.87820405e-01, 0., 0.,
          3.58066261e-02, 3.25842500e-02, 0., 5.82114123e-02, 0.,
          1.09500155e-01, 0., 0., 0., 0., 0., 0., 5.28217107e-02,
          1.99220046e-01, 4.60095182e-02, 0., 0. ]
      - [ 1.23018749e-01, 3.36453468e-02, 0., 2.90473755e-02,
          5.65845035e-02, 0., 7.04491735e-02, 7.67735839e-02,
          1.96324989e-01, 1.82216749e-01, 1.99998483e-01, 1.22993872e-01,
          2.54982471e-01, 1.33463621e-01, 2.50956982e-01, 1.17357515e-01,
          2.31005270e-02, 6.44259304e-02, 6.15807138e-02, 1.70527697e-01,
          5.40814281e-01, 2.61463404e-01, 1.57952040e-01, 1.05731875e-01,
          1.58474088e-01, 1.29183128e-01, 0., 0., 1.31267294e-01,
          1.15165390e-01, 1.32267773e-01, 0., 9.03495178e-02, 0.,
          3.94436046e-02, 0., 1.00692861e-01, 0., 0., 0., 4.00112867e-02,
          5.89819476e-02, 8.79300460e-02, 5.96639328e-02, 1.64970756e-01,
          6.49519041e-02, 8.24774504e-02, 9.86808613e-02, 2.31005270e-02,
          0., 0., 0., 2.25695789e-01, 5.89819476e-02, 0., 0., 0.,
          8.52350816e-02, 6.45586327e-02, 0., 8.64342600e-02, 0., 0., 0. ]
      - [ 2.87073702e-01, 1.82029754e-01, 2.21076369e-01, 1.46229073e-01,
          1.98535010e-01, 1.00606062e-01, 1.70462236e-01, 1.61284819e-01,
          3.57082963e-01, 2.12904274e-01, 6.74177185e-02, 1.14161938e-01,
          2.70485342e-01, 8.41061100e-02, 2.00127020e-01, 2.36660168e-01,
          1.83953375e-01, 1.60643026e-01, 7.06731454e-02, 8.42813626e-02,
          1.45304516e-01, 0., 1.53944880e-01, 2.45402843e-01,
          2.10177809e-01, 1.25236750e-01, 3.39680351e-02, 3.09548285e-02,
          1.03431754e-01, 7.94710368e-02, 9.94165465e-02, 1.34555534e-01,
          7.17716366e-02, 3.61011736e-02, 8.22516680e-02, 8.36392641e-02,
          1.22051857e-01, 4.27859947e-02, 0., 0., 0., 3.30532566e-02, 0.,
          0., 8.46506804e-02, 3.61011736e-02, 0., 0., 3.95502374e-02, 0.,
          0., 4.03950252e-02, 4.60550673e-02, 0., 0., 0., 0., 0., 0., 0.,
          7.65214413e-02, 2.60298047e-02, 0., 2.77943648e-02 ]
      - [ 2.20385671e-01, 5.06325029e-02, 3.66816297e-02, 5.38893603e-02,
          7.15713724e-02, 0., 4.07493524e-02, 1.06288180e-01,
          3.09639454e-01, 2.71952808e-01, 2.31546357e-01, 1.48938537e-01,
          1.87388539e-01, 2.67232448e-01, 2.15935096e-01, 1.44018009e-01,
          2.34350502e-01, 2.13817894e-01, 1.54747203e-01, 7.46396482e-02,
          1.85385421e-01, 1.13908105e-01, 1.91613883e-01, 1.57386974e-01,
          1.21739045e-01, 9.42087248e-02, 1.23284429e-01, 1.10152364e-01,
          7.46183097e-02, 1.13502339e-01, 7.43650645e-02, 1.02084830e-01,
          3.85717005e-02, 0., 5.25732748e-02, 0., 7.61999711e-02, 0., 0.,
          0., 6.99981824e-02, 0., 7.63480663e-02, 1.05303518e-01,
          1.20801196e-01, 0., 0., 0., 2.62230009e-01, 8.78813416e-02,
          6.27713576e-02, 1.00660659e-01, 2.12105095e-01, 0., 0., 0., 0.,
          0., 0., 0., 1.49236619e-02, 0., 0., 1.87655129e-02 ]
      - [ 2.92706758e-01, 1.68274477e-01, 1.07440040e-01, 8.95455405e-02,
          1.56987563e-01, 4.49135043e-02, 4.88077365e-02, 2.06478804e-01,
          3.53432000e-01, 2.03846186e-01, 8.64664093e-02, 0.,
          1.42497554e-01, 9.42452475e-02, 1.52358890e-01, 3.39376718e-01,
          2.33535305e-01, 1.10737048e-01, 1.66312858e-01, 0.,
          1.59964263e-01, 9.12836120e-02, 1.99358493e-01, 1.92065939e-01,
          2.28695378e-01, 4.92034629e-02, 6.69425279e-02, 1.08202837e-01,
          1.05119497e-01, 1.15068227e-01, 9.57453325e-02, 2.23070592e-01,
          0., 0., 0., 0., 1.05487317e-01, 8.91308039e-02, 0.,
          6.79105967e-02, 9.60278213e-02, 5.86299337e-02, 8.93923268e-02,
          0., 1.10189214e-01, 0., 0., 0., 5.75434230e-02, 0.,
          4.14997302e-02, 0., 1.33702680e-01, 0., 0., 0., 3.77519056e-02,
          2.56917812e-02, 7.30562136e-02, 0., 8.22783709e-02, 0., 0.,
          2.28435826e-02 ]
      - [ 1.44518092e-01, 1.25329077e-01, 1.32050782e-01, 8.48397017e-02,
          8.82863551e-02, 0., 7.22356290e-02, 2.31325909e-01,
          3.59991431e-01, 2.81181365e-01, 1.09310605e-01, 1.16074875e-01,
          2.22783476e-01, 8.17558616e-02, 1.62673801e-01, 2.04362333e-01,
          1.65435806e-01, 7.22356290e-02, 1.17699556e-01, 9.61578190e-02,
          1.03606708e-01, 0., 1.61184028e-01, 2.38713548e-01,
          2.39281133e-01, 1.34512693e-01, 1.86425939e-01, 1.51866779e-01,
          1.79307222e-01, 2.15498835e-01, 1.42473623e-01, 1.40053138e-01,
          3.74183469e-02, 1.81662980e-02, 0., 0., 4.83068787e-02, 0., 0.,
          0., 0., 0., 0., 0., 1.10156626e-01, 0., 1.11460134e-01,
          1.38265297e-01, 1.06474444e-01, 5.46663292e-02, 0., 0.,
          7.16506764e-02, 0., 0., 0., 0., 0., 0., 0., 1.24102615e-01, 0.,
          1.57524779e-01, 7.17982575e-02 ]
      - [ 2.60058999e-01, 0., 0., 5.41858897e-02, 9.47396085e-02,
          1.94227561e-01, 2.53465444e-01, 2.92450696e-01, 1.99490547e-01,
          1.54147372e-01, 1.21707730e-01, 1.59556121e-01, 1.82053268e-01,
          1.50206164e-01, 2.01006532e-01, 1.69615686e-01, 1.27321586e-01,
          5.34155555e-02, 3.91425602e-02, 0., 9.89043042e-02,
          1.30974784e-01, 1.76555693e-01, 2.32840836e-01, 3.06517631e-01,
          1.78170621e-01, 1.21845782e-01, 1.34533018e-01, 1.80387512e-01,
          1.50791481e-01, 1.56772673e-01, 0., 1.34025872e-01, 0., 0., 0.,
          2.95727067e-02, 0., 0., 0., 0., 0., 0., 0., 1.27648562e-01,
          8.98605511e-02, 1.30205050e-01, 9.68413055e-02, 1.97234958e-01,
          0., 0., 0., 9.85497460e-02, 0., 0., 0., 0., 0., 0., 0.,
          5.75679205e-02, 0., 7.87994489e-02, 7.18355551e-02 ]
      - [ 2.96547085e-01, 1.25614673e-01, 8.24251026e-02, 1.16162069e-01,
          1.37115836e-01, 7.51244053e-02, 1.68934956e-01, 2.66875595e-01,
          2.14394838e-01, 1.84040979e-01, 8.30245912e-02, 1.20866761e-01,
          1.29177436e-01, 1.51596084e-01, 9.77069139e-02, 1.93482772e-01,
          2.34009758e-01, 1.64702758e-01, 0., 1.36896163e-01,
          2.67376244e-01, 1.76098540e-01, 1.14527196e-01, 2.46703997e-01,
          2.72262841e-01, 1.90531820e-01, 8.33908394e-02, 1.89725459e-02,
          1.55789256e-01, 2.91277859e-02, 1.70757025e-01, 1.89718336e-01,
          6.45561814e-02, 5.40541038e-02, 6.14649057e-02, 0.,
          1.11921407e-01, 5.54358810e-02, 0., 0., 6.29884005e-02, 0.,
          9.51911137e-02, 0., 9.46282893e-02, 0., 0., 0., 4.85021323e-02,
          0., 0., 6.86376616e-02, 8.49066675e-02, 0., 0., 0.,
          9.15977657e-02, 0., 0., 3.02288756e-02, 6.69123083e-02, 0., 0.,
          4.66158353e-02 ]
      - [ 9.53906402e-02, 6.60049990e-02, 4.08742316e-02, 0.,
          5.71472496e-02, 3.38539928e-02, 5.92042468e-02, 5.55513203e-02,
          1.43783510e-01, 2.89392322e-01, 2.64862686e-01, 2.55129158e-01,
          2.58133113e-01, 1.84441090e-01, 1.61406070e-01, 3.25060822e-02,
          2.01920703e-01, 6.64291307e-02, 1.75322637e-01, 2.46343836e-01,
          1.72740996e-01, 6.07950501e-02, 7.26875216e-02, 1.35437533e-01,
          2.65630305e-01, 3.21399480e-01, 1.03682734e-01, 7.96783119e-02,
          2.12517932e-01, 7.87307248e-02, 0., 1.42450079e-01,
          7.07100257e-02, 0., 0., 0., 0., 0., 0., 0., 0., 0., 0., 0.,
          1.45844966e-01, 1.03521496e-01, 1.58410907e-01, 1.30658120e-01,
          3.57962362e-02, 6.90432787e-02, 6.73077181e-02, 0.,
          7.15924725e-02, 0., 0., 0., 0., 0., 0., 0., 1.01247050e-01, 0.,
          0., 2.12030292e-01 ]
      - [ 1.45957366e-01, 1.59283504e-01, 1.58881053e-01, 1.71126932e-01,
          1.52211487e-01, 2.59350359e-01, 2.04178661e-01, 2.46354669e-01,
          3.47315043e-01, 2.23945022e-01, 1.19543120e-01, 9.34448466e-02,
          1.28943130e-01, 1.08602881e-01, 0., 6.85061440e-02,
          9.15597230e-02, 1.02004848e-01, 1.13058522e-01, 4.87682857e-02,
          1.20749444e-01, 8.47630799e-02, 1.42724752e-01, 1.75370410e-01,
          2.38809615e-01, 1.95104986e-01, 9.22821835e-02, 1.15030020e-01,
          1.52093515e-01, 1.42294452e-01, 9.97317657e-02, 4.11850438e-02,
          2.90855914e-01, 8.85837674e-02, 5.15414216e-02, 0.,
          1.13225743e-01, 0., 0., 0., 0., 0., 0., 0., 6.86689690e-02, 0.,
          0., 1.36765420e-01, 1.40607953e-01, 9.21481103e-02, 0., 0.,
          8.05215091e-02, 0., 0., 0., 0., 0., 0., 0., 9.93626043e-02,
          8.35955068e-02, 1.07210398e-01, 7.69654661e-02 ]
      - [ 1.27183065e-01, 1.22607604e-01, 1.86662853e-01, 1.70808524e-01,
          2.22580254e-01, 8.77087712e-02, 1.74222574e-01, 1.35608867e-01,
          2.13023454e-01, 2.44778827e-01, 1.95453942e-01, 1.11500308e-01,
          1.74660489e-01, 9.07579735e-02, 2.38492966e-01, 9.23759714e-02,
          1.82261840e-01, 1.50074884e-01, 6.08492307e-02, 2.04526737e-01,
          2.53209740e-01, 1.26619041e-01, 9.07514170e-02, 5.68516776e-02,
          1.75026476e-01, 2.01653346e-01, 2.38758206e-01, 2.21831620e-01,
          1.20154671e-01, 8.05748478e-02, 3.55209447e-02, 8.26403648e-02,
          1.09915920e-01, 1.07748739e-01, 0., 8.66514519e-02,
          1.35987207e-01, 0., 0., 0., 0., 0., 8.45978335e-02, 0.,
          1.36582345e-01, 7.57309049e-02, 5.25760353e-02, 0.,
          9.28445607e-02, 0., 5.61217219e-02, 7.13698640e-02,
          1.29404426e-01, 0., 0., 0., 0., 0., 0., 0., 9.44554433e-02,
          9.71999839e-02, 5.74680939e-02, 0. ]
      - [ 1.76955611e-01, 1.47420451e-01, 1.08384706e-01, 2.02971566e-02,
          1.20821424e-01, 0., 2.17296615e-01, 3.56382042e-01,
          2.09006399e-01, 9.68196169e-02, 4.83635440e-02, 6.03934415e-02,
          1.01339966e-01, 1.00736201e-01, 2.99277216e-01, 1.78568915e-01,
          2.20572546e-01, 8.82059559e-02, 0., 3.71726342e-02,
          1.89805515e-02, 6.83440566e-02, 2.35205486e-01, 3.61331403e-01,
          1.77844316e-01, 7.52278790e-02, 0., 0., 1.19422980e-01,
          7.73810074e-02, 5.16502596e-02, 2.96233147e-01, 1.38130844e-01,
          1.15696125e-01, 0., 6.78796098e-02, 1.39851868e-01,
          7.08403587e-02, 0., 0., 0., 0., 7.27536157e-02, 0.,
          1.33919507e-01, 6.45965859e-02, 0., 8.03437307e-02, 0., 0., 0.,
          0., 9.16787311e-02, 0., 3.54730673e-02, 0., 5.70481531e-02,
          5.18877208e-02, 0., 5.54225706e-02, 1.36998624e-01,
          1.17259815e-01, 0., 4.07740735e-02 ]
      - [ 2.41858035e-01, 6.31935298e-02, 1.28660619e-01, 1.28000855e-01,
          1.10769399e-01, 1.30795062e-01, 2.22598210e-01, 2.01325312e-01,
          2.57475138e-01, 1.98493734e-01, 7.49577433e-02, 1.08256407e-01,
          2.02843741e-01, 1.68728381e-01, 2.42695242e-01, 2.36041307e-01,
          1.15023404e-01, 1.24296494e-01, 6.05905876e-02, 4.83903289e-02,
          1.50640681e-01, 1.26897201e-01, 1.73904553e-01, 2.56190062e-01,
          2.61403441e-01, 1.50360346e-01, 1.03203788e-01, 1.58432454e-01,
          1.18828356e-01, 2.80311015e-02, 1.06957078e-01, 7.62619898e-02,
          0., 0., 0., 0., 5.07819206e-02, 0., 0., 1.02937728e-01,
          6.08278103e-02, 0., 2.02549584e-02, 0., 6.69692159e-02, 0.,
          1.41152561e-01, 0., 1.97262004e-01, 1.02458738e-01, 0., 0.,
          9.04704258e-02, 0., 0., 0., 0., 0., 0., 0., 9.17013735e-02, 0.,
          0., 2.04781041e-01 ]
      - [ 2.40687624e-01, 6.82944804e-02, 8.25336874e-02, 8.21270794e-02,
          1.60069123e-01, 1.09765202e-01, 1.45826623e-01, 2.40833744e-01,
          2.86159307e-01, 1.54425442e-01, 1.62826210e-01, 2.41929665e-01,
          2.47972324e-01, 7.36846030e-02, 1.05303213e-01, 1.07585087e-01,
          2.52675444e-01, 1.47476792e-01, 9.53282863e-02, 0.,
          2.50656962e-01, 7.18312189e-02, 6.11555800e-02, 2.17891410e-01,
          1.75256267e-01, 1.39663935e-01, 0., 1.53969750e-01,
          1.49463370e-01, 7.79682696e-02, 9.30258110e-02, 1.18560836e-01,
          1.96335256e-01, 1.45300999e-01, 0., 0., 1.41600281e-01, 0., 0.,
          0., 0., 0., 0., 0., 1.77138224e-01, 1.12965301e-01,
          1.27123311e-01, 1.16306610e-01, 2.28209514e-02, 0., 0.,
          6.78836405e-02, 1.22865759e-01, 6.95275888e-02, 0., 0., 0.,
          4.08333242e-02, 5.63787334e-02, 0., 6.45473972e-02, 0., 0., 0. ]
      - [ 1.63269296e-01, 1.41680717e-01, 1.71774283e-01, 2.49033883e-01,
          2.59308636e-01, 6.65952414e-02, 0., 1.40204698e-01,
          1.98093921e-01, 1.12565786e-01, 1.93438530e-01, 1.70595303e-01,
          2.80224770e-01, 1.31654188e-01, 8.88246372e-02, 1.49899259e-01,
          1.77218601e-01, 1.03474095e-01, 1.68125600e-01, 2.43408233e-01,
          2.24598572e-01, 7.51218498e-02, 0., 1.00786842e-01,
          1.85437217e-01, 8.34352598e-02, 1.17709972e-01, 2.73615927e-01,
          2.22223625e-01, 9.28185508e-02, 5.44761308e-02, 1.20141439e-01,
          5.14845215e-02, 4.18485478e-02, 4.85222414e-02, 0.,
          1.61968693e-01, 0., 0., 3.79977897e-02, 0., 0., 0., 0.,
          1.54612124e-01, 0., 0., 4.80484776e-02, 3.23809646e-02,
          1.27956597e-02, 4.42619585e-02, 0., 1.66011453e-01, 0., 0., 0.,
          0., 0., 0., 4.18485478e-02, 1.74596950e-01, 2.83387899e-02, 0.,
          0. ]
      - [ 8.58517587e-02, 0., 3.01241800e-02, 1.04742676e-01,
          1.43826380e-01, 1.35174468e-01, 7.47897327e-02, 2.03373641e-01,
          2.72320569e-01, 2.34653592e-01, 2.13767111e-01, 1.54525056e-01,
          2.93326527e-01, 2.08632752e-01, 1.94252133e-01, 1.19265839e-01,
          2.62365460e-01, 1.07954569e-01, 1.05279222e-01, 0.,
          1.52076334e-01, 2.69484133e-01, 2.69501448e-01, 1.82536319e-01,
          2.01165676e-01, 1.29185081e-01, 0., 6.07144050e-02,
          9.08406377e-02, 5.86480834e-02, 2.99521256e-02, 1.45735264e-01,
          0., 0., 0., 8.11906680e-02, 8.98118317e-02, 0., 0., 0.,
          5.81716113e-02, 0., 6.28076270e-02, 1.32460326e-01,
          1.59466475e-01, 0., 4.20763791e-02, 0., 0., 2.99005732e-02,
          5.76033629e-02, 0., 2.00585455e-01, 0., 0., 0., 4.99046594e-02,
          0., 0., 0., 7.46705458e-02, 5.60683981e-02, 6.46880716e-02, 0. ]
      - [ 1.44096419e-01, 1.63174704e-01, 9.94629413e-02, 1.46293655e-01,
          3.13964546e-01, 1.64887175e-01, 1.13170929e-01, 1.03367768e-01,
          8.16948712e-02, 2.25181982e-01, 1.87405452e-01, 3.06045353e-01,
          2.71914810e-01, 6.68753088e-02, 2.34115608e-02, 0.,
          1.78346112e-01, 1.15922429e-01, 1.61007375e-01, 1.53408378e-01,
          1.01613835e-01, 1.01303324e-01, 5.74980415e-02, 1.71143264e-01,
          1.81676134e-01, 2.27950394e-01, 1.01930857e-01, 1.87895477e-01,
          2.34209791e-01, 9.99245867e-02, 9.51231048e-02, 4.30861302e-02,
          5.94844036e-02, 1.14288166e-01, 9.45583135e-02, 0.,
          1.29775003e-01, 4.05665673e-02, 5.79250082e-02, 0.,
          5.23202084e-02, 0., 0., 8.24630708e-02, 1.44409329e-01, 0.,
          6.20424449e-02, 0., 7.04007596e-02, 0., 3.09211314e-02,
          8.23733807e-02, 1.15871973e-01, 0., 4.90010940e-02, 0.,
          5.54894693e-02, 0., 0., 0., 1.98533952e-01, 0., 0., 0. ]
      - [ 2.33625129e-01, 3.91277298e-02, 0., 1.25542328e-01,
          1.51664034e-01, 5.39363660e-02, 7.65831694e-02, 3.60529184e-01,
          2.72538483e-01, 1.14896119e-01, 0., 9.61904526e-02,
          1.27720281e-01, 1.20887823e-01, 1.25489771e-01, 2.57892013e-01,
          2.55348980e-01, 4.62569669e-02, 5.18099889e-02, 3.46146375e-02,
          5.41524775e-02, 0., 9.83767435e-02, 3.02984834e-01,
          1.76247150e-01, 5.51431142e-02, 1.09743640e-01, 7.06268772e-02,
          1.30662739e-01, 3.86196263e-02, 5.83332293e-02, 3.00359190e-01,
          6.48634583e-02, 0., 0., 1.16519257e-01, 1.81962863e-01,
          9.45130512e-02, 8.07854310e-02, 1.13606945e-01, 1.21528141e-01,
          0., 0., 0., 1.25201821e-01, 8.05518925e-02, 1.22638464e-01, 0.,
          0., 0., 5.68971522e-02, 0., 1.50355697e-01, 4.72478941e-02,
          1.25494659e-01, 0., 5.93210645e-02, 0., 1.07721239e-01, 0.,
          1.65290982e-01, 0., 0., 0. ]
      - [ 2.71601081e-01, 1.37550429e-01, 2.28699639e-01, 8.71653184e-02,
          1.71580434e-01, 3.08695555e-01, 5.08502945e-02, 1.53759763e-01,
          3.07160825e-01, 8.03566724e-02, 1.18490405e-01, 2.43307799e-01,
          3.37792635e-01, 8.79483074e-02, 0., 0., 3.38420093e-01,
          9.71293971e-02, 9.54929441e-02, 8.14629495e-02, 0.,
          8.31980482e-02, 1.02866106e-01, 1.76079348e-01, 3.17694038e-01,
          0., 0., 0., 1.29378503e-02, 0., 0., 0., 9.96329486e-02, 0.,
          6.50556609e-02, 1.45431593e-01, 1.54714182e-01, 0., 0., 0., 0.,
          0., 0., 0., 1.81652814e-01, 8.26638192e-02, 0., 0.,
          1.09172896e-01, 0., 0., 0., 1.44649558e-02, 0., 0., 0., 0., 0.,
          0., 0., 6.46892516e-03, 0., 0., 0. ]
      - [ 9.48538035e-02, 1.11583896e-01, 5.38749993e-02, 0.,
          1.76685944e-01, 1.39365733e-01, 2.83207297e-01, 2.99811602e-01,
          3.17288280e-01, 1.57166123e-01, 1.97864562e-01, 1.35231525e-01,
          1.92011997e-01, 1.06335253e-01, 0., 5.88256866e-02,
          1.44458845e-01, 1.63383886e-01, 9.04131681e-02, 0.,
          7.56237134e-02, 1.49687707e-01, 1.78899199e-01, 1.54427603e-01,
          1.92123845e-01, 2.28919595e-01, 2.45954126e-01, 1.43392846e-01,
          2.23904297e-01, 1.83161095e-01, 1.66242540e-01, 1.10819332e-01,
          8.97474959e-02, 4.62377034e-02, 0., 4.75844704e-02,
          5.45132756e-02, 0., 0., 0., 0., 0., 0., 0., 1.20747216e-01,
          6.81569949e-02, 1.22044310e-01, 9.33234096e-02, 9.54898521e-02,
          0., 4.40980792e-02, 0., 4.41608019e-02, 0., 0., 0., 0., 0., 0.,
          0., 6.94910660e-02, 6.50869086e-02, 8.02916661e-02, 0. ]
      - [ 4.35132027e-01, 5.47706243e-03, 0., 0., 2.34842598e-02, 0., 0.,
          0., 5.09433091e-01, 5.16574532e-02, 1.26959234e-01, 0., 0., 0.,
          2.40213890e-02, 2.85467803e-01, 4.58059758e-01, 6.78694695e-02,
          1.04107566e-01, 0., 0., 0., 0., 2.94542104e-01, 3.64960015e-01,
          5.47706243e-03, 1.66303888e-02, 0., 2.39486322e-02, 0., 0., 0.,
          2.17302851e-02, 0., 0., 1.60640720e-02, 1.72327347e-02, 0., 0.,
          0., 0., 0., 0., 0., 9.21128411e-03, 0., 1.37740830e-02,
          1.04000047e-02, 0., 5.47706243e-03, 0., 0., 0., 0., 0., 0.,
          4.07343656e-02, 1.11741172e-02, 0., 0., 1.95400845e-02, 0., 0.,
          0. ]
      - [ 2.93076605e-01, 4.92205359e-02, 0., 0., 5.73963001e-02,
          3.78089696e-02, 0., 7.30133802e-02, 3.20091873e-01,
          1.95607543e-01, 1.49659559e-01, 2.07757622e-01, 1.63318098e-01,
          1.34574816e-01, 1.62148729e-01, 1.97462216e-01, 6.98761418e-02,
          0., 0., 7.35758170e-02, 3.94494653e-01, 3.04234356e-01,
          1.97756141e-01, 2.98365597e-02, 1.19315691e-01, 2.20399573e-01,
          1.23998202e-01, 1.60036713e-01, 2.16395333e-01, 1.03872195e-01,
          4.93243523e-02, 0., 0., 0., 0., 0., 5.42048849e-02, 0.,
          2.44045518e-02, 0., 5.20315804e-02, 4.35245782e-02,
          4.64483649e-02, 1.79688007e-01, 1.86774343e-01, 0., 0., 0.,
          3.06796115e-02, 0., 5.22184186e-02, 1.32028803e-01,
          1.40172586e-01, 0., 0., 0., 0., 3.03135868e-02, 0., 0.,
          3.25406417e-02, 3.77044901e-02, 0., 3.65996622e-02 ]
      - [ 1.80251896e-01, 1.77132398e-01, 0., 1.44647792e-01,
          2.41267264e-01, 1.90001637e-01, 1.59882531e-01, 1.77096874e-01,
          2.31276691e-01, 2.33523533e-01, 9.30790231e-02, 1.72175854e-01,
          1.90681234e-01, 1.22028969e-01, 1.10073783e-01, 1.88006848e-01,
          1.59838915e-01, 8.59824196e-02, 9.12427828e-02, 1.37963951e-01,
          2.37291873e-01, 1.70797676e-01, 1.05992638e-01, 2.67636269e-01,
          2.18323767e-01, 1.47599176e-01, 1.89338490e-01, 1.61860809e-01,
          1.29061565e-01, 5.78022823e-02, 6.96391016e-02, 1.18731193e-01,
          7.60360211e-02, 1.71300262e-01, 8.42347592e-02, 3.47643904e-02,
          1.59374863e-01, 0., 0., 0., 0., 0., 0., 0., 7.55203217e-02, 0.,
          8.56050327e-02, 0., 0., 0., 0., 0., 6.92331865e-02, 0., 0., 0.,
          2.30037812e-02, 0., 0., 3.96453440e-02, 1.76317573e-01, 0., 0.,
          0. ]
      - [ 2.43071467e-01, 1.79074407e-01, 5.20699807e-02, 5.91367558e-02,
          1.00653626e-01, 7.91350305e-02, 1.67110428e-01, 3.26303393e-01,
          2.98327893e-01, 1.74375370e-01, 0., 9.94957313e-02,
          2.04779550e-01, 1.22660719e-01, 1.54199198e-01, 2.33548686e-01,
          2.64570028e-01, 1.57777786e-01, 4.13038656e-02, 4.05627675e-02,
          8.53385404e-02, 1.38891280e-01, 1.87528685e-01, 2.00302139e-01,
          1.93970457e-01, 1.71811327e-01, 8.00468549e-02, 6.44982159e-02,
          1.05426557e-01, 1.20293990e-01, 1.64264306e-01, 1.89188406e-01,
          1.70426905e-01, 0., 7.80775696e-02, 0., 1.11325867e-01, 0., 0.,
          0., 8.58897716e-03, 6.63010776e-02, 0., 0., 1.41092435e-01, 0.,
          0., 9.57769454e-02, 4.43532877e-02, 6.06933869e-02, 0.,
          6.90471902e-02, 1.04371682e-01, 3.06238122e-02, 0.,
          6.40967935e-02, 0., 0., 5.22489473e-02, 0., 6.88905194e-02, 0.,
          6.10053800e-02, 4.92180176e-02 ]
      - [ 2.08334804e-01, 1.86185747e-01, 1.21139556e-01, 1.70333460e-01,
          2.32674956e-01, 2.38587454e-01, 1.39026746e-01, 1.57039374e-01,
          2.07599834e-01, 1.68721020e-01, 1.27428845e-01, 1.94205970e-01,
          3.07352275e-01, 8.16769004e-02, 0., 1.29339382e-01,
          2.72692353e-01, 1.48634166e-01, 3.03557906e-02, 9.02349725e-02,
          1.58131540e-01, 1.82106867e-01, 1.43161952e-01, 1.50835872e-01,
          1.17707245e-01, 1.31681517e-01, 1.85767367e-01, 5.79640493e-02,
          9.94236246e-02, 5.28643392e-02, 8.61414745e-02, 2.21516773e-01,
          2.45696474e-02, 0., 0., 1.41304329e-01, 1.51706383e-01,
          4.96617667e-02, 2.06605289e-02, 1.38701862e-02, 0., 0., 0.,
          3.92308086e-02, 1.70058236e-01, 8.13210681e-02, 5.07499278e-02,
          0., 0., 0., 0., 7.42704496e-02, 1.54078767e-01, 0., 0., 0.,
          4.57917377e-02, 0., 0., 6.05983548e-02, 1.15314774e-01, 0., 0.,
          0. ]
      - [ 2.76407957e-01, 1.34120792e-01, 7.38690570e-02, 0.,
          8.17395598e-02, 4.61161137e-02, 6.90003708e-02, 2.39987791e-01,
          4.15317118e-01, 1.15517698e-01, 4.85072322e-02, 6.61432371e-02,
          9.98362079e-02, 0., 1.33515790e-01, 3.60565513e-01,
          2.87967891e-01, 1.21995904e-01, 1.10085398e-01, 8.44819546e-02,
          1.09402962e-01, 3.48807983e-02, 0., 3.63433063e-01,
          2.05502555e-01, 0., 0., 4.65053171e-02, 9.00460556e-02,
          2.29468234e-02, 1.08436495e-01, 3.01064879e-01, 7.91130960e-02,
          8.35287198e-02, 0., 0., 7.02059045e-02, 0., 0., 3.05854902e-02,
          3.41807641e-02, 0., 2.98362821e-02, 0., 3.13970335e-02, 0.,
          2.34019682e-02, 9.03134570e-02, 0., 0., 0., 0., 1.20847244e-02,
          0., 0., 9.66372043e-02, 6.91579953e-02, 0., 5.12278192e-02,
          6.70486763e-02, 9.06354338e-02, 2.04029325e-02, 0., 0. ]
      - [ 2.54273236e-01, 2.20931873e-01, 9.83444825e-02, 8.12502801e-02,
          1.11840099e-01, 9.00983587e-02, 1.60105467e-01, 2.49857590e-01,
          2.46727407e-01, 1.56898931e-01, 1.69140741e-01, 3.46942618e-02,
          1.21680476e-01, 1.73473954e-01, 2.48575240e-01, 1.93293571e-01,
          2.52819330e-01, 7.07064196e-02, 1.32377833e-01, 1.28005862e-01,
          1.14709571e-01, 8.89062211e-02, 1.65878832e-01, 2.33417079e-01,
          2.60111004e-01, 1.25970125e-01, 1.09680437e-01, 9.83435214e-02,
          1.08793251e-01, 7.83070102e-02, 1.78620204e-01, 2.24937901e-01,
          0., 0., 6.68524876e-02, 0., 1.05090581e-01, 7.80962482e-02, 0.,
          0., 1.10039875e-01, 0., 7.02476650e-02, 4.01691794e-02,
          1.04080766e-01, 0., 0., 0., 1.90289095e-02, 0., 0., 0.,
          8.07418600e-02, 0., 0., 0., 6.24988042e-02, 0., 0., 0.,
          1.02031156e-01, 0., 1.20103374e-01, 6.24988936e-02 ]
      - [ 1.87296420e-01, 1.27226532e-01, 1.50333121e-01, 1.22809120e-01,
          2.20121503e-01, 2.01390132e-01, 1.51014745e-01, 0.,
          2.61912912e-01, 1.71728581e-01, 2.14074373e-01, 2.04753637e-01,
          2.17816189e-01, 1.40274182e-01, 8.16436112e-02, 9.83410031e-02,
          1.84498250e-01, 1.24925047e-01, 1.71113834e-01, 1.73615366e-01,
          1.95641890e-01, 1.60336435e-01, 9.80457962e-02, 1.05291724e-01,
          2.42763475e-01, 1.24316677e-01, 1.31512389e-01, 1.25428736e-01,
          1.66419506e-01, 0., 1.80186197e-01, 0., 8.23309571e-02,
          1.16366372e-01, 6.60117641e-02, 0., 1.71860904e-01, 0., 0., 0.,
          0., 0., 8.51585045e-02, 6.92504495e-02, 1.37697458e-01,
          9.69688669e-02, 0., 6.26685321e-02, 6.32848293e-02, 0.,
          7.19489828e-02, 0., 1.32039532e-01, 0., 0., 0., 0., 0., 0., 0.,
          1.46206588e-01, 8.71110708e-02, 0., 1.20304935e-01 ]
      - [ 2.55096823e-01, 1.55632839e-01, 1.03182063e-01, 1.55986086e-01,
          1.73636153e-01, 9.42082182e-02, 9.20310244e-02, 2.46931508e-01,
          3.23414952e-01, 1.71528339e-01, 9.51056629e-02, 8.97692367e-02,
          1.89759240e-01, 0., 1.06651731e-01, 2.19263017e-01,
          2.41683841e-01, 1.23968102e-01, 1.09482117e-01, 1.04689561e-01,
          1.95888937e-01, 1.09850280e-01, 0., 2.14910969e-01,
          2.65421242e-01, 5.03707863e-02, 7.06637055e-02, 1.30396396e-01,
          1.54668778e-01, 1.02343068e-01, 9.61070061e-02, 2.16534212e-01,
          2.19988927e-01, 0., 0., 0., 8.44163597e-02, 0., 0., 0., 0., 0.,
          0., 0., 6.28652647e-02, 0., 0., 1.47514284e-01, 0.,
          8.68552253e-02, 0., 9.09204558e-02, 1.12596981e-01, 0.,
          5.37859350e-02, 0., 3.10591608e-02, 6.20621927e-02, 0., 0.,
          8.82020891e-02, 0., 0., 1.28874436e-01 ]
      - [ 2.01281562e-01, 2.18569681e-01, 1.37917221e-01, 1.11575305e-01,
          1.44150674e-01, 7.02116489e-02, 1.90078542e-01, 2.57758141e-01,
          2.47273579e-01, 2.33233288e-01, 1.12083703e-01, 1.32674038e-01,
          1.68921545e-01, 1.90713823e-01, 1.93055511e-01, 1.66042447e-01,
          1.62570626e-01, 1.80605084e-01, 1.49589479e-01, 1.30756184e-01,
          1.89161047e-01, 1.72347695e-01, 1.11203551e-01, 1.41343698e-01,
          2.20281452e-01, 1.54512838e-01, 1.82924062e-01, 1.82385504e-01,
          1.47682086e-01, 1.42536536e-01, 9.81978253e-02, 9.87740681e-02,
          2.99428441e-02, 6.66357279e-02, 4.03074324e-02, 0.,
          8.15180615e-02, 0., 0., 0., 0., 0., 0., 3.27975899e-02,
          1.13531046e-01, 6.69072643e-02, 0., 6.14082776e-02,
          5.13515547e-02, 6.23000264e-02, 0., 4.81533557e-02,
          8.71464759e-02, 0., 0., 9.27889794e-02, 0., 9.35452878e-02, 0.,
          0., 7.92213157e-02, 0., 6.01829588e-02, 0. ]
      - [ 2.32974201e-01, 1.38469473e-01, 6.30046725e-02, 1.27892375e-01,
          1.74499542e-01, 8.83841440e-02, 1.22736596e-01, 2.10458055e-01,
          2.33147383e-01, 1.20412871e-01, 1.27456009e-01, 1.50975421e-01,
          1.94090217e-01, 1.20233394e-01, 1.07068054e-01, 2.43491098e-01,
          2.01066658e-01, 0., 5.63807786e-02, 2.15277985e-01,
          2.30539843e-01, 1.19607970e-01, 1.92881167e-01, 0.,
          2.08133116e-01, 9.94225442e-02, 0., 2.92029649e-01,
          2.31655374e-01, 1.05562724e-01, 1.42311290e-01, 1.30501315e-01,
          4.52065133e-02, 0., 0., 5.64604253e-02, 1.24601282e-01,
          1.02951847e-01, 0., 0., 0., 4.91029471e-02, 3.22104618e-02, 0.,
          1.17676988e-01, 8.09997618e-02, 0., 7.20071048e-02,
          6.10019267e-02, 7.64048845e-02, 2.29176357e-02, 1.13519333e-01,
          1.34263322e-01, 0., 0., 0., 0., 0., 0., 0., 1.94672540e-01, 0.,
          5.78918494e-02, 0. ]
      - [ 1.89804196e-01, 2.55989820e-01, 1.54695585e-01, 1.54719815e-01,
          1.59916118e-01, 1.34086952e-01, 1.42792135e-01, 2.29386136e-01,
          2.24098027e-01, 1.74883589e-01, 2.00170279e-01, 1.92493603e-01,
          2.22515970e-01, 4.61399704e-02, 0., 1.53455153e-01,
          1.37456879e-01, 8.83169547e-02, 6.29353449e-02, 8.81257877e-02,
          1.43755838e-01, 7.46371448e-02, 6.29353449e-02, 1.25745267e-01,
          1.55837521e-01, 8.50481763e-02, 1.54818028e-01, 2.03399077e-01,
          3.68793160e-01, 1.69022352e-01, 1.24806203e-01, 1.08192049e-01,
          9.09191743e-02, 1.12101167e-01, 5.13864905e-02, 0.,
          1.03092656e-01, 0., 0., 0., 0., 0., 0., 0., 8.41747969e-02, 0.,
          0., 1.00452505e-01, 0., 0., 0., 0., 1.08669199e-01, 0., 0., 0.,
          0., 0., 0., 0., 2.54289061e-01, 0., 0., 0. ]
      - [ 1.75964251e-01, 0., 4.63554934e-02, 0., 1.27336845e-01,
          2.32659969e-02, 1.90141842e-01, 1.69892028e-01, 4.26151246e-01,
          2.45745227e-01, 1.99699491e-01, 6.74637333e-02, 1.85445860e-01,
          2.31924191e-01, 1.69790506e-01, 8.85989890e-02, 5.84097430e-02,
          1.08491525e-01, 2.30048254e-01, 2.31177792e-01, 2.36060679e-01,
          2.01866448e-01, 1.66294500e-01, 1.21652164e-01, 1.89735875e-01,
          1.73653197e-02, 0., 8.08146074e-02, 7.94325620e-02,
          6.45555705e-02, 0., 8.03006217e-02, 0., 6.67177737e-02,
          4.50871699e-02, 0., 8.17388594e-02, 0., 0., 0., 7.63434172e-02,
          0., 0., 9.62916464e-02, 2.22126216e-01, 1.01693310e-01,
          7.19339028e-02, 0., 4.76913527e-02, 6.21852800e-02,
          1.60360724e-01, 4.55217995e-02, 1.57724336e-01, 0., 0., 0., 0.,
          0., 0., 0., 1.90374162e-02, 0., 3.61487977e-02, 0. ]
      - [ 2.60158747e-01, 4.61916476e-02, 5.58555089e-02, 1.42119557e-01,
          2.00331524e-01, 9.81089622e-02, 1.61149696e-01, 2.15276539e-01,
          2.98190534e-01, 0., 1.10102624e-01, 1.75170809e-01,
          2.51914054e-01, 1.38349950e-01, 1.03225842e-01, 1.93564951e-01,
          2.11458892e-01, 1.33251444e-01, 1.77350894e-01, 1.58236057e-01,
          2.10692152e-01, 0., 0., 1.99559689e-01, 2.28377014e-01,
          1.82322070e-01, 1.20966680e-01, 1.48950174e-01, 1.91383988e-01,
          1.21880360e-01, 0., 1.54876053e-01, 8.92473832e-02,
          6.02337532e-02, 0., 3.04962881e-02, 5.31185493e-02, 0., 0.,
          3.29985023e-02, 0., 0., 0., 0., 1.33053154e-01, 1.13058873e-01,
          1.15218274e-01, 7.41407126e-02, 6.59535304e-02, 9.48856845e-02,
          9.37508866e-02, 0., 1.24482676e-01, 0., 0., 0., 0., 0., 0., 0.,
          1.09795459e-01, 0., 4.93318737e-02, 6.05230890e-02 ]
      - [ 1.78612560e-01, 1.64872065e-01, 1.45006895e-01, 1.38722360e-01,
          2.31575042e-01, 5.59635162e-02, 9.44264233e-02, 2.06897959e-01,
          1.89841658e-01, 6.08390272e-02, 6.53760210e-02, 1.44507781e-01,
          1.65161684e-01, 7.10079223e-02, 1.91750601e-01, 2.44991064e-01,
          2.40830421e-01, 7.63336569e-02, 8.54649395e-02, 1.77990705e-01,
          2.08087370e-01, 2.00713590e-01, 1.67424083e-01, 1.47812679e-01,
          1.94165230e-01, 1.17592253e-01, 5.90294302e-02, 2.40324020e-01,
          2.42370307e-01, 6.43882677e-02, 4.70823683e-02, 1.56476200e-01,
          7.14220256e-02, 5.57203442e-02, 8.68073851e-02, 0.,
          1.01005994e-01, 0., 7.01410398e-02, 0., 0., 5.12581207e-02,
          7.09076002e-02, 0., 1.65705174e-01, 0., 5.20760678e-02, 0.,
          1.20873868e-01, 1.02881841e-01, 7.63112232e-02, 1.04866728e-01,
          1.69371963e-01, 0., 0., 0., 0., 0., 0., 0., 1.41871408e-01, 0.,
          0., 0. ]
      - [ 3.84224474e-01, 0., 1.36306256e-01, 1.44079477e-01,
          1.61998242e-01, 1.73336193e-01, 1.32561684e-01, 3.93382668e-01,
          1.90690666e-01, 0., 1.13673285e-01, 2.11232573e-01,
          2.07935929e-01, 8.05255100e-02, 0., 0., 3.65912974e-01, 0., 0.,
          0., 9.28201303e-02, 3.07413936e-02, 2.02068891e-02,
          3.74769479e-01, 2.07244128e-01, 0., 0., 0., 1.14170667e-02, 0.,
          1.07337637e-02, 2.25184679e-01, 7.65132010e-02, 1.00477189e-01,
          1.05059609e-01, 0., 9.95316803e-02, 0., 0., 0., 0., 0., 0., 0.,
          6.89764693e-02, 0., 9.56474319e-02, 9.90152955e-02,
          4.13688123e-02, 0., 0., 0., 0., 0., 0., 0., 0., 0., 0., 0.,
          8.07308499e-03, 0., 0., 1.40791023e-02 ]
      - [ 1.84199080e-01, 1.06616259e-01, 1.08529806e-01, 1.31817341e-01,
          2.20214218e-01, 1.64455086e-01, 1.51675627e-01, 1.09393761e-01,
          2.47145951e-01, 2.06194326e-01, 2.37811550e-01, 1.81856290e-01,
          2.57189900e-01, 1.93263188e-01, 1.77171379e-01, 1.23679884e-01,
          1.43838391e-01, 1.56660780e-01, 7.31291100e-02, 1.03624389e-01,
          1.94841117e-01, 9.56628919e-02, 2.33872354e-01, 2.53288656e-01,
          1.69740438e-01, 1.77447125e-01, 4.75796200e-02, 0.,
          7.99158439e-02, 1.44413799e-01, 1.23390019e-01, 1.27565771e-01,
          1.71224996e-01, 6.59805611e-02, 0., 0., 7.26440623e-02, 0., 0.,
          0., 0., 0., 0., 0., 1.71651214e-01, 1.31215230e-01,
          1.38640285e-01, 8.61251652e-02, 0., 4.66553047e-02, 0., 0.,
          2.09705345e-02, 0., 0., 0., 7.26440623e-02, 0., 0.,
          3.34840380e-02, 4.19410691e-02, 0., 0., 0. ]
      - [ 2.94572115e-01, 0., 2.39185579e-02, 4.36322093e-02,
          1.26754209e-01, 1.27261594e-01, 1.41451254e-01, 2.62818933e-01,
          2.71006584e-01, 1.67279840e-01, 1.95498392e-01, 6.61007762e-02,
          1.84758231e-01, 1.13820657e-01, 1.72676861e-01, 3.01234603e-01,
          2.08281204e-01, 1.67825893e-01, 5.59149347e-02, 9.75758657e-02,
          1.71956494e-01, 1.49257913e-01, 1.85916647e-01, 2.36450583e-01,
          2.60224074e-01, 8.36823732e-02, 2.87904497e-02, 0.,
          1.03887796e-01, 3.88407335e-02, 1.60080075e-01, 2.58758217e-01,
          0., 0., 0., 0., 7.35158101e-02, 6.96150213e-02, 0.,
          5.79389669e-02, 5.35236485e-02, 5.22952527e-02, 5.55511825e-02,
          3.34300548e-02, 1.07967973e-01, 0., 0., 0., 0., 6.43310621e-02,
          0., 4.70186658e-02, 7.41731897e-02, 0., 0., 0., 8.46663415e-02,
          0., 0., 0., 8.64626393e-02, 5.19979671e-02, 8.07946250e-02, 0. ]
      - [ 1.85033470e-01, 1.51215136e-01, 0., 5.11224158e-02,
          9.79179665e-02, 6.07167147e-02, 4.08017449e-02, 1.27922624e-01,
          3.13005477e-01, 2.91072488e-01, 1.47470862e-01, 1.35347113e-01,
          1.80402949e-01, 1.85754150e-01, 2.01857626e-01, 1.40765935e-01,
          1.22641087e-01, 1.41482756e-01, 1.61518112e-01, 2.15280429e-01,
          3.19116563e-01, 8.45888257e-02, 8.49318355e-02, 1.73956901e-01,
          2.02028990e-01, 1.47221848e-01, 7.18489438e-02, 1.62767828e-01,
          1.43975914e-01, 1.26073256e-01, 0., 0., 9.51373875e-02,
          7.87820071e-02, 9.25682560e-02, 0., 1.21131890e-01, 0., 0., 0.,
          6.54050708e-03, 0., 0., 0., 1.41794816e-01, 1.23789355e-01,
          1.03806600e-01, 0., 0., 7.65709803e-02, 7.40627944e-02, 0.,
          2.02872813e-01, 0., 0., 0., 3.13671716e-02, 0., 0., 0.,
          1.33720979e-01, 1.33270770e-01, 0., 0. ]
      - [ 2.47756347e-01, 9.75424275e-02, 1.54853418e-01, 1.37797430e-01,
          2.07817778e-01, 9.45777223e-02, 9.56083313e-02, 2.02618867e-01,
          1.97679043e-01, 1.10722192e-01, 1.25184476e-01, 1.89674824e-01,
          3.54617298e-01, 9.74547639e-02, 8.85198563e-02, 1.94950446e-01,
          2.01232105e-01, 1.32951781e-01, 2.15517342e-01, 1.76944017e-01,
          1.77361459e-01, 1.26059309e-01, 9.37165022e-02, 1.20343208e-01,
          1.68152571e-01, 1.08137272e-01, 1.38227746e-01, 1.33983776e-01,
          2.00612426e-01, 1.40456676e-01, 9.52526480e-02, 1.37780905e-01,
          2.07012799e-02, 0., 0., 0., 5.34504764e-02, 0., 0.,
          9.38764438e-02, 6.45270199e-02, 6.20303527e-02, 0.,
          5.28943576e-02, 1.78562537e-01, 1.32054061e-01, 0., 0.,
          3.38050500e-02, 0., 1.50280774e-01, 3.91343907e-02,
          1.56899378e-01, 0., 4.71860170e-02, 6.16286844e-02, 0., 0., 0.,
          0., 0., 0., 0., 0. ]
      - [ 8.21768641e-02, 1.60318688e-01, 8.08525458e-02, 1.85607597e-01,
          1.88128024e-01, 1.80086762e-01, 1.14456385e-01, 9.20072123e-02,
          1.39502868e-01, 1.44716084e-01, 1.99941203e-01, 2.34581798e-01,
          3.53412926e-01, 2.27702245e-01, 1.05320394e-01, 8.58925655e-02,
          1.31907955e-01, 1.49226442e-01, 1.70239389e-01, 1.95769489e-01,
          2.66693085e-01, 2.82075197e-01, 1.22960351e-01, 7.55200088e-02,
          1.85492590e-01, 0., 1.31700322e-01, 8.51741433e-02,
          1.19751871e-01, 1.15975633e-01, 7.90331960e-02, 8.49344209e-02,
          2.46164948e-02, 4.91025522e-02, 7.87159950e-02, 0.,
          1.30971432e-01, 4.75730598e-02, 0., 0., 0., 0., 0., 0.,
          1.85340688e-01, 5.03083989e-02, 5.53438291e-02, 0.,
          6.04773164e-02, 0., 8.34819227e-02, 7.70488828e-02,
          1.06355406e-01, 0., 0., 0., 0., 0., 0., 0., 1.14759691e-01,
          8.60944614e-02, 8.58909115e-02, 5.81715591e-02 ]
      - [ 2.51769125e-01, 1.39886690e-02, 5.24919257e-02, 7.09404647e-02,
          4.23156135e-02, 6.37668818e-02, 6.49350509e-02, 2.08620667e-01,
          4.29857880e-01, 1.37668505e-01, 1.34631246e-01, 4.78454158e-02,
          1.21621273e-01, 8.56326073e-02, 1.04979411e-01, 2.56570935e-01,
          3.27556103e-01, 8.48429129e-02, 8.57071429e-02, 0.,
          9.07908082e-02, 5.97682111e-02, 1.98175594e-01, 2.53916174e-01,
          2.76886165e-01, 1.39093816e-01, 6.56662807e-02, 0.,
          1.49257228e-01, 1.24946639e-01, 9.57638025e-02, 1.31226018e-01,
          1.94938228e-01, 0., 0., 0., 9.27024037e-02, 0., 0., 0., 0., 0.,
          0., 0., 6.52632043e-02, 5.92284128e-02, 7.14014694e-02,
          1.60427317e-01, 1.95564389e-01, 0., 0., 0., 8.07106048e-02, 0.,
          0., 0., 4.12760749e-02, 2.26732846e-02, 0., 0., 8.53867382e-02,
          0., 0., 1.02192536e-01 ]
      - [ 8.72717276e-02, 1.92055240e-01, 2.42053464e-01, 1.33533612e-01,
          1.20924570e-01, 9.34189782e-02, 1.81878045e-01, 1.22770004e-01,
          2.46498287e-01, 2.06789941e-01, 2.84162134e-01, 1.45534575e-01,
          2.14464456e-01, 1.43285468e-01, 1.24637544e-01, 8.46007094e-02,
          1.81213498e-01, 1.32708848e-01, 9.84103903e-02, 2.09994078e-01,
          1.46523148e-01, 0., 1.41930208e-01, 1.67671576e-01,
          2.25785375e-01, 1.55031517e-01, 1.82791144e-01, 1.67567417e-01,
          1.36609793e-01, 1.59605995e-01, 8.04611593e-02, 9.99076366e-02,
          9.21361893e-02, 8.64318460e-02, 6.71921670e-02, 0.,
          8.87968466e-02, 2.05710940e-02, 0., 0., 3.66418697e-02, 0., 0.,
          0., 8.71317536e-02, 5.79594225e-02, 0., 1.84807241e-01,
          7.85880536e-02, 1.08243465e-01, 6.53516799e-02, 0.,
          1.00043342e-01, 0., 0., 0., 0., 0., 0., 0., 1.06083229e-01,
          9.39009041e-02, 9.10097137e-02, 7.80612901e-02 ]
      - [ 1.88937142e-01, 1.36012495e-01, 2.27660283e-01, 1.09155364e-01,
          2.15747595e-01, 1.96523190e-01, 1.35243222e-01, 2.56866992e-01,
          1.27102807e-01, 1.63574159e-01, 1.21795811e-01, 1.87333435e-01,
          2.84613043e-01, 1.71126768e-01, 1.49700135e-01, 1.32596463e-01,
          1.95811972e-01, 1.03633292e-01, 0., 1.18568711e-01,
          7.77549148e-02, 4.00862247e-02, 1.38281018e-01, 1.75738603e-01,
          1.89827830e-01, 1.07889406e-01, 1.38727963e-01, 6.91150501e-02,
          9.16052088e-02, 8.93517062e-02, 0., 1.98429331e-01,
          2.21239589e-02, 6.89390302e-02, 1.85707703e-01, 4.97702621e-02,
          1.79281428e-01, 0., 0., 0., 0., 0., 0., 0., 1.41085416e-01,
          1.45488486e-01, 8.15935358e-02, 9.80957523e-02, 2.10477978e-01,
          0., 0., 0., 7.87397474e-02, 0., 0., 0., 0., 0., 0., 0.,
          1.18454464e-01, 1.23363115e-01, 0., 9.90031287e-02 ]
      - [ 2.92725742e-01, 2.11900070e-01, 8.01580548e-02, 0.,
          1.28773883e-01, 5.06424122e-02, 1.18252635e-01, 2.45081663e-01,
          3.79730701e-01, 2.15498060e-01, 2.99268439e-02, 1.12164743e-01,
          5.49097359e-02, 8.73263702e-02, 1.01366557e-01, 2.06138000e-01,
          3.69706929e-01, 2.34196395e-01, 6.83594123e-02, 5.68259582e-02,
          7.21589327e-02, 6.07677475e-02, 1.13201819e-01, 2.86299855e-01,
          1.45287201e-01, 2.66094595e-01, 1.46673292e-01, 3.55892144e-02,
          9.38706324e-02, 0., 4.54077423e-02, 4.25850227e-02,
          1.77702487e-01, 9.06642601e-02, 0., 0., 6.63765594e-02, 0., 0.,
          0., 0., 0., 0., 0., 2.83030607e-02, 0., 2.91488580e-02,
          8.17569569e-02, 2.83030607e-02, 0., 4.47510704e-02,
          2.51653753e-02, 9.32302922e-02, 4.15060446e-02, 0., 0.,
          3.46640311e-02, 3.36582027e-02, 0., 0., 4.00265716e-02, 0.,
          3.80018093e-02, 0. ]
      - [ 2.60632426e-01, 1.89472318e-01, 1.48889750e-01, 7.08199665e-02,
          1.79514974e-01, 1.21620916e-01, 1.78835288e-01, 2.29572266e-01,
          2.65893430e-01, 1.67256385e-01, 1.47292897e-01, 7.42989853e-02,
          1.60971209e-01, 1.53849617e-01, 1.52064860e-01, 1.83749959e-01,
          2.30003044e-01, 1.66619018e-01, 7.86570609e-02, 8.51584896e-02,
          7.46883303e-02, 9.01373625e-02, 1.03393964e-01, 1.96639806e-01,
          2.28591621e-01, 8.06072131e-02, 1.36108026e-01, 1.15936376e-01,
          1.99862227e-01, 1.48618147e-01, 1.60199150e-01, 2.34067068e-01,
          1.00824848e-01, 6.26827702e-02, 0., 0., 1.30394712e-01,
          5.88927940e-02, 0., 0., 0., 0., 0., 7.25082830e-02,
          1.12302773e-01, 5.66252805e-02, 0., 1.24368750e-01,
          8.83034766e-02, 6.41590431e-02, 0., 0., 7.63901994e-02, 0., 0.,
          0., 0., 0., 5.91431782e-02, 5.74830510e-02, 1.06767178e-01,
          8.66084099e-02, 0., 0. ]
      - [ 1.61985040e-01, 9.57556590e-02, 3.79751958e-02, 1.01018690e-01,
          2.42253229e-01, 8.32355320e-02, 2.00140625e-01, 2.69392729e-01,
          2.08642736e-01, 2.02519596e-01, 1.73616499e-01, 1.68898076e-01,
          2.60549337e-01, 1.05034456e-01, 2.24977612e-01, 1.19948409e-01,
          3.03330153e-01, 1.87128410e-01, 9.99353826e-02, 5.85097112e-02,
          1.35935917e-01, 7.28352293e-02, 0., 4.50500816e-01,
          1.62675962e-01, 0., 0., 0., 1.68011840e-02, 0., 4.90088500e-02,
          3.84394825e-02, 0., 0., 0., 0., 1.00107715e-01, 0.,
          3.79095525e-02, 0., 3.09798531e-02, 3.81198637e-02,
          4.91344556e-02, 5.84918484e-02, 1.82324886e-01, 5.32623380e-02,
          0., 0., 0., 0., 0., 0., 1.49236441e-01, 7.99250901e-02,
          4.38215993e-02, 3.73181440e-02, 4.22385037e-02, 0., 0., 0.,
          1.50274355e-02, 0., 0., 0. ]
      - [ 1.20006070e-01, 1.90356761e-01, 2.15485528e-01, 1.35205701e-01,
          1.85144410e-01, 9.26684216e-02, 1.28137112e-01, 1.96248636e-01,
          3.17052275e-01, 1.24654554e-01, 7.34716877e-02, 1.40645012e-01,
          3.38486820e-01, 1.81418687e-01, 1.07829519e-01, 1.67489052e-01,
          3.14765811e-01, 1.85452864e-01, 1.80265397e-01, 9.09107774e-02,
          1.19926311e-01, 9.60085467e-02, 1.41412929e-01, 2.39576370e-01,
          1.39805421e-01, 1.18350357e-01, 1.21088944e-01, 7.76314810e-02,
          1.16034634e-01, 8.98399279e-02, 5.19215874e-02, 5.69673032e-02,
          0., 9.08889323e-02, 1.00850284e-01, 0., 1.06551990e-01,
          8.06944817e-02, 0., 0., 1.96289048e-02, 0., 0., 7.23732561e-02,
          8.58600959e-02, 6.22659735e-02, 1.03995703e-01, 0., 0., 0., 0.,
          0., 8.06140453e-02, 4.53257002e-02, 7.77156651e-02, 0.,
          6.26155734e-02, 3.81558575e-02, 7.21107572e-02, 0.,
          1.11119501e-01, 0., 0., 0. ]
      - [ 2.38371447e-01, 1.46210879e-01, 1.09414428e-01, 1.97922796e-01,
          2.29046881e-01, 1.61834016e-01, 9.53369737e-02, 6.80934563e-02,
          2.27314383e-01, 1.84976935e-01, 2.13797733e-01, 2.75013506e-01,
          2.59618580e-01, 9.61763635e-02, 8.50616321e-02, 1.33976281e-01,
          1.68077841e-01, 2.28695646e-01, 8.06798413e-02, 1.03788354e-01,
          1.48374051e-01, 8.40970352e-02, 1.35077089e-01, 1.49084136e-01,
          2.75560290e-01, 1.29962996e-01, 1.05189346e-01, 7.53199533e-02,
          9.69642252e-02, 5.31730019e-02, 2.20590472e-01, 1.43843934e-01,
          1.69018000e-01, 7.63463750e-02, 0., 0., 8.66909996e-02, 0., 0.,
          0., 2.75676828e-02, 0., 0., 0., 8.53823870e-02, 6.58279061e-02,
          1.09968282e-01, 0., 4.37494740e-02, 4.30244096e-02, 0.,
          4.95654047e-02, 1.23051494e-01, 5.44441566e-02, 0., 0., 0., 0.,
          0., 0., 1.27311975e-01, 6.12569712e-02, 0., 0. ]
      - [ 3.14385355e-01, 1.66758195e-01, 1.42395049e-01, 1.01011790e-01,
          2.30780080e-01, 9.86491293e-02, 2.22816870e-01, 1.31940857e-01,
          1.10275589e-01, 1.32102761e-02, 0., 2.31963545e-01,
          2.95456588e-01, 1.59340307e-01, 0., 1.40239492e-01,
          3.47639918e-01, 6.00807667e-02, 3.22367512e-02, 0.,
          6.14431314e-02, 3.04399934e-02, 9.48806182e-02, 3.27000350e-01,
          2.31791034e-01, 0., 0., 0., 4.96833809e-02, 6.63999841e-02,
          4.33896147e-02, 2.78289497e-01, 1.00220345e-01, 6.43650591e-02,
          1.02376185e-01, 0., 1.16205893e-01, 0., 0., 0., 0., 0., 0., 0.,
          1.98228702e-01, 1.02034584e-01, 0., 9.90703702e-02, 0., 0., 0.,
          3.13056000e-02, 1.39141297e-02, 0., 0., 7.97220320e-02,
          1.32440254e-01, 3.38735059e-02, 0., 0., 6.60005137e-02, 0., 0.,
          0. ]
      - [ 2.22496405e-01, 2.42430389e-01, 1.56066686e-01, 6.86739609e-02,
          1.92481577e-01, 9.49407518e-02, 2.03622743e-01, 1.08583063e-01,
          1.61779895e-01, 2.03487962e-01, 2.49340951e-01, 1.71307012e-01,
          1.77867800e-01, 1.83975399e-01, 1.49065748e-01, 1.21155567e-01,
          8.63529295e-02, 1.42681673e-01, 1.62478343e-01, 2.65340835e-01,
          2.32524425e-01, 7.53588155e-02, 1.76815778e-01, 1.54505953e-01,
          1.57253116e-01, 1.31942704e-01, 5.77476844e-02, 9.07542631e-02,
          1.98974386e-01, 1.19778402e-01, 1.35723561e-01, 4.85598221e-02,
          0., 1.12492919e-01, 1.28011987e-01, 0., 1.63843170e-01, 0., 0.,
          0., 5.46143875e-02, 0., 0., 0., 1.06330857e-01, 0., 0.,
          1.30777955e-01, 3.86182033e-02, 0., 0., 0., 7.72364065e-02, 0.,
          7.95445070e-02, 4.85598221e-02, 0., 0., 0., 4.85598221e-02,
          1.40106276e-01, 0., 0., 9.22949836e-02 ]
      - [ 2.09987715e-01, 1.29223824e-01, 6.66661188e-02, 9.14476216e-02,
          1.01647668e-01, 1.16923995e-01, 1.21048011e-01, 3.15630943e-01,
          2.53694296e-01, 1.51904762e-01, 3.02597452e-02, 1.11278370e-01,
          1.34093747e-01, 1.60298631e-01, 2.08717540e-01, 2.81217724e-01,
          2.43509799e-01, 1.88183069e-01, 1.30935013e-01, 1.28055990e-01,
          1.30068675e-01, 9.85654742e-02, 1.77467689e-01, 1.69840500e-01,
          2.50562280e-01, 2.19637528e-01, 1.39446333e-01, 0.,
          1.05019093e-01, 3.25879529e-02, 1.26059189e-01, 2.40936726e-01,
          1.65225528e-02, 8.66828710e-02, 0., 0., 5.19213155e-02, 0., 0.,
          4.87233140e-02, 0., 3.48587595e-02, 0., 5.85245416e-02,
          8.82062912e-02, 0., 7.89446980e-02, 7.42012337e-02, 0., 0., 0.,
          7.22288638e-02, 1.03513494e-01, 0., 9.48439911e-02, 0.,
          5.92858084e-02, 5.70775531e-02, 6.88652620e-02, 4.22040224e-02,
          1.07396588e-01, 5.06346896e-02, 0., 0. ]
      - [ 1.59962609e-01, 3.89913134e-02, 1.09305404e-01, 1.27848133e-01,
          9.99836549e-02, 1.51340261e-01, 1.84944347e-01, 1.14157416e-01,
          2.87854820e-01, 2.41746157e-01, 1.15867674e-01, 8.12705383e-02,
          9.87988487e-02, 9.25532952e-02, 1.74521595e-01, 3.01845282e-01,
          2.06187695e-01, 8.50054622e-02, 1.54873654e-01, 1.80286065e-01,
          1.81054950e-01, 1.92753017e-01, 1.39283866e-01, 2.13633895e-01,
          2.85144329e-01, 1.38745397e-01, 1.27041876e-01, 9.27335322e-02,
          1.25286475e-01, 1.20453402e-01, 1.03446431e-01, 1.16809264e-01,
          0., 7.20680580e-02, 0., 0., 9.46416408e-02, 0., 0., 0.,
          1.71210263e-02, 0., 0., 5.13162464e-02, 7.88311213e-02, 0.,
          4.88263257e-02, 1.50732785e-01, 0., 0., 0., 0., 1.22917004e-01,
          1.00273900e-01, 0., 0., 7.24363029e-02, 0., 0., 0.,
          1.23461470e-01, 0., 0., 2.19396114e-01 ]
      - [ 2.21841946e-01, 2.31054068e-01, 1.87868521e-01, 5.38866371e-02,
          2.20627263e-01, 1.01499029e-01, 1.63535640e-01, 0.,
          2.36830100e-01, 2.79092222e-01, 2.40324810e-01, 1.10416256e-01,
          1.72817811e-01, 1.89880192e-01, 5.92307858e-02, 1.33681059e-01,
          1.74908653e-01, 1.42135739e-01, 1.51277602e-01, 1.07487641e-01,
          1.36674747e-01, 8.07805061e-02, 1.44806594e-01, 1.30609587e-01,
          1.90089628e-01, 2.61314929e-01, 1.29928291e-01, 1.53001785e-01,
          2.17137575e-01, 0., 4.84596640e-02, 1.24672234e-01,
          1.57556906e-01, 9.70886052e-02, 0., 0., 1.01873890e-01, 0.,
          3.72519307e-02, 0., 0., 0., 0., 1.13396488e-01, 1.11906819e-01,
          0., 0., 1.05542466e-01, 8.06456953e-02, 4.01973464e-02, 0., 0.,
          3.52901518e-02, 0., 0., 0., 0., 0., 0., 5.61605766e-02,
          1.24087214e-01, 0., 7.56605417e-02, 8.86252597e-02 ]
      - [ 1.18314214e-01, 6.66986629e-02, 1.69857889e-01, 1.48016214e-01,
          1.26702383e-01, 1.78401053e-01, 1.30696997e-01, 1.06416270e-01,
          1.46540448e-01, 1.89324960e-01, 1.70605287e-01, 2.50488371e-01,
          2.27385849e-01, 1.83683738e-01, 1.28563181e-01, 0.,
          1.97400808e-01, 1.35671780e-01, 5.69437258e-02, 2.49952361e-01,
          2.10688964e-01, 1.92275897e-01, 1.11351833e-01, 1.18776560e-01,
          9.70227867e-02, 8.77299011e-02, 1.46082774e-01, 2.08215594e-01,
          2.75347054e-01, 1.28466696e-01, 9.02175382e-02, 5.91932498e-02,
          1.03990436e-01, 9.72063914e-02, 0., 0., 7.69868046e-02, 0., 0.,
          0., 0., 0., 0., 0., 1.53838396e-01, 7.96131343e-02,
          8.37772340e-02, 1.61970347e-01, 2.11255103e-01, 0.,
          9.27949399e-02, 0., 1.29363716e-01, 0., 0., 0., 0., 0., 0., 0.,
          8.55660513e-02, 0., 9.75998864e-02, 1.01827793e-01 ]
      - [ 1.74671263e-01, 1.68613076e-01, 1.49856433e-01, 1.13964856e-01,
          1.32320255e-01, 0., 2.60368913e-01, 2.26222515e-01,
          2.88450062e-01, 1.19366333e-01, 1.66213185e-01, 1.13293119e-01,
          1.88628912e-01, 1.57601386e-01, 1.53844178e-01, 1.08186625e-01,
          2.44561210e-01, 1.45768940e-01, 9.34078693e-02, 9.75995958e-02,
          1.78910509e-01, 1.20023437e-01, 1.84458151e-01, 9.43221673e-02,
          2.07033053e-01, 1.73640177e-01, 1.11123592e-01, 1.17133245e-01,
          1.95714921e-01, 8.40584561e-02, 1.09625868e-01, 1.76796645e-01,
          1.09471433e-01, 1.16066128e-01, 0., 6.24615774e-02,
          1.24293797e-01, 0., 0., 0., 0., 0., 0., 0., 1.51064485e-01, 0.,
          1.47013694e-01, 0., 1.27140075e-01, 8.16504657e-02, 0., 0.,
          8.13693926e-02, 0., 0., 0., 0., 0., 0., 0., 1.10174678e-01, 0.,
          7.02494532e-02, 1.52623519e-01 ]
      - [ 2.33025193e-01, 1.76061183e-01, 1.18129611e-01, 1.83583766e-01,
          2.29271710e-01, 8.58539566e-02, 1.86440632e-01, 1.29294172e-01,
          2.82303661e-01, 2.27819383e-01, 7.49525726e-02, 1.11408718e-01,
          1.50814369e-01, 1.95738062e-01, 2.62064278e-01, 1.66317746e-01,
          1.75221667e-01, 8.95723626e-02, 1.52981639e-01, 7.69602656e-02,
          1.84936479e-01, 6.89530149e-02, 1.41570315e-01, 2.18123570e-01,
          2.38099515e-01, 1.16771154e-01, 8.78134817e-02, 0.,
          1.39910236e-01, 7.81659037e-02, 1.24496959e-01, 1.90627530e-01,
          8.34768787e-02, 0., 0., 0., 1.27161279e-01, 6.20146766e-02, 0.,
          3.48188840e-02, 0., 0., 0., 0., 1.52868032e-01, 1.25250980e-01,
          1.12594530e-01, 0., 6.16781712e-02, 6.41182810e-02, 0.,
          8.89160708e-02, 9.06630158e-02, 0., 0., 0., 0., 0., 0., 0.,
          7.39251301e-02, 0., 9.47623551e-02, 0. ]
      - [ 1.12646870e-01, 1.28981382e-01, 0., 1.41447753e-01,
          1.88877866e-01, 1.35015756e-01, 9.23765078e-02, 2.21968189e-01,
          3.09033334e-01, 1.41519964e-01, 1.26427829e-01, 2.09847331e-01,
          1.65223211e-01, 9.59329531e-02, 7.01226369e-02, 3.04484274e-02,
          1.02502890e-01, 1.06738091e-01, 0., 3.01636934e-01,
          2.75495321e-01, 1.92527622e-01, 1.29881203e-01, 1.30407766e-01,
          2.28711978e-01, 1.15675449e-01, 1.83296233e-01, 2.11980566e-01,
          2.04859018e-01, 1.52907982e-01, 1.37377813e-01, 8.82984698e-02,
          0., 7.97566473e-02, 7.18909726e-02, 0., 9.90873948e-02, 0.,
          3.72116156e-02, 5.22815734e-02, 1.90693792e-02, 0., 0.,
          8.02728981e-02, 1.32822961e-01, 5.41458130e-02, 6.44524097e-02,
          0., 9.09502357e-02, 9.80796963e-02, 7.45033026e-02,
          8.18853602e-02, 1.36182606e-01, 0., 0., 0., 0., 0., 0., 0.,
          8.94433111e-02, 8.65322500e-02, 0., 6.25822321e-02 ]
      - [ 3.38922799e-01, 9.28834751e-02, 0., 4.44316529e-02,
          8.02797079e-02, 8.87970924e-02, 1.08330488e-01, 3.48692238e-01,
          2.95975506e-01, 1.15830235e-01, 1.62121415e-01, 5.01586683e-02,
          1.00037992e-01, 7.44102597e-02, 2.60371529e-02, 3.44479591e-01,
          2.56695837e-01, 0., 7.95355365e-02, 5.20743057e-02,
          9.50584412e-02, 2.39612702e-02, 1.34356484e-01, 2.11510479e-01,
          3.25385928e-01, 9.44914445e-02, 6.13177568e-02, 2.84743421e-02,
          8.90344605e-02, 1.44090783e-02, 1.22818790e-01, 3.21382463e-01,
          0., 0., 0., 0., 6.80359080e-02, 4.36010323e-02, 0.,
          9.40734148e-02, 1.12877630e-01, 6.49045631e-02, 0., 0.,
          5.56578115e-02, 0., 0., 0., 0., 0., 0., 0., 4.98132929e-02, 0.,
          0., 2.42885761e-02, 8.33789483e-02, 1.16502397e-01, 0., 0.,
          9.96709466e-02, 0., 0., 0. ]
      - [ 1.87750489e-01, 2.18047544e-01, 1.48074850e-01, 1.20663904e-01,
          1.27439007e-01, 1.21956743e-01, 1.14450820e-01, 2.55521327e-01,
          2.61571527e-01, 9.17609930e-02, 1.75274476e-01, 2.02767998e-01,
          2.07244173e-01, 1.22960739e-01, 1.19641699e-01, 2.06859887e-01,
          1.68596908e-01, 1.19893551e-01, 1.48333177e-01, 6.13642745e-02,
          1.98394120e-01, 7.98607916e-02, 1.37256294e-01, 2.86429673e-01,
          2.19710290e-01, 1.66571602e-01, 8.50003809e-02, 1.14748240e-01,
          1.48032069e-01, 1.25116259e-01, 1.39202654e-01, 1.83892354e-01,
          0., 0., 7.29748309e-02, 5.31430207e-02, 1.17021196e-01,
          4.16634604e-02, 7.67727569e-02, 0., 9.87296551e-02, 0.,
          4.63325754e-02, 7.51555786e-02, 9.45031419e-02, 0., 0., 0., 0.,
