%YAML:1.0
---
opencv_ml_svm:
   format: 3
   svmType: C_SVC
   kernel:
      type: RBF
      gamma: 5.3830000000000000e+00
   C: 2.6699999999999999e+00
   term_criteria: { epsilon:1.1920928955078125e-07, iterations:1000 }
   var_count: 64
   class_count: 2
   class_labels: !!opencv-matrix
      rows: 2
      cols: 1
      dt: i
      data: [ 0, 1 ]
   sv_total: 1048
   support_vectors:
      - [ 2.53982067e-01, 1.71683609e-01, 1.81730613e-01, 0.,
          1.32846922e-01, 1.56221107e-01, 1.90444961e-01, 4.78639267e-02,
          3.31331491e-01, 2.17523918e-01, 1.17934018e-01, 1.33219078e-01,
          2.42301881e-01, 1.49920508e-01, 3.06190196e-02, 1.22566663e-01,
          2.81674653e-01, 1.47939518e-01, 1.07692227e-01, 1.12763926e-01,
          1.62253439e-01, 1.50418520e-01, 1.77119985e-01, 1.94774151e-01,
          2.04940721e-01, 3.56518701e-02, 0., 1.72065258e-01,
          1.92892656e-01, 1.19818665e-01, 1.48664251e-01, 1.39719382e-01,
          3.26494314e-02, 8.22392777e-02, 0., 1.25646591e-01,
          1.19447909e-01, 0., 0., 0., 0., 0., 0., 0., 1.20473228e-01,
          1.31240264e-01, 4.97867838e-02, 9.14294794e-02, 0., 0., 0., 0.,
          5.58207557e-02, 4.06532101e-02, 0., 7.03698397e-02,
          5.70830069e-02, 0., 2.56842729e-02, 0., 5.01461066e-02, 0., 0.,
          0. ]
      - [ 1.37416005e-01, 4.06665802e-02, 0., 2.68543541e-01,
          2.57776499e-01, 1.52876794e-01, 2.09411636e-01, 1.84436291e-01,
          3.62640351e-01, 1.59237668e-01, 1.23632617e-01, 1.21062748e-01,
          2.49715269e-01, 1.59236446e-01, 8.43786299e-02, 1.14687853e-01,
          1.31068066e-01, 1.18943900e-01, 9.72744599e-02, 0.,
          9.67418402e-02, 1.04865864e-01, 9.83503982e-02, 1.59647048e-01,
          2.35641479e-01, 3.82606357e-01, 1.83450744e-01, 6.85211569e-02,
          1.82137862e-01, 5.81393875e-02, 7.67879859e-02, 1.01982124e-01,
          4.73820418e-02, 0., 0., 0., 8.60299394e-02, 0., 0., 0.,
          4.16797996e-02, 0., 0., 0., 1.16671033e-01, 6.92761540e-02,
          6.86347112e-02, 5.88129908e-02, 3.95290591e-02, 0., 0., 0.,
          5.67292683e-02, 0., 0., 0., 4.81276885e-02, 0., 0., 0.,
          6.01596124e-02, 5.77766635e-02, 0., 5.85316010e-02 ]
      - [ 3.82893801e-01, 0., 0., 3.51154469e-02, 1.62238002e-01,
          1.05431236e-01, 1.63387582e-01, 3.23964149e-01, 1.52230322e-01,
          4.42340709e-02, 7.08986744e-02, 2.26591006e-01, 1.41583279e-01,
          4.27342504e-02, 8.29905123e-02, 1.39481127e-01, 3.39319289e-01,
          1.38273835e-01, 1.40156448e-01, 9.90402773e-02, 1.10693842e-01,
          1.10396765e-01, 8.30620676e-02, 2.55154550e-01, 3.81382793e-01,
          3.76760699e-02, 0., 0., 2.47564726e-02, 0., 0., 2.30130062e-01,
          1.75799578e-01, 0., 0., 0., 6.83179274e-02, 0., 0., 0., 0., 0.,
          0., 0., 2.65927184e-02, 0., 0., 1.01492338e-01, 1.22824535e-01,
          5.49045205e-02, 8.41462985e-02, 0., 8.81980658e-02, 0., 0., 0.,
          1.37324203e-02, 0., 0., 0., 5.86649254e-02, 0., 0.,
          9.79236811e-02 ]
      - [ 1.57584354e-01, 5.12335896e-02, 7.51126781e-02, 0.,
          8.92339125e-02, 5.45442291e-02, 1.29507095e-01, 4.55447704e-01,
          2.00632855e-01, 1.09299868e-01, 0., 8.23006108e-02,
          1.18622854e-01, 2.95157880e-02, 1.20371483e-01, 2.13090092e-01,
          9.43568349e-02, 1.04295254e-01, 6.64013401e-02, 0.,
          9.98983756e-02, 1.64389968e-01, 1.50486425e-01, 3.13013017e-01,
          2.08543822e-01, 1.32643580e-01, 1.52809769e-01, 1.85337871e-01,
          1.56480581e-01, 2.21325368e-01, 8.00294653e-02, 9.09934491e-02,
          5.38397655e-02, 0., 0., 0., 2.42207721e-02, 0., 0., 0., 0., 0.,
          0., 0., 1.18220024e-01, 0., 0., 3.23793769e-01, 1.46949872e-01,
          1.67574793e-01, 0., 0., 1.26128718e-01, 0., 0., 0., 0., 0., 0.,
          0., 5.93285337e-02, 0., 0., 1.33338287e-01 ]
      - [ 1.51514143e-01, 9.22397617e-03, 2.31970735e-02, 6.24441393e-02,
          6.92862123e-02, 1.04590215e-01, 4.44885269e-02, 4.61186856e-01,
          2.44373322e-01, 6.45229444e-02, 1.09940201e-01, 5.62614202e-02,
          1.76103607e-01, 3.24407630e-02, 1.30856127e-01, 3.12990159e-01,
          2.96516418e-01, 7.48022646e-02, 3.15639563e-02, 4.57464121e-02,
          3.88371274e-02, 0., 4.17268984e-02, 4.58921254e-01,
          2.19278991e-01, 3.34892385e-02, 0., 2.47696023e-02,
          7.35837594e-02, 1.64028071e-02, 3.12363785e-02, 3.68227720e-01,
          1.55128175e-02, 0., 2.31970735e-02, 3.11461259e-02,
          7.10886642e-02, 0., 0., 0., 0., 0., 0., 0., 7.05806985e-02, 0.,
          2.33079586e-02, 0., 0., 0., 0., 0., 0., 0., 0., 0., 0., 0., 0.,
          0., 3.10256351e-02, 0., 0., 0. ]
      - [ 3.03623289e-01, 8.26653019e-02, 2.82622501e-02, 6.12497665e-02,
          6.81083798e-02, 5.05970083e-02, 0., 3.02805096e-01,
          3.44687164e-01, 1.45423204e-01, 0., 1.28660232e-01,
          1.58717230e-01, 1.28814548e-01, 1.82496220e-01, 3.06905091e-01,
          2.96875119e-01, 5.28533459e-02, 1.04816981e-01, 1.18282691e-01,
          1.39314681e-01, 1.40261710e-01, 1.68872774e-01, 3.46544832e-01,
          1.43912643e-01, 1.03170313e-01, 0., 5.26995696e-02,
          6.46132827e-02, 2.45930720e-02, 9.41174775e-02, 2.65965372e-01,
          0., 3.46900038e-02, 0., 7.04922378e-02, 7.07803071e-02, 0., 0.,
          0., 9.63197928e-03, 3.47285978e-02, 0., 0., 1.00738369e-01,
          3.76317613e-02, 0., 2.52364576e-02, 7.07481131e-02, 0., 0.,
          4.47519571e-02, 6.38913289e-02, 0., 0., 0., 2.15377621e-02, 0.,
          4.97922301e-02, 0., 1.04528479e-01, 0., 0., 0. ]
      - [ 2.97909737e-01, 6.23021461e-02, 5.02147190e-02, 0.,
          9.18963104e-02, 5.59329502e-02, 6.38864860e-02, 3.22362930e-01,
          3.29807252e-01, 1.62107334e-01, 5.34140915e-02, 1.48497924e-01,
          6.68382272e-02, 1.14882618e-01, 9.45145860e-02, 3.55582178e-01,
          3.25935394e-01, 1.82662502e-01, 3.57633792e-02, 1.21831715e-01,
          6.89991117e-02, 1.25486925e-01, 1.04757495e-01, 1.70183852e-01,
          3.83224696e-01, 8.89117941e-02, 4.47267927e-02, 0.,
          7.98268467e-02, 6.09759986e-02, 5.95865399e-02, 2.32478604e-01,
          4.52511683e-02, 0., 2.69569252e-02, 0., 3.27085592e-02, 0., 0.,
          2.66386885e-02, 0., 0., 0., 3.44963335e-02, 5.76213822e-02,
          2.05091778e-02, 4.76744622e-02, 3.61151919e-02, 0., 0., 0., 0.,
          8.18385482e-02, 5.90066575e-02, 3.31188664e-02, 3.38132381e-02,
          4.52386476e-02, 0., 0., 0., 6.42830208e-02, 0., 0., 0. ]
      - [ 3.52067441e-01, 1.54855117e-01, 2.92009301e-02, 7.62268230e-02,
          8.54671896e-02, 7.16998130e-02, 5.38957715e-02, 2.18903586e-01,
          3.98051083e-01, 1.64912567e-01, 1.37924105e-01, 5.64882383e-02,
          1.46381870e-01, 1.45576030e-01, 5.77355139e-02, 2.65957087e-01,
          3.85213792e-01, 7.75795281e-02, 1.13256752e-01, 0.,
          1.23263367e-01, 7.40271732e-02, 1.13551334e-01, 1.66669086e-01,
          3.86504173e-01, 5.64702824e-02, 6.24677390e-02, 3.43456231e-02,
          5.18156774e-02, 2.60836631e-02, 5.99573813e-02, 1.45129561e-01,
          0., 0., 5.34649231e-02, 0., 8.70955065e-02, 6.16076849e-02,
          5.69257550e-02, 0., 3.42041329e-02, 0., 4.24968377e-02,
          4.64921296e-02, 6.55918941e-02, 4.42688093e-02, 0., 0.,
          3.07162181e-02, 3.27529609e-02, 0., 0., 4.91459481e-02,
          3.35021131e-02, 9.18629207e-03, 0., 3.52902487e-02, 0.,
          1.94266420e-02, 5.12399934e-02, 6.29495159e-02, 0., 0.,
          2.45969370e-02 ]
      - [ 2.60873079e-01, 1.54730946e-01, 8.70066285e-02, 1.17457189e-01,
          1.22289173e-01, 1.04927503e-01, 9.16786715e-02, 1.80270657e-01,
          3.39852542e-01, 2.14574978e-01, 1.36457458e-01, 1.16807513e-01,
          2.19205186e-01, 1.57162949e-01, 6.68711960e-02, 2.17541642e-02,
          2.98570216e-01, 1.26502559e-01, 1.05626024e-01, 9.05223042e-02,
          1.24891803e-01, 8.50195214e-02, 2.12996528e-01, 1.16890959e-01,
          3.36776465e-01, 1.14689879e-01, 1.23427473e-01, 9.03399289e-02,
          1.67679682e-01, 1.08600289e-01, 6.84339926e-02, 1.43627375e-01,
          1.25804469e-01, 2.59223860e-02, 0., 0., 6.84667155e-02, 0., 0.,
          0., 0., 0., 0., 0., 1.05917893e-01, 5.60284257e-02,
          1.25253424e-01, 1.52655259e-01, 2.07537144e-01, 0.,
          4.22619805e-02, 0., 8.12353119e-02, 0., 0., 0., 2.13334393e-02,
          0., 0., 0., 1.65248103e-02, 0., 0., 0. ]
      - [ 9.17864963e-02, 8.75743330e-02, 9.26215053e-02, 8.33530277e-02,
          7.03905821e-02, 1.18288651e-01, 1.33909568e-01, 1.90255716e-01,
          3.63214403e-01, 6.60876185e-02, 1.25577450e-01, 1.09580897e-01,
          1.61967218e-01, 8.62550214e-02, 2.55251855e-01, 3.03847075e-01,
          1.79477707e-01, 1.90301716e-01, 1.09115906e-01, 1.73223704e-01,
          1.79843485e-01, 1.70090333e-01, 7.63158351e-02, 2.43111715e-01,
          3.21084857e-01, 9.21545476e-02, 1.18932776e-01, 1.14919305e-01,
          1.02458961e-01, 1.12834230e-01, 7.23695159e-02, 6.66786358e-02,
          0., 0., 0., 0., 4.04084548e-02, 0., 3.70947346e-02,
          3.25852670e-02, 3.09383888e-02, 0., 0., 0., 8.34896639e-02, 0.,
          9.01328102e-02, 1.55695021e-01, 0., 0., 0., 0., 1.66285932e-01,
          9.72809568e-02, 0., 0., 3.82613167e-02, 0., 0., 0.,
          1.18405782e-01, 0., 0., 1.86354592e-01 ]
      - [ 2.26746798e-01, 1.57788485e-01, 8.28600302e-02, 1.10155858e-01,
          1.67724445e-01, 0., 7.42893219e-02, 8.22046697e-02,
          2.31051281e-01, 2.74777651e-01, 2.52939075e-01, 2.02898309e-01,
          2.01697364e-01, 1.54120937e-01, 1.71703920e-01, 1.66243479e-01,
          2.38873333e-01, 1.52378529e-01, 1.07957274e-01, 9.02261660e-02,
          1.58138081e-01, 1.97921783e-01, 1.76392004e-01, 1.13667004e-01,
          1.90607324e-01, 2.00779527e-01, 1.55530199e-01, 1.00525714e-01,
          1.61813259e-01, 1.66259244e-01, 1.61600158e-01, 1.08763553e-01,
          5.48318289e-02, 0., 0., 0., 5.00110276e-02, 0., 0.,
          1.09146714e-01, 7.58454800e-02, 1.29615799e-01, 4.36438210e-02,
          0., 9.35620591e-02, 0., 4.60679494e-02, 4.87109274e-02,
          1.14844397e-01, 5.49735762e-02, 8.15945864e-02, 0.,
          9.35620591e-02, 0., 0., 0., 0., 0., 0., 0., 3.87383737e-02, 0.,
          0., 9.71780792e-02 ]
      - [ 2.08156377e-01, 1.35640576e-01, 0., 1.34682819e-01,
          5.69082573e-02, 2.30589192e-02, 4.98838052e-02, 2.70545453e-01,
          2.72080481e-01, 1.97575226e-01, 2.79046327e-01, 1.93622902e-01,
          1.57561451e-01, 8.65114331e-02, 1.46421611e-01, 1.91446200e-01,
          1.39212281e-01, 2.28897125e-01, 1.89676285e-01, 1.62722066e-01,
          1.41054407e-01, 9.95907187e-02, 0., 2.66674787e-01,
          2.91558266e-01, 1.12031370e-01, 5.50953448e-02, 5.49941473e-02,
          1.41622469e-01, 7.31911734e-02, 6.08567186e-02, 1.18592978e-01,
          0., 6.79307953e-02, 0., 0., 1.15486421e-01, 0., 0., 0.,
          1.28627688e-01, 6.91617802e-02, 0., 0., 1.38948694e-01,
          7.77126178e-02, 9.89941061e-02, 8.78439248e-02, 0., 0.,
          5.74397743e-02, 0., 1.58434555e-01, 0., 0., 2.42317896e-02,
          9.49344411e-02, 0., 0., 0., 9.98236910e-02, 7.87424743e-02, 0.,
          5.99293634e-02 ]
      - [ 1.80599079e-01, 2.15114668e-01, 4.95609306e-02, 3.26255895e-02,
          7.24269673e-02, 0., 2.06321388e-01, 3.11101347e-01,
          1.21638462e-01, 1.85373947e-01, 1.60593405e-01, 1.67941689e-01,
          2.48557076e-01, 1.67316362e-01, 3.27797979e-02, 2.04993144e-01,
          1.35683283e-01, 2.09387422e-01, 0., 1.29555106e-01,
          1.30684346e-01, 1.47842541e-01, 1.97144642e-01, 8.65591988e-02,
          2.38871694e-01, 2.95640469e-01, 5.93265109e-02, 0.,
          6.47411719e-02, 3.88364531e-02, 1.51344463e-01, 2.84335434e-01,
          8.93238857e-02, 1.56174362e-01, 3.92060280e-02, 0.,
          1.01342812e-01, 0., 0., 0., 0., 0., 0., 0., 1.33762315e-01,
          9.68411192e-02, 0., 0., 1.08614765e-01, 0., 3.25588211e-02, 0.,
          4.59302589e-02, 0., 0., 0., 0., 0., 0., 0., 8.64108428e-02, 0.,
          1.07862927e-01, 9.84026641e-02 ]
      - [ 2.87286788e-01, 1.16020150e-01, 7.04001933e-02, 9.53018293e-02,
          1.54629499e-01, 3.31675261e-02, 1.98052451e-01, 2.41987944e-01,
          2.52420962e-01, 1.65841609e-01, 3.01189832e-02, 7.22069666e-02,
          1.13173142e-01, 7.70404115e-02, 2.03503534e-01, 3.13584596e-01,
          1.18361115e-01, 8.78619403e-02, 0., 2.01720595e-01,
          3.32245201e-01, 2.03640804e-01, 1.72806442e-01, 1.58005431e-01,
          1.53839052e-01, 1.27220467e-01, 0., 1.12696618e-01,
          1.89658970e-01, 9.91137251e-02, 1.25607833e-01, 1.33122534e-01,
          8.25099051e-02, 0., 0., 0., 6.93006143e-02, 0., 0., 0.,
          1.54951319e-01, 4.31723595e-02, 0., 0., 4.79016043e-02, 0.,
          7.58747756e-02, 9.17486772e-02, 1.55569628e-01, 0.,
          6.02656305e-02, 0., 5.36800250e-02, 0., 0., 0., 0., 0., 0., 0.,
          6.96845576e-02, 0., 0., 1.44450292e-01 ]
      - [ 2.48196423e-01, 2.11853117e-01, 3.39796506e-02, 2.21534923e-01,
          1.77272633e-01, 1.50299445e-01, 1.28225625e-01, 1.44460008e-01,
          2.46533647e-01, 2.25729749e-01, 9.99980420e-02, 2.95972258e-01,
          1.55592710e-01, 9.48603377e-02, 9.38331634e-02, 1.02645621e-01,
          2.68420100e-01, 1.38758421e-01, 0., 6.44272938e-02,
          4.61616889e-02, 6.40634224e-02, 0., 1.35053650e-01,
          3.83633643e-01, 1.17455207e-01, 3.10717635e-02, 1.81140915e-01,
          1.49705976e-01, 8.42224881e-02, 1.20051518e-01, 1.54859141e-01,
          9.29021463e-02, 1.10986114e-01, 4.24253084e-02, 0.,
          8.61495435e-02, 5.25427274e-02, 0., 0., 1.07686929e-02, 0., 0.,
          0., 4.23963889e-02, 6.71202093e-02, 0., 1.25600636e-01,
          2.52548233e-02, 0., 0., 0., 8.76988471e-02, 0., 3.22373100e-02,
          0., 0., 3.32257673e-02, 8.37071985e-02, 1.20246939e-01,
          1.42964289e-01, 0., 0., 0. ]
      - [ 8.00816938e-02, 1.88056901e-02, 0., 0., 3.64210010e-02, 0., 0.,
          0., 4.51976120e-01, 1.68922663e-01, 1.38846681e-01,
          7.97223113e-03, 6.34008227e-03, 0., 1.06627047e-02, 0.,
          1.56105623e-01, 9.90787968e-02, 2.16830522e-01, 1.59707755e-01,
          1.81028828e-01, 1.17268346e-01, 2.48520315e-01, 1.01964042e-01,
          3.38778406e-01, 1.72946155e-01, 1.84275687e-01, 1.51173949e-01,
          2.54929721e-01, 2.56716341e-01, 8.61480162e-02, 0.,
          1.43798739e-01, 0., 2.32549030e-02, 0., 9.71916169e-02, 0., 0.,
          0., 3.93229760e-02, 0., 0., 1.66583493e-01, 1.68221384e-01, 0.,
          0., 0., 2.00648293e-01, 1.05352856e-01, 1.20995745e-01, 0.,
          1.41910240e-01, 0., 0., 0., 0., 0., 0., 0., 0., 0., 0., 0. ]
      - [ 2.60697693e-01, 2.00904012e-01, 1.48377493e-01, 3.91282551e-02,
          8.03176388e-02, 0., 0., 1.16303205e-01, 3.41228008e-01,
          2.68464535e-01, 2.13028565e-01, 1.26170859e-01, 1.47183955e-01,
          4.35700826e-02, 1.54620513e-01, 1.71383739e-01, 2.29361296e-01,
          1.83736652e-01, 1.55236736e-01, 1.05857730e-01, 1.40937984e-01,
          0., 2.19873622e-01, 2.67192006e-01, 2.39144295e-01,
          3.01069859e-02, 0., 0., 9.76174027e-02, 0., 2.14920714e-01,
          2.46709988e-01, 1.09190615e-02, 1.24190718e-01, 8.21045637e-02,
          0., 1.17500469e-01, 0., 0., 0., 0., 0., 0., 1.15753666e-01,
          1.15762651e-01, 2.96021979e-02, 0., 6.20470308e-02,
          7.96591714e-02, 2.70276871e-02, 0., 2.36906931e-02,
          3.68669964e-02, 0., 0., 0., 0., 0., 0., 0., 3.58836986e-02,
          4.31113131e-02, 4.85712588e-02, 5.85539825e-02 ]
      - [ 2.57334977e-01, 1.23216040e-01, 1.31903648e-01, 3.63020897e-02,
          1.30490020e-01, 1.22580074e-01, 2.57731438e-01, 2.10136622e-01,
          2.45586798e-01, 9.77993757e-02, 1.35939181e-01, 1.84441417e-01,
          1.62797228e-01, 8.63616541e-02, 1.36346668e-01, 2.33029217e-01,
          1.90081641e-01, 0., 9.74898338e-02, 1.51720122e-01,
          2.52151519e-01, 1.11095682e-01, 8.28137696e-02, 2.49502957e-01,
          2.60438204e-01, 1.52440146e-01, 1.60037473e-01, 9.74728093e-02,
          9.12542194e-02, 5.95001802e-02, 1.93129554e-01, 2.68692762e-01,
          0., 0., 0., 0., 3.67259234e-02, 0., 0., 9.47602689e-02,
          9.16546509e-02, 0., 0., 4.08409573e-02, 6.28610924e-02, 0., 0.,
          0., 3.33799422e-02, 6.27086461e-02, 0., 9.25403312e-02,
          9.56469402e-02, 0., 0., 0., 0., 0., 0., 0., 6.49792999e-02,
          6.51618466e-02, 5.79399206e-02, 8.86163265e-02 ]
      - [ 3.40248197e-01, 1.03041641e-01, 8.45454186e-02, 5.30670621e-02,
          8.31610411e-02, 9.97595042e-02, 0., 3.34498703e-01,
          3.89866531e-01, 1.98716924e-01, 8.31423253e-02, 5.47078736e-02,
          1.37650430e-01, 7.07586855e-02, 9.61514115e-02, 3.47827047e-01,
          2.98934758e-01, 9.16704684e-02, 0., 0., 1.40354559e-01,
          1.42706990e-01, 1.10848419e-01, 1.77186653e-01, 2.89808363e-01,
          1.28206506e-01, 7.81295449e-02, 5.56420349e-02, 5.86521365e-02,
          5.20044751e-02, 6.08200505e-02, 1.68393478e-01, 8.42032582e-02,
          4.51352708e-02, 2.89099887e-02, 0., 4.78892699e-02, 0., 0., 0.,
          0., 0., 0., 0., 2.39446349e-02, 3.21498550e-02, 1.42375641e-02,
          4.46815938e-02, 1.05414681e-01, 7.29665384e-02, 0., 0.,
          6.10470772e-02, 0., 0., 0., 0., 0., 0., 0., 0., 0., 0.,
          1.17280371e-01 ]
      - [ 2.13563934e-01, 0., 9.93937701e-02, 1.07279345e-01,
          8.90012756e-02, 0., 1.27770841e-01, 1.06379740e-01,
          3.19048762e-01, 9.55327135e-03, 0., 8.24772101e-03,
          2.89101839e-01, 1.18779689e-01, 1.77160636e-01, 3.81349146e-01,
          1.37146190e-01, 0., 1.72836870e-01, 3.08523715e-01,
          2.53004223e-01, 2.24838510e-01, 0., 0., 1.20008819e-01,
          7.66870901e-02, 1.78288832e-01, 9.97528061e-02, 2.37716854e-01,
          1.70274630e-01, 1.16093792e-01, 8.92991126e-02, 9.27606877e-03,
          0., 0., 2.77093500e-02, 7.40699396e-02, 0., 0., 0.,
          6.55917125e-03, 7.80021306e-03, 0., 0., 2.08705679e-01,
          3.72885987e-02, 1.92378666e-02, 0., 1.13608176e-02,
          2.48191804e-02, 0., 8.90330747e-02, 1.57906711e-01, 0., 0., 0.,
          0., 0., 0., 6.68318570e-02, 6.11798763e-02, 0., 0., 0. ]
      - [ 3.82742614e-01, 8.34948272e-02, 4.42056134e-02, 5.79097532e-02,
          5.82285486e-02, 7.00353608e-02, 4.79241759e-02, 1.93148434e-01,
          3.80026698e-01, 1.30180702e-01, 6.95162639e-02, 1.05779722e-01,
          8.81675109e-02, 1.07662417e-01, 1.28586814e-01, 1.48813546e-01,
          2.29690462e-01, 0., 1.13202155e-01, 1.20019972e-01,
          2.95107424e-01, 1.27138391e-01, 3.20838876e-02, 1.04874216e-01,
          3.26836795e-01, 7.24886209e-02, 2.66173109e-02, 1.73337355e-01,
          2.66505599e-01, 2.01345533e-01, 1.41109675e-01, 1.51431918e-01,
          2.66115367e-02, 0., 0., 2.50049476e-02, 6.50578290e-02, 0.,
          3.13717946e-02, 0., 3.07058264e-02, 0., 2.87299883e-02,
          1.89465340e-02, 6.98056370e-02, 0., 0., 4.83510233e-02,
          1.30569384e-01, 0., 0., 0., 5.26657514e-02, 2.92872451e-02, 0.,
          0., 0., 0., 0., 0., 9.93154794e-02, 5.13619855e-02,
          8.09875131e-02, 9.88441929e-02 ]
      - [ 1.14339702e-01, 1.00621358e-01, 6.15857579e-02, 8.82176459e-02,
          1.07148908e-01, 1.04703628e-01, 1.98020056e-01, 2.71023095e-01,
          2.96342462e-01, 1.37372941e-01, 1.72035277e-01, 1.06800787e-01,
          1.30920097e-01, 1.33623526e-01, 2.23196685e-01, 2.40807712e-01,
          1.77172393e-01, 2.22291648e-01, 1.97555378e-01, 7.17033073e-02,
          1.11237697e-01, 9.92881283e-02, 2.37843022e-01, 2.13870689e-01,
          2.43581131e-01, 4.46014218e-02, 1.09438322e-01, 1.24835894e-01,
          9.75819230e-02, 0., 5.92207722e-02, 2.58419126e-01, 0.,
          8.72778073e-02, 1.31340563e-01, 0., 1.64419457e-01, 0., 0.,
          5.67411892e-02, 8.54930803e-02, 7.28406161e-02, 9.39289555e-02,
          0., 1.02680087e-01, 0., 0., 6.05657957e-02, 9.23893228e-02,
          8.82976800e-02, 0., 0., 7.68387392e-02, 0., 0., 0.,
          2.05360167e-02, 0., 0., 3.52248102e-02, 6.24578558e-02, 0.,
          5.33618666e-02, 0. ]
      - [ 1.99645087e-01, 1.55831397e-01, 1.37503698e-01, 1.46323279e-01,
          1.71112090e-01, 1.43836483e-01, 8.52423608e-02, 1.49128944e-01,
          3.00543189e-01, 2.35596761e-01, 9.83578563e-02, 1.14695244e-01,
          1.97493851e-01, 1.27426326e-01, 1.67995125e-01, 2.76236862e-01,
          1.21005282e-01, 1.46485701e-01, 8.09218064e-02, 9.93015990e-02,
          1.00983731e-01, 9.82972905e-02, 2.47443110e-01, 2.92451411e-01,
          1.20153673e-01, 3.34140211e-02, 9.86183956e-02, 1.63977131e-01,
          1.83107570e-01, 1.07651472e-01, 1.81576580e-01, 2.40835041e-01,
          7.59157240e-02, 6.26116544e-02, 0., 5.06093614e-02,
          6.32473379e-02, 3.53847444e-02, 0., 0., 4.01904210e-02,
          2.90291179e-02, 0., 0., 5.05621918e-02, 5.07708415e-02,
          7.31018186e-02, 8.07891786e-02, 9.29943845e-02, 1.04943953e-01,
          0., 0., 6.53522611e-02, 0., 0., 0., 0., 0., 0., 0.,
          9.67528746e-02, 6.47179708e-02, 7.62318969e-02, 0. ]
      - [ 2.85415232e-01, 0., 8.30215067e-02, 1.79196820e-01,
          2.27724150e-01, 1.84780464e-01, 1.70319259e-01, 1.17207557e-01,
          3.05250823e-01, 1.14130229e-01, 1.42959639e-01, 3.32450867e-01,
          1.89201728e-01, 9.31531265e-02, 6.19838573e-02, 8.79021734e-02,
          4.10265714e-01, 0., 0., 5.78215942e-02, 0., 0., 4.17035371e-02,
          1.45255849e-01, 3.99374634e-01, 2.15163175e-02, 0., 0.,
          3.39031741e-02, 0., 1.05690137e-02, 6.16761036e-02,
          2.32113883e-01, 0., 0., 0., 9.34645981e-02, 0., 0., 0., 0., 0.,
          0., 0., 7.55566806e-02, 8.05576295e-02, 9.05686393e-02, 0.,
          1.14507444e-01, 0., 0., 0., 2.83654295e-02, 0., 0., 0., 0., 0.,
          0., 0., 2.47593783e-02, 2.24972051e-02, 0., 0. ]
      - [ 3.77095163e-01, 1.05117768e-01, 5.20217083e-02, 6.25227615e-02,
          9.47054252e-02, 5.06062694e-02, 8.40078443e-02, 1.46568388e-01,
          1.72273263e-01, 1.25370055e-01, 5.49937896e-02, 0.,
          9.73911732e-02, 9.78891402e-02, 1.09067708e-01, 3.84966522e-01,
          3.12132090e-01, 1.41511649e-01, 1.26135454e-01, 4.31477763e-02,
          1.17778912e-01, 9.98338833e-02, 2.03105524e-01, 2.84512669e-01,
          1.73312798e-01, 0., 0., 0., 8.29255953e-02, 0., 1.59814641e-01,
          4.46605474e-01, 9.81845334e-02, 3.17181423e-02, 0., 0.,
          4.07416523e-02, 0., 0., 0., 0., 0., 0., 0., 1.53988972e-02, 0.,
          0., 5.08343838e-02, 4.74625863e-02, 4.77140136e-02,
          5.05504720e-02, 0., 6.06255159e-02, 0., 0., 0., 0., 0., 0., 0.,
          1.53988972e-02, 0., 0., 5.64288683e-02 ]
      - [ 1.99731663e-01, 1.74380273e-01, 5.21523058e-02, 5.63600026e-02,
          5.63775338e-02, 1.66096762e-02, 0., 3.08518615e-02,
          2.22080737e-01, 3.18973482e-01, 7.32131898e-02, 0.,
          6.24232553e-02, 6.71872348e-02, 1.13696106e-01, 1.23564646e-01,
          2.09058404e-01, 1.60842910e-01, 1.23894706e-01, 2.89903767e-02,
          1.43500775e-01, 8.05332661e-02, 1.06307305e-01, 8.27051550e-02,
          3.68114978e-01, 3.70049238e-01, 1.85102463e-01, 1.14826128e-01,
          1.58866018e-01, 1.12999588e-01, 1.78779557e-01, 1.09493539e-01,
          1.15848377e-01, 8.75927582e-02, 0., 0., 7.56991580e-02, 0., 0.,
          0., 0., 0., 2.44655237e-02, 7.96535388e-02, 1.92222238e-01, 0.,
          0., 1.84558984e-02, 1.52546182e-01, 1.91672146e-01, 0., 0.,
          1.71418384e-01, 0., 0., 0., 7.87735656e-02, 1.26045987e-01,
          4.95548211e-02, 0., 9.23629552e-02, 0., 0., 0. ]
      - [ 2.14989215e-01, 8.24875236e-02, 1.19936965e-01, 2.26948738e-01,
          2.40132153e-01, 1.12804718e-01, 0., 1.64664641e-01,
          2.07192704e-01, 0., 1.31307140e-01, 1.90305904e-01,
          2.59839982e-01, 1.43213570e-01, 8.22616071e-02, 2.03836471e-01,
          1.58907980e-01, 2.23161563e-01, 5.54395989e-02, 2.06489369e-01,
          1.90228581e-01, 3.02242279e-01, 9.35330689e-02, 1.72751695e-01,
          2.31862739e-01, 1.07780814e-01, 9.36093628e-02, 1.65551245e-01,
          1.19135633e-01, 1.17972486e-01, 1.53042555e-01, 1.38483182e-01,
          0., 1.62323099e-02, 0., 1.02905340e-01, 1.03228278e-01, 0., 0.,
          0., 1.17639536e-02, 0., 0., 3.95109765e-02, 1.37423754e-01,
          3.05111054e-02, 3.74500565e-02, 3.01682316e-02, 0.,
          5.82134388e-02, 0., 7.45654404e-02, 1.13272630e-01, 0., 0., 0.,
          3.42975259e-02, 0., 0., 3.10447924e-02, 1.34420842e-01,
          5.16032539e-02, 0., 4.13823202e-02 ]
      - [ 6.84998706e-02, 5.33344187e-02, 2.54105050e-02, 3.57342437e-02,
          5.12570627e-02, 4.70174327e-02, 9.50425565e-02, 8.76547545e-02,
          3.45159560e-01, 2.17604071e-01, 1.48189217e-01, 2.27925792e-01,
          2.57032692e-01, 1.08358309e-01, 1.63710445e-01, 3.39124240e-02,
          3.40729147e-01, 1.14450254e-01, 2.32905708e-02, 1.37545168e-01,
          1.96001783e-01, 1.06845237e-01, 2.66362697e-01, 2.45845109e-01,
          3.15629631e-01, 1.25056192e-01, 1.27474502e-01, 3.35166454e-02,
          7.49526992e-02, 4.54971604e-02, 6.27929196e-02, 2.05246676e-02,
          1.69864997e-01, 0., 0., 0., 1.22622035e-01, 0., 0., 0.,
          2.22427040e-01, 1.03634536e-01, 0., 0., 1.25726879e-01, 0., 0.,
          0., 9.03811902e-02, 7.14066625e-02, 5.22794798e-02, 0.,
          6.52598217e-02, 0., 0., 6.61995336e-02, 4.71793674e-02, 0., 0.,
          0., 3.85628454e-02, 0., 0., 0. ]
      - [ 2.02446535e-01, 1.03652112e-01, 1.24486215e-01, 0.,
          1.75154433e-01, 6.53299466e-02, 2.19350696e-01, 2.24492982e-01,
          2.97991931e-01, 1.55755430e-01, 9.79362130e-02, 1.38163105e-01,
          1.97416708e-01, 8.01075324e-02, 8.53153020e-02, 1.27912834e-01,
          3.32685262e-01, 2.38663897e-01, 1.39891416e-01, 8.18755031e-02,
          1.79462567e-01, 1.47377074e-01, 2.60189801e-01, 2.54646093e-01,
          2.89566547e-01, 1.22086421e-01, 4.54826355e-02, 7.87278935e-02,
          8.95926878e-02, 9.48864520e-02, 5.62843271e-02, 1.02173649e-01,
          1.00221604e-01, 6.31972402e-02, 0., 6.86357543e-02,
          7.76585117e-02, 0., 0., 0., 0., 0., 0., 0., 3.67948785e-02, 0.,
          0., 1.37785435e-01, 0., 4.92378362e-02, 0., 0., 8.86691138e-02,
          0., 0., 0., 9.65078548e-02, 0., 0., 0., 5.99007457e-02, 0., 0.,
          4.68671322e-02 ]
      - [ 1.06837451e-01, 1.47160709e-01, 8.00048262e-02, 2.41254866e-01,
          2.64269680e-01, 5.39115556e-02, 0., 1.91331461e-01,
          3.37529927e-01, 1.26930967e-01, 1.23596370e-01, 1.13117307e-01,
          3.88099998e-01, 1.14246726e-01, 1.40322074e-01, 2.12035060e-01,
          2.21161440e-01, 2.13694662e-01, 1.31274283e-01, 1.50586739e-01,
          1.81593403e-01, 3.44771035e-02, 1.06996022e-01, 1.86227337e-01,
          2.56775469e-01, 3.46927941e-02, 0., 4.19248119e-02,
          5.19908145e-02, 4.00338508e-02, 6.49096966e-02, 1.70579880e-01,
          5.59330396e-02, 0., 1.04567327e-01, 9.09689590e-02,
          1.20557941e-01, 0., 0., 0., 0., 0., 0., 0., 1.38005182e-01, 0.,
          8.09068680e-02, 7.67830685e-02, 0., 0., 0., 0., 6.31000102e-02,
          0., 3.91194150e-02, 3.89930420e-02, 3.18046995e-02,
          2.99136285e-02, 3.22811976e-02, 0., 7.11174682e-02, 0.,
          3.90571244e-02, 1.79955419e-02 ]
      - [ 1.76798940e-01, 1.54836237e-01, 8.46231058e-02, 2.60967612e-01,
          3.41432154e-01, 0., 0., 1.59897357e-02, 2.50207812e-01,
          4.47553664e-01, 1.96602955e-01, 1.77392572e-01, 2.02948838e-01,
          9.13669690e-02, 7.39629865e-02, 2.58207284e-02, 1.62375182e-01,
          2.81908184e-01, 0., 7.72353485e-02, 6.31323233e-02,
          2.84342170e-02, 3.58167663e-02, 7.15192705e-02, 1.19957052e-01,
          3.96799333e-02, 4.63018045e-02, 2.39072025e-01, 2.45825350e-01,
          1.25243112e-01, 8.36551338e-02, 0., 6.49090111e-02,
          8.35281238e-02, 0., 8.73366296e-02, 1.71565935e-01, 0., 0., 0.,
          0., 0., 0., 0., 9.70311016e-02, 6.01310469e-02, 0., 0., 0., 0.,
          2.48140842e-02, 3.74041423e-02, 4.92495075e-02, 2.48140842e-02,
          0., 0., 1.79833770e-02, 0., 0., 0., 1.26224652e-01, 0., 0., 0. ]
      - [ 2.14756101e-01, 1.13045618e-01, 1.31939128e-01, 8.67292807e-02,
          1.35549128e-01, 9.05362144e-02, 1.27077430e-01, 1.90990716e-01,
          2.85664111e-01, 1.36652559e-01, 1.60222843e-01, 2.02574626e-01,
          2.43677661e-01, 1.77351162e-01, 9.38763469e-02, 1.74017027e-01,
          2.74031103e-01, 1.42899513e-01, 1.51075259e-01, 1.56512067e-01,
          2.16715664e-01, 1.32158279e-01, 1.52648225e-01, 2.42391631e-01,
          2.45327711e-01, 8.90877470e-02, 4.28008139e-02, 4.60829027e-02,
          2.74632014e-02, 4.33288179e-02, 4.46380675e-02, 1.68842435e-01,
          2.11972013e-01, 0., 0., 0., 6.98106959e-02, 0., 0., 0., 0., 0.,
          0., 0., 5.60421422e-02, 0., 0., 1.95095658e-01, 1.73917606e-01,
          0., 0., 0., 3.12202927e-02, 0., 0., 0., 0., 0., 0., 0.,
          6.15672506e-02, 0., 0., 1.39679700e-01 ]
      - [ 1.33091316e-01, 1.27814576e-01, 1.85678378e-01, 1.56849176e-01,
          1.96791992e-01, 1.32722303e-01, 1.12963110e-01, 1.43230423e-01,
          1.47619322e-01, 2.42579296e-01, 2.86213726e-01, 1.90452278e-01,
          2.23436207e-01, 1.61879703e-01, 0., 7.25464523e-02,
          9.88795832e-02, 1.50141999e-01, 2.88380980e-01, 6.43225983e-02,
          1.79770008e-01, 9.33637172e-02, 8.15767944e-02, 3.76395583e-02,
          2.14684635e-01, 2.48217016e-01, 1.77882195e-01, 0.,
          3.13311219e-01, 6.52935877e-02, 1.26122624e-01, 0.,
          6.69915527e-02, 8.28045756e-02, 8.79158974e-02, 0.,
          1.02058388e-01, 0., 0., 0., 3.68227027e-02, 0., 0., 0.,
          1.10683523e-01, 1.05712570e-01, 8.58869776e-02, 1.00949951e-01,
          1.00744188e-01, 0., 6.87073395e-02, 0., 6.10127710e-02, 0.,
          2.26663742e-02, 0., 2.56503318e-02, 0., 0., 0., 1.07547410e-01,
          8.63837525e-02, 0., 0. ]
      - [ 3.67685169e-01, 2.44301781e-02, 0., 1.53518682e-02,
          1.91960726e-02, 4.15514782e-02, 1.51408046e-01, 1.51844397e-01,
          3.46396148e-01, 1.90943964e-02, 3.54910791e-02, 2.73845308e-02,
          4.15028371e-02, 4.99558374e-02, 3.57729122e-02, 2.78941154e-01,
          3.40010881e-01, 0., 0., 1.88160911e-01, 1.88341096e-01,
          8.73268768e-02, 1.87294241e-02, 2.15968475e-01, 2.78197557e-01,
          1.89280659e-02, 0., 1.20339833e-01, 1.81983426e-01,
          3.28614384e-01, 2.39812449e-01, 2.72640347e-01, 1.91960726e-02,
          2.25029457e-02, 0., 0., 1.91960726e-02, 0., 0., 0., 0., 0., 0.,
          0., 2.03605108e-02, 0., 1.81217305e-02, 2.27071904e-02,
          3.22733447e-02, 0., 0., 0., 6.78683678e-03, 0., 0., 0., 0., 0.,
          0., 0., 6.78683678e-03, 0., 0., 1.75313540e-02 ]
      - [ 5.89902587e-02, 9.43411794e-03, 0., 0., 2.60125697e-02, 0., 0.,
          0., 4.62881267e-01, 1.69476464e-01, 1.35995939e-01,
          1.01531833e-01, 7.93311559e-03, 0., 0., 0., 1.42198697e-01,
          1.40581667e-01, 1.81871340e-01, 1.54280126e-01, 1.32634908e-01,
          1.92994118e-01, 1.88644841e-01, 1.63251147e-01, 3.50205004e-01,
          1.73529044e-01, 1.71269879e-01, 2.12159455e-01, 1.71848461e-01,
          2.73441464e-01, 0., 0., 1.78743005e-01, 0., 0., 0.,
          7.90512264e-02, 0., 0., 0., 0., 0., 0., 0., 2.12891042e-01,
          6.58447519e-02, 0., 5.78247570e-02, 1.96901649e-01,
          1.48510754e-01, 8.02331194e-02, 0., 1.41776577e-01, 0., 0., 0.,
          0., 0., 0., 0., 0., 0., 0., 0. ]
      - [ 3.83997232e-01, 9.61696915e-03, 1.35940149e-01, 1.44018263e-01,
          1.59843594e-01, 1.76903486e-01, 1.63668483e-01, 3.80315483e-01,
          1.89391360e-01, 0., 1.14222392e-01, 1.90007776e-01,
          2.27828696e-01, 8.08188319e-02, 0., 0., 3.63392562e-01, 0., 0.,
          0., 9.26176533e-02, 0., 4.24295776e-02, 4.06295359e-01,
          1.33983687e-01, 0., 0., 0., 1.27864722e-02, 0., 1.07520986e-02,
          2.31351092e-01, 7.59020075e-02, 1.00583866e-01, 1.04303718e-01,
          0., 9.92085263e-02, 0., 0., 0., 0., 0., 0., 0., 6.90942928e-02,
          0., 9.56668779e-02, 9.90215689e-02, 4.04488705e-02, 0., 0., 0.,
          0., 0., 0., 0., 0., 0., 0., 0., 9.90435854e-03, 0., 0.,
          1.32698258e-02 ]
      - [ 1.44953519e-01, 3.23542804e-02, 5.88353053e-02, 5.75015843e-02,
          1.11095749e-01, 6.28080815e-02, 9.69196185e-02, 3.13573122e-01,
          1.49274960e-01, 0., 1.46879807e-01, 4.89926115e-02,
          1.38251349e-01, 1.14375494e-01, 1.80343628e-01, 3.65846187e-01,
          1.88732445e-01, 6.18406087e-02, 4.72449921e-02, 2.80725777e-01,
          5.12685254e-02, 1.10999249e-01, 6.75856993e-02, 3.63370627e-01,
          1.73123121e-01, 0., 6.26607910e-02, 2.94837922e-01,
          1.52491987e-01, 4.60460894e-02, 1.60354525e-01, 2.30927065e-01,
          4.69763316e-02, 0., 5.16172647e-02, 4.15872596e-02,
          5.91997914e-02, 0., 0., 0., 0., 0., 0., 3.47741731e-02,
          6.59587532e-02, 5.92980646e-02, 0., 2.99712084e-02,
          4.22198996e-02, 1.42362081e-02, 0., 1.35092631e-01,
          1.38181448e-01, 0., 0., 0., 0., 2.03666240e-02, 0., 0.,
          2.12698862e-01, 0., 0., 0. ]
      - [ 3.20431799e-01, 9.93412584e-02, 8.90929699e-02, 8.92568752e-02,
          1.89218506e-01, 0., 1.71411306e-01, 2.00711191e-01,
          3.88673544e-01, 1.11112088e-01, 0., 1.21724546e-01,
          1.93272844e-01, 2.26080775e-01, 0., 6.37751892e-02,
          1.96171254e-01, 3.00776437e-02, 2.38875642e-01, 2.30485469e-01,
          2.13003695e-01, 9.60944071e-02, 0., 7.45892674e-02,
          2.19700113e-01, 1.75108045e-01, 1.51691914e-01, 1.80621028e-01,
          1.28726333e-01, 1.13788307e-01, 1.05942301e-01, 1.29643098e-01,
          0., 0., 0., 0., 5.21399230e-02, 0., 1.58346910e-02,
          4.19363901e-02, 5.23703732e-02, 0., 0., 0., 1.22423865e-01, 0.,
          1.44569650e-01, 6.30290210e-02, 1.05945803e-01, 9.40052345e-02,
          9.71877053e-02, 0., 1.19294301e-01, 2.23998521e-02, 0., 0.,
          2.47918051e-02, 0., 0., 0., 0., 0., 0., 3.56935151e-02 ]
      - [ 2.25754261e-01, 1.57081157e-01, 0., 0., 3.98847908e-02,
          4.18971367e-02, 5.69373295e-02, 3.57936263e-01, 3.20491910e-01,
          1.92664668e-01, 1.58074394e-01, 2.01978788e-01, 9.86297801e-02,
          1.16146497e-01, 1.94885269e-01, 2.57504761e-01, 3.11781853e-01,
          2.62532741e-01, 0., 2.80372910e-02, 1.10993244e-01,
          6.46273494e-02, 1.32647917e-01, 3.56837004e-01, 9.93394703e-02,
          4.56363820e-02, 0., 0., 5.52332178e-02, 5.66692948e-02, 0.,
          2.81683095e-02, 2.21008733e-01, 5.21455072e-02, 0., 0.,
          1.10517338e-01, 0., 0., 0., 7.34338490e-03, 0., 0., 0.,
          1.64326414e-01, 0., 8.69625360e-02, 0., 3.78246531e-02,
          2.19101887e-02, 0., 4.32768501e-02, 5.96060790e-02, 0., 0., 0.,
          0., 0., 0., 0., 3.40498760e-02, 3.79102230e-02, 0.,
          2.91596632e-02 ]
      - [ 2.42954016e-01, 1.24993354e-01, 1.12340719e-01, 9.76450965e-02,
          1.05664425e-01, 2.21532539e-01, 8.40386972e-02, 6.69082999e-02,
          2.48596549e-01, 1.97329938e-01, 1.65154085e-01, 2.54100949e-01,
          2.78600901e-01, 9.92233530e-02, 6.96845576e-02, 5.51660061e-02,
          2.30803654e-01, 1.35062084e-01, 1.43767640e-01, 1.33697867e-01,
          1.60044923e-01, 1.61023483e-01, 1.87824756e-01, 2.50002503e-01,
          2.13678405e-01, 5.90248033e-02, 9.34619457e-02, 1.56064451e-01,
          1.58271506e-01, 1.42010078e-01, 1.02486283e-01, 1.25444800e-01,
          6.48167133e-02, 0., 0., 8.21681842e-02, 1.37710989e-01, 0., 0.,
          0., 8.81055091e-03, 0., 0., 1.81616694e-02, 1.30582556e-01,
          1.41917944e-01, 8.90185311e-02, 0., 1.36033937e-01,
          7.27968290e-02, 5.78642711e-02, 0., 9.90289226e-02, 0., 0., 0.,
          0., 0., 0., 0., 6.99315816e-02, 0., 8.61846954e-02,
          7.53680542e-02 ]
      - [ 2.73825139e-01, 1.03796057e-01, 1.15651540e-01, 9.56106558e-02,
          1.18674517e-01, 1.16621964e-01, 1.28299117e-01, 3.11420262e-01,
          2.35530347e-01, 1.96467310e-01, 9.97248814e-02, 1.60522372e-01,
          1.98141232e-01, 1.40129715e-01, 1.38702482e-01, 9.28440243e-02,
          1.75118923e-01, 1.25477627e-01, 9.17921215e-02, 7.83791542e-02,
          1.14051059e-01, 1.29351974e-01, 1.44515812e-01, 3.01895916e-01,
          2.58853704e-01, 1.15607485e-01, 1.25216156e-01, 1.28876358e-01,
          9.06125829e-02, 1.07222728e-01, 1.04644522e-01, 2.36705258e-01,
          1.38338864e-01, 0., 0., 0., 5.72776981e-02, 0., 0., 0., 0.,
          2.08277609e-02, 0., 2.35706475e-02, 9.06209350e-02, 0.,
          9.96013656e-02, 1.67312667e-01, 1.60661831e-01, 1.01208396e-01,
          0., 0., 7.02240616e-02, 0., 0., 0., 0., 0., 0., 0.,
          4.30931523e-02, 0., 0., 1.39969021e-01 ]
      - [ 2.09402725e-01, 0., 9.26970840e-02, 6.47977665e-02,
          1.02660537e-01, 4.52777371e-02, 1.48269013e-01, 2.43224114e-01,
          4.40972567e-01, 1.32368192e-01, 8.85204077e-02, 0.,
          1.22531801e-01, 1.06635511e-01, 1.95110664e-01, 3.22660714e-01,
          2.50269085e-01, 7.57571161e-02, 9.46300477e-02, 2.09537417e-01,
          1.35857508e-01, 8.15092698e-02, 9.22433808e-02, 3.27486098e-01,
          2.68066704e-01, 2.94388942e-02, 4.50004861e-02, 4.49047871e-02,
          8.41294900e-02, 0., 9.17290598e-02, 2.01722950e-01,
          3.71291190e-02, 0., 0., 6.79158047e-02, 7.47222006e-02, 0., 0.,
          1.00883402e-01, 0., 0., 2.95293387e-02, 0., 1.28360793e-01, 0.,
          0., 0., 2.18319111e-02, 0., 0., 7.90068731e-02, 1.14181466e-01,
          0., 6.49515763e-02, 0., 0., 1.99256483e-02, 0., 0.,
          5.22941314e-02, 0., 0., 0. ]
      - [ 1.66189402e-01, 1.24771737e-01, 2.06589594e-01, 2.45500877e-01,
          1.83675021e-01, 9.16239470e-02, 1.81623727e-01, 7.08435923e-02,
          3.79022807e-01, 2.92431504e-01, 1.70465827e-01, 2.59968698e-01,
          3.60535264e-01, 2.14758098e-01, 1.20811343e-01, 2.27326110e-01,
          1.68513700e-01, 1.56397685e-01, 1.05858803e-01, 8.66108760e-02,
          1.45545319e-01, 1.04026213e-01, 6.47787154e-02, 0.,
          6.14802539e-02, 0., 0., 0., 4.15748395e-02, 7.44640753e-02,
          1.06045090e-01, 1.47079811e-01, 1.26378417e-01, 6.20302111e-02,
          4.48644571e-02, 0., 5.78817464e-02, 0., 0., 0., 0., 0., 0., 0.,
          6.48794770e-02, 0., 4.65633459e-02, 6.32055700e-02,
          4.63092886e-02, 6.19680993e-02, 6.24182113e-02, 0.,
          7.69899189e-02, 0., 0., 0., 0., 0., 0., 1.97218563e-02,
          4.56133857e-02, 0., 0., 0. ]
      - [ 8.71685445e-02, 3.70689556e-02, 2.40593087e-02, 5.13639152e-02,
          8.72113928e-02, 9.85827670e-02, 1.19674146e-01, 4.07158315e-01,
          1.57352835e-01, 1.46059945e-01, 1.15486287e-01, 3.85672376e-02,
          1.61731511e-01, 7.83711448e-02, 1.80590555e-01, 4.30581391e-01,
          2.57838458e-01, 1.33467719e-01, 5.07050231e-02, 4.76415828e-02,
          1.43035650e-01, 3.69839668e-02, 1.38136238e-01, 3.93069655e-01,
          1.20585829e-01, 2.57347003e-02, 0., 6.64391965e-02,
          1.03392109e-01, 3.17764767e-02, 1.15355559e-01, 3.30287278e-01,
          4.81008627e-02, 0., 0., 0., 6.08420223e-02, 3.47026922e-02,
          2.14058459e-02, 0., 0., 1.71744563e-02, 2.33014338e-02, 0.,
          3.53753828e-02, 3.02983224e-02, 0., 5.46186902e-02,
          5.50815463e-02, 2.90172268e-02, 0., 0., 6.28001764e-02,
          5.60618676e-02, 5.37982509e-02, 0., 3.19982357e-02,
          4.16296534e-02, 4.52154391e-02, 0., 7.33817965e-02, 0., 0.,
          5.64175770e-02 ]
      - [ 9.78260487e-02, 5.01538515e-02, 8.60487446e-02, 1.30984008e-01,
          1.79896012e-01, 1.13224424e-01, 8.43784958e-02, 1.12636879e-01,
          4.28802729e-01, 7.03863874e-02, 8.40161815e-02, 1.64817080e-01,
          1.83533922e-01, 8.93731937e-02, 6.44926876e-02, 6.76973090e-02,
          1.09658070e-01, 0., 1.80165097e-01, 4.69033301e-01,
          1.50054157e-01, 5.61988801e-02, 1.80939510e-02, 7.02023506e-02,
          1.16280243e-01, 0., 1.04116790e-01, 3.35489035e-01,
          1.65058777e-01, 0., 7.33795837e-02, 6.55173510e-02, 0., 0., 0.,
          1.01680949e-01, 1.11028820e-01, 0., 0., 0., 1.52151389e-02,
          7.32284412e-02, 0., 4.76337075e-02, 1.16631560e-01,
          4.40912060e-02, 0., 0., 3.13668139e-02, 0., 8.93646032e-02,
          1.65518075e-01, 1.80027947e-01, 0., 0., 0., 0., 0., 0.,
          6.63327351e-02, 1.90800995e-01, 0., 0., 0. ]
      - [ 2.43626814e-02, 7.51966462e-02, 1.32583335e-01, 8.75088722e-02,
          3.33359480e-01, 9.78353694e-02, 1.22042738e-01, 1.38653249e-01,
          3.42493802e-01, 1.07799053e-01, 1.15891747e-01, 1.03120379e-01,
          3.15938652e-01, 7.73790479e-02, 4.39852774e-02, 1.44861378e-02,
          1.07306480e-01, 8.20865333e-02, 7.58105218e-02, 8.41384754e-02,
          1.26031771e-01, 0., 6.71317652e-02, 1.13907129e-01,
          3.62357795e-01, 1.50003254e-01, 0., 1.38568342e-01,
          3.71229827e-01, 1.41904086e-01, 4.35173102e-02, 0.,
          6.44575953e-02, 3.68249975e-02, 1.31251007e-01, 8.72952789e-02,
          1.45565748e-01, 0., 0., 0., 0., 0., 0., 0., 1.93643659e-01,
          5.16650937e-02, 0., 0., 2.77777314e-02, 0., 0., 6.76421523e-02,
          1.28109619e-01, 0., 0., 0., 0., 0., 0., 1.78782325e-02,
          2.04141289e-01, 0., 0., 0. ]
      - [ 9.68233719e-02, 2.13556334e-01, 1.02491453e-01, 1.16239049e-01,
          2.62605220e-01, 1.59182921e-01, 1.30372137e-01, 0.,
          2.02184647e-01, 3.19395214e-01, 1.14438042e-01, 1.01101026e-01,
          3.25016230e-01, 3.02395467e-02, 2.25066096e-02, 3.16901617e-02,
          1.01006776e-01, 2.72323549e-01, 1.22950070e-01, 1.33173734e-01,
          1.65335789e-01, 1.08259812e-01, 3.36552300e-02, 1.01699412e-01,
          1.11411043e-01, 2.53224641e-01, 2.03076348e-01, 4.23946865e-02,
          2.80499339e-01, 1.55727893e-01, 7.10590780e-02, 1.21028282e-01,
          1.10840341e-02, 1.51978523e-01, 9.54687446e-02, 0.,
          1.43750980e-01, 0., 0., 0., 0., 0., 0., 0., 2.03623980e-01, 0.,
          0., 0., 8.27970654e-02, 0., 0., 2.82905679e-02, 3.60869989e-02,
          0., 3.37400399e-02, 0., 0., 0., 0., 5.12574427e-02,
          7.61498138e-02, 7.86764175e-02, 0., 7.94606805e-02 ]
      - [ 2.52532125e-01, 1.23550765e-01, 1.70852542e-01, 1.44128501e-01,
          1.17495842e-01, 1.33794203e-01, 1.48915008e-01, 3.28299254e-01,
          3.40546459e-01, 7.63505548e-02, 6.98081851e-02, 8.72905999e-02,
          3.47992666e-02, 6.80931732e-02, 1.59154683e-01, 2.99499899e-01,
          1.84118450e-01, 1.86391160e-01, 5.46893217e-02, 6.60898015e-02,
          1.28210828e-01, 1.10584073e-01, 1.31739065e-01, 2.68343836e-01,
          3.33422840e-01, 9.16444883e-02, 3.82523648e-02, 3.91381308e-02,
          1.27736196e-01, 9.55077559e-02, 1.30209416e-01, 1.84664443e-01,
          5.91389053e-02, 4.54118922e-02, 0., 7.34605715e-02,
          8.66494700e-02, 0., 3.53099070e-02, 0., 0., 0., 0.,
          4.63236198e-02, 5.39107919e-02, 0., 3.46239507e-02,
          8.81250873e-02, 6.95650354e-02, 7.74478167e-02, 0., 0.,
          5.82303107e-02, 0., 0., 0., 0., 0., 0., 0., 6.02740981e-02,
          5.70827276e-02, 6.20382838e-02, 4.87772040e-02 ]
      - [ 3.55883062e-01, 1.57075629e-01, 0., 4.56852540e-02,
          4.40720618e-02, 4.18901034e-02, 2.34080274e-02, 2.76374072e-01,
          4.70379740e-01, 1.29595265e-01, 2.86622774e-02, 0.,
          9.85974148e-02, 0., 7.74760768e-02, 2.64227748e-01,
          2.65565395e-01, 1.36885375e-01, 9.77924317e-02, 7.81728774e-02,
          1.09379083e-01, 4.69628982e-02, 0., 3.03287268e-01,
          3.10133457e-01, 0., 1.19472660e-01, 0., 8.86970460e-02,
          1.10438637e-01, 3.31210382e-02, 1.97002426e-01, 0., 0., 0., 0.,
          1.02346137e-01, 4.88233268e-02, 4.47485372e-02, 4.40758578e-02,
          3.02620027e-02, 0., 8.58833492e-02, 6.71349987e-02,
          1.08463652e-01, 0., 0., 0., 0., 3.67860012e-02, 5.29665612e-02,
          0., 9.93949473e-02, 0., 4.44312505e-02, 0., 2.90747918e-02,
          2.60292366e-02, 0., 0., 3.35726775e-02, 0., 0., 0. ]
      - [ 1.87361643e-01, 9.11730677e-02, 6.23232648e-02, 0., 0.,
          5.28796911e-02, 1.27005205e-01, 4.10049975e-01, 2.14081496e-01,
          8.96606147e-02, 4.68355455e-02, 9.13939774e-02, 2.00136065e-01,
          2.17293605e-01, 1.84143767e-01, 3.20090771e-01, 1.86807156e-01,
          7.18056560e-02, 0., 6.41052425e-02, 1.14755541e-01,
          8.05046856e-02, 9.38507393e-02, 4.13679183e-01, 1.55401021e-01,
          0., 0., 0., 6.63447753e-02, 0., 3.19899656e-02, 3.24672788e-01,
          4.84241769e-02, 0., 0., 0., 1.22471370e-01, 0., 0., 0.,
          5.66745028e-02, 0., 0., 0., 2.13089749e-01, 1.31814525e-01, 0.,
          0., 1.54248467e-02, 3.56671847e-02, 4.16433439e-02,
          6.65213391e-02, 8.08885768e-02, 0., 0., 0., 0., 0., 0., 0.,
          2.43888237e-02, 0., 2.63375621e-02, 0. ]
      - [ 3.78568411e-01, 1.88218847e-01, 0., 2.53082179e-02,
          4.89689894e-02, 0., 0., 0., 4.34850574e-01, 2.22850218e-01, 0.,
          0., 7.12144747e-02, 2.26582006e-01, 1.63133249e-01,
          9.43707824e-02, 2.34969079e-01, 1.54238984e-01, 1.11526996e-01,
          1.55746013e-01, 1.44400999e-01, 9.15115327e-02, 1.04407378e-01,
          1.30738780e-01, 3.81184161e-01, 1.82887435e-01, 0., 0.,
          3.99733670e-02, 2.30019055e-02, 0., 1.37753099e-01,
          7.10795745e-02, 0., 0., 0., 4.78810631e-02, 0., 0., 0., 0.,
          1.82884887e-01, 5.67467064e-02, 0., 1.62265584e-01,
          5.90843111e-02, 0., 9.10994709e-02, 7.31873065e-02,
          6.93953186e-02, 3.36768255e-02, 4.78920527e-02, 8.37659463e-02,
          0., 0., 0., 0., 0., 0., 0., 7.77756721e-02, 5.16978242e-02, 0.,
          5.74213006e-02 ]
      - [ 1.36740342e-01, 9.40783545e-02, 1.45309433e-01, 3.11591327e-01,
          1.47474438e-01, 0., 4.46200892e-02, 3.05652231e-01,
          2.30319679e-01, 1.13164596e-01, 1.31264657e-01, 2.46381313e-01,
          3.22591484e-01, 1.66540310e-01, 1.34967014e-01, 2.17608079e-01,
          2.71372020e-01, 1.43017501e-01, 1.23532139e-01, 1.86063737e-01,
          9.54778194e-02, 1.21030763e-01, 8.90446603e-02, 1.44495219e-01,
          2.95606583e-01, 3.56298648e-02, 3.16237248e-02, 2.93691941e-02,
          7.28936940e-02, 6.09514564e-02, 2.66838335e-02, 1.52176380e-01,
          0., 0., 1.19335458e-01, 0., 1.00962922e-01, 0., 5.34521304e-02,
          0., 1.13305673e-02, 0., 0., 0., 1.17067106e-01, 0., 0.,
          1.12601548e-01, 3.36118937e-02, 0., 0., 2.66490672e-02,
          8.82252678e-02, 0., 3.54240313e-02, 0., 1.56072816e-02, 0., 0.,
          0., 6.98463097e-02, 6.09522983e-02, 4.21826132e-02,
          2.57849526e-02 ]
      - [ 1.98155344e-01, 1.41828939e-01, 1.20002709e-01, 9.71193984e-02,
          2.17238411e-01, 7.79209808e-02, 1.96009696e-01, 2.64079660e-01,
          5.73831908e-02, 2.03934595e-01, 8.16546008e-02, 1.13888025e-01,
          2.08597094e-01, 1.52726755e-01, 1.31957665e-01, 4.05760445e-02,
          1.71575844e-01, 0., 6.12731986e-02, 7.58332461e-02,
          1.71833709e-01, 1.96361825e-01, 2.39389926e-01, 1.45220309e-01,
          2.80323595e-01, 1.19012147e-01, 1.22192964e-01, 1.77586257e-01,
          2.28975058e-01, 1.53305009e-01, 2.21164063e-01, 1.37027785e-01,
          1.23131357e-01, 0., 0., 0., 7.21555427e-02, 0., 0., 0., 0., 0.,
          0., 0., 1.24977067e-01, 0., 1.54377177e-01, 1.55120254e-01,
          9.68068242e-02, 1.25118196e-01, 0., 0., 1.33681759e-01, 0., 0.,
          0., 0., 0., 0., 0., 7.21555427e-02, 0., 6.85667023e-02, 0. ]
      - [ 2.78831065e-01, 2.35268444e-01, 1.32261217e-01, 1.28092527e-01,
          1.30341530e-01, 8.08687732e-02, 9.61504728e-02, 2.68724822e-02,
          2.44988695e-01, 1.71226889e-01, 1.61462516e-01, 1.12220675e-01,
          2.07715183e-01, 1.50723457e-01, 1.06460392e-01, 1.47067830e-01,
          1.96860000e-01, 2.63518155e-01, 1.31249174e-01, 1.48657680e-01,
          1.48006693e-01, 1.55035108e-01, 1.70048460e-01, 1.45554155e-01,
          2.18935430e-01, 6.00886978e-02, 1.91995740e-01, 1.99191451e-01,
          1.41917929e-01, 1.33257672e-01, 1.17985591e-01, 8.95646363e-02,
          8.73029828e-02, 0., 0., 4.95932177e-02, 1.13084167e-01, 0.,
          4.17027585e-02, 0., 7.40309656e-02, 0., 9.74503011e-02,
          7.97578096e-02, 1.00238398e-01, 5.69699220e-02, 0.,
          7.40951449e-02, 2.21020326e-01, 5.97248748e-02, 0., 0.,
          9.55735669e-02, 0., 0., 0., 0., 0., 0., 0., 4.27417979e-02,
          6.23601675e-02, 9.58708376e-02, 0. ]
      - [ 1.82139710e-01, 9.73361507e-02, 5.35095260e-02, 1.11363851e-01,
          2.49963924e-01, 1.28749967e-01, 1.86308846e-01, 2.08496630e-01,
          2.59622633e-01, 2.64163017e-01, 1.99423879e-01, 1.31187633e-01,
          1.58762380e-01, 1.96296141e-01, 1.30949304e-01, 9.52592492e-02,
          2.00663462e-01, 1.64642498e-01, 1.39986902e-01, 1.03072032e-01,
          8.29135254e-02, 1.32831693e-01, 2.08325759e-01, 7.27236867e-02,
          1.36797398e-01, 2.00572997e-01, 1.16265632e-01, 1.16265364e-01,
          2.63339609e-01, 1.53911576e-01, 1.35980949e-01, 1.00226790e-01,
          0., 0., 1.13632843e-01, 3.94059122e-02, 1.32957429e-01, 0.,
          5.27046435e-02, 0., 6.26767352e-02, 0., 0., 6.82530403e-02,
          9.91006196e-02, 7.00747222e-02, 0., 6.66829571e-02,
          6.26767352e-02, 1.32302999e-01, 0., 1.17035642e-01,
          1.56691834e-01, 0., 0., 0., 0., 0., 0., 0., 0., 0., 0., 0. ]
      - [ 1.80809498e-01, 7.53105730e-02, 1.37143448e-01, 2.04443499e-01,
          2.02076435e-01, 2.27603972e-01, 6.14526644e-02, 1.60412967e-01,
          2.01972678e-01, 1.92175239e-01, 1.48114190e-01, 2.29185253e-01,
          2.08787605e-01, 1.92574486e-01, 1.62912115e-01, 8.90961140e-02,
          8.46498162e-02, 6.61969334e-02, 1.54902011e-01, 1.10905275e-01,
          1.63587585e-01, 1.51208311e-01, 8.89066085e-02, 1.89814284e-01,
          1.22288018e-01, 1.19581409e-01, 2.15109169e-01, 1.71931744e-01,
          2.00388864e-01, 1.72330111e-01, 1.33915588e-01, 6.76964596e-02,
          7.99282938e-02, 0., 1.64095491e-01, 0., 1.55706078e-01, 0., 0.,
          0., 0., 0., 0., 0., 1.36911869e-01, 1.33268476e-01,
          8.26369077e-02, 7.34404400e-02, 9.52470601e-02, 8.20728987e-02,
          5.31341583e-02, 9.01509672e-02, 1.09571919e-01, 0., 0., 0., 0.,
          0., 0., 0., 1.21160306e-01, 8.34229290e-02, 7.74023384e-02, 0. ]
      - [ 1.83320209e-01, 1.07334226e-01, 1.78154692e-01, 1.67681500e-01,
          1.89724192e-01, 1.95296228e-01, 7.58913755e-02, 2.51269251e-01,
          2.55197734e-01, 2.11635441e-01, 1.02633171e-01, 2.51260221e-01,
          1.44607216e-01, 2.17597663e-01, 2.09572583e-01, 1.23869844e-01,
          2.13564128e-01, 1.15029722e-01, 1.41173765e-01, 1.76080152e-01,
          2.16675743e-01, 1.84956193e-01, 1.59268945e-01, 2.10378543e-01,
          1.78910464e-01, 1.52082309e-01, 7.64718875e-02, 1.55219808e-01,
          1.42695740e-01, 5.92575036e-02, 1.20959766e-01, 8.32025409e-02,
          7.40001872e-02, 0., 0., 0., 2.70383377e-02, 0., 3.34895477e-02,
          0., 0., 0., 0., 3.06914374e-02, 6.65741861e-02, 0.,
          2.79544834e-02, 8.07762593e-02, 0., 0., 0., 0., 4.38071154e-02,
          0., 4.06898595e-02, 1.01481095e-01, 1.03295445e-01,
          4.54339758e-02, 0., 0., 5.65547422e-02, 0., 0., 0. ]
      - [ 8.41598138e-02, 0., 1.79147810e-01, 1.58985466e-01,
          2.13269129e-01, 1.31073117e-01, 1.06384009e-01, 1.74203902e-01,
          2.15298817e-01, 1.69696242e-01, 1.59772456e-01, 1.89119384e-01,
          2.75368840e-01, 2.18509033e-01, 1.29612595e-01, 2.29202546e-02,
          1.88061625e-01, 1.35583386e-01, 1.19753614e-01, 1.67811364e-01,
          1.67977199e-01, 1.22911274e-01, 1.74707592e-01, 3.62940967e-01,
          1.85302317e-01, 5.29618487e-02, 0., 6.41059726e-02,
          1.13896001e-02, 6.01794980e-02, 1.65144466e-02, 2.40170375e-01,
          2.69527119e-02, 6.69014230e-02, 0., 9.86122712e-02,
          1.05622806e-01, 0., 0., 0., 7.59943128e-02, 0., 1.10997178e-01,
          5.33073507e-02, 1.64263144e-01, 1.07790790e-01, 8.01271349e-02,
          0., 0., 0., 0., 0., 8.05398971e-02, 0., 1.09144740e-01,
          1.27300709e-01, 1.40311196e-01, 0., 1.28890062e-02, 0.,
          5.09358384e-02, 0., 0., 0. ]
      - [ 2.43865564e-01, 1.16664223e-01, 7.59386048e-02, 1.10388547e-01,
          1.00946456e-01, 0., 1.19072326e-01, 1.26006186e-01,
          2.30710894e-01, 2.17469290e-01, 1.19261146e-01, 2.28928924e-01,
          2.90513039e-01, 1.89935535e-01, 1.77971944e-01, 1.91555887e-01,
          2.29137629e-01, 1.34704605e-01, 1.31384119e-01, 1.87859267e-01,
          1.35291547e-01, 1.69578701e-01, 1.60402551e-01, 2.05768555e-01,
          2.34364092e-01, 8.98714438e-02, 1.20849974e-01, 7.74485543e-02,
          1.06000312e-01, 1.01559773e-01, 7.45587870e-02, 1.09213434e-01,
          7.93143883e-02, 7.35542551e-02, 6.18515089e-02, 0.,
          5.38835153e-02, 0., 0., 0., 0., 8.06863308e-02, 7.05840811e-02,
          0., 1.50809690e-01, 5.90719283e-02, 6.50572404e-02,
          1.40562356e-01, 1.57131657e-01, 0., 0., 0., 1.12167485e-01, 0.,
          0., 1.18267678e-01, 0., 7.35542551e-02, 8.48161131e-02, 0.,
          8.79914165e-02, 0., 0., 0. ]
      - [ 1.78013131e-01, 1.88339606e-01, 0., 1.42382085e-01,
          2.46448010e-01, 1.11064613e-01, 1.11005269e-01, 4.56910767e-02,
          3.31051260e-01, 2.60052264e-01, 1.16695687e-01, 1.73781142e-01,
          3.20297837e-01, 9.29059014e-02, 4.32119519e-02, 0.,
          1.50160179e-01, 1.89308718e-01, 2.20034719e-01, 1.65593415e-01,
          1.96940392e-01, 1.19830184e-01, 1.67088762e-01, 1.96789250e-01,
          1.88811436e-01, 1.40562713e-01, 6.20441921e-02, 0.,
          8.12515020e-02, 0., 1.26321808e-01, 1.00559294e-01, 0., 0.,
          1.02168359e-01, 1.02168359e-01, 1.45347103e-01, 0., 0., 0.,
          5.13879620e-02, 0., 0., 1.12074949e-01, 1.47963151e-01,
          7.68429264e-02, 5.29236197e-02, 0., 5.13879620e-02, 0., 0., 0.,
          1.25874281e-01, 1.16781414e-01, 0., 0., 3.63367759e-02, 0., 0.,
          0., 1.02775924e-01, 0., 1.14918701e-01, 0. ]
      - [ 1.53794527e-01, 1.55295402e-01, 2.02526763e-01, 1.07247740e-01,
          1.72742888e-01, 1.67306945e-01, 2.58675218e-01, 2.08307117e-01,
          2.26404354e-01, 2.42861941e-01, 0., 2.42968693e-01,
          2.07188755e-01, 1.28823921e-01, 6.64839596e-02, 1.43099844e-01,
          2.04629451e-01, 1.94347233e-01, 1.95252419e-01, 9.44126919e-02,
          1.28027856e-01, 1.55237257e-01, 1.56710714e-01, 1.75608531e-01,
          2.22685546e-01, 1.80979714e-01, 0., 0., 1.90763474e-01,
          1.30231559e-01, 1.67925164e-01, 1.06232867e-01, 5.19793853e-02,
          1.24412760e-01, 7.54330680e-02, 0., 1.22147664e-01, 0., 0., 0.,
          5.19932508e-02, 4.52924110e-02, 0., 0., 5.38620576e-02, 0., 0.,
          0., 2.03579441e-02, 8.25537071e-02, 6.41346872e-02, 0.,
          8.39379504e-02, 0., 0., 0., 0., 0., 0., 0., 9.26250145e-02,
          5.00388294e-02, 4.30518091e-02, 4.86076660e-02 ]
      - [ 3.77845526e-01, 0., 4.45187688e-02, 0., 6.67061061e-02,
          4.93128672e-02, 5.95568754e-02, 1.97858900e-01, 3.98143202e-01,
          1.80865854e-01, 1.29753917e-01, 1.33879900e-01, 1.28505021e-01,
          1.46630466e-01, 1.47361904e-01, 8.76479670e-02, 5.56811206e-02,
          0., 0., 2.79282182e-01, 1.96499646e-01, 1.93628401e-01,
          1.90149114e-01, 1.47373214e-01, 2.85590827e-01, 1.41507745e-01,
          6.77592978e-02, 1.21307783e-01, 1.33524016e-01, 4.85792123e-02,
          1.40307710e-01, 1.17561691e-01, 1.92530490e-02, 0., 0., 0.,
          6.71389028e-02, 0., 4.25217710e-02, 0., 0., 3.79921459e-02, 0.,
          3.17793861e-02, 1.11243002e-01, 6.76129907e-02, 9.19142663e-02,
          1.55854523e-01, 6.02043830e-02, 4.71417271e-02, 0., 0.,
          1.53390631e-01, 9.19824764e-02, 0., 0., 2.56089494e-02, 0., 0.,
          0., 9.97563526e-02, 0., 1.23837203e-01, 0. ]
      - [ 1.69965565e-01, 1.25512123e-01, 0., 5.03850803e-02,
          2.27508750e-02, 0., 0., 0., 9.51870531e-02, 2.10044101e-01,
          2.72610962e-01, 2.43955657e-01, 2.35037804e-01, 1.22494876e-01,
          1.35014489e-01, 1.06782049e-01, 4.17566687e-01, 1.82626978e-01,
          1.21402822e-01, 1.98242992e-01, 1.40678838e-01, 1.06078401e-01,
          1.65725142e-01, 2.70935833e-01, 2.16233075e-01, 9.61812809e-02,
          7.68323168e-02, 0., 8.30744505e-02, 0., 6.45331144e-02,
          2.35714197e-01, 1.23118460e-01, 7.65328184e-02, 0.,
          6.17997199e-02, 7.88113400e-02, 0., 0., 0., 0., 0., 0., 0.,
          1.31352246e-01, 0., 1.58144817e-01, 1.51120484e-01,
          1.56204224e-01, 0., 0., 0., 8.51259828e-02, 3.50155011e-02,
          2.49415431e-02, 0., 0., 0., 0., 0., 3.21745947e-02, 0., 0.,
          1.11942388e-01 ]
      - [ 2.79778302e-01, 1.41489595e-01, 1.23592630e-01, 5.16056716e-02,
          1.18346922e-01, 5.38313612e-02, 8.48484859e-02, 1.27376437e-01,
          2.35013664e-01, 2.21777275e-01, 2.29003072e-01, 1.48037955e-01,
          2.08299592e-01, 1.38994157e-01, 1.80262551e-01, 1.68302879e-01,
          1.21330425e-01, 1.06337622e-01, 1.53082564e-01, 1.21383652e-01,
          2.52837569e-01, 2.08718836e-01, 2.15345949e-01, 2.06610143e-01,
          2.47023225e-01, 2.16504231e-01, 1.19426847e-01, 1.22185372e-01,
          6.49166405e-02, 9.64701474e-02, 0., 1.20385036e-01,
          9.69289765e-02, 5.88916726e-02, 0., 0., 7.34154433e-02, 0., 0.,
          0., 0., 4.88056317e-02, 0., 6.19745329e-02, 1.39417931e-01, 0.,
          8.33344683e-02, 9.31405127e-02, 4.85597514e-02, 0.,
          5.75997196e-02, 7.58705363e-02, 1.00528233e-01, 0.,
          3.80645208e-02, 0., 6.08728677e-02, 7.71684796e-02, 0., 0.,
          1.00528233e-01, 0., 0., 1.14018597e-01 ]
      - [ 1.53333902e-01, 1.16897315e-01, 8.41860846e-02, 0.,
          2.57917821e-01, 2.32990757e-01, 2.00841025e-01, 7.34325452e-03,
          2.15577051e-01, 2.47054398e-01, 1.38019264e-01, 2.23399103e-01,
          3.37012947e-01, 1.03297658e-01, 2.94870902e-02, 5.86286969e-02,
          3.13030571e-01, 2.61086017e-01, 1.08906552e-01, 0.,
          5.37741706e-02, 9.65875015e-02, 1.01268470e-01, 1.07874617e-01,
          2.76936561e-01, 2.58628190e-01, 7.44169652e-02, 0.,
          4.19991538e-02, 0., 0., 2.77385022e-02, 1.50310442e-01,
          1.45484939e-01, 0., 0., 1.31753594e-01, 0., 0., 0.,
          1.43047143e-02, 0., 0., 0., 1.99885592e-01, 0., 8.79077241e-02,
          0., 2.33822800e-02, 0., 8.63807574e-02, 0., 6.23528063e-02, 0.,
          1.92065798e-02, 0., 2.26177406e-02, 0., 0., 2.97886450e-02,
          5.10861166e-02, 0., 2.14053765e-02, 0. ]
      - [ 3.07092339e-01, 8.95849615e-02, 1.28962040e-01, 4.87597212e-02,
          1.05784856e-01, 0., 4.10018750e-02, 1.33150265e-01,
          4.13069665e-01, 4.21366394e-02, 4.56641503e-02, 1.16592206e-01,
          2.11728826e-01, 1.06491193e-01, 1.15511157e-01, 1.05494797e-01,
          2.80847520e-01, 2.03021660e-01, 2.03010991e-01, 1.60431191e-01,
          6.47797287e-02, 9.52562243e-02, 0., 1.99216217e-01,
          3.45460355e-01, 1.18677795e-01, 1.39376909e-01, 7.96362534e-02,
          1.73024595e-01, 8.21701959e-02, 1.57477975e-01, 1.53383657e-01,
          6.37340471e-02, 0., 4.47827578e-02, 4.59469147e-02,
          1.29559457e-01, 0., 0., 0., 2.15932429e-02, 0., 0.,
          6.66008890e-02, 1.52015075e-01, 0., 3.22894305e-02, 0.,
          5.17491288e-02, 8.56649056e-02, 0., 0., 8.07945207e-02, 0.,
          2.56788395e-02, 0., 0., 5.21419905e-02, 7.10173324e-02,
          6.69658408e-02, 1.07966222e-01, 0., 0., 0. ]
      - [ 1.77363887e-01, 3.80283073e-02, 5.48387952e-02, 7.20682740e-02,
          1.07092373e-01, 5.93674406e-02, 1.02892019e-01, 5.08846007e-02,
          1.86126083e-01, 1.39208660e-01, 1.62199646e-01, 2.45209128e-01,
          2.35357150e-01, 1.15392350e-01, 6.76722750e-02, 4.92143296e-02,
          1.34311065e-01, 7.44764805e-02, 1.64396599e-01, 3.28633159e-01,
          3.33192408e-01, 2.36061946e-01, 1.51661664e-01, 2.19714075e-01,
          2.72756249e-01, 2.18279511e-01, 1.13350637e-01, 0.,
          8.52602646e-02, 1.05322272e-01, 1.14007123e-01, 1.20796084e-01,
          0., 0., 0., 3.95710170e-02, 5.15601337e-02, 4.39516120e-02,
          2.61659101e-02, 0., 8.55577663e-02, 0., 8.95756260e-02, 0.,
          5.84636964e-02, 0., 0., 3.29018906e-02, 2.11084977e-01,
          1.21891476e-01, 7.86741823e-02, 0., 1.54680401e-01, 0., 0.,
          2.79809348e-02, 0., 3.48695219e-02, 0., 0., 5.33698089e-02, 0.,
          0., 1.26581430e-01 ]
      - [ 2.31435284e-01, 8.20178539e-02, 1.40987933e-01, 1.20541088e-01,
          1.43867001e-01, 1.32586122e-01, 2.03388810e-01, 1.79071084e-01,
          2.94735909e-01, 9.80161056e-02, 1.45330891e-01, 1.19956292e-01,
          2.58953154e-01, 2.01267555e-01, 5.08252308e-02, 2.11761445e-01,
          1.85826436e-01, 7.57194683e-02, 2.58725405e-01, 1.38383359e-01,
          1.18496686e-01, 8.17907825e-02, 1.10702313e-01, 1.30387738e-01,
          2.86387682e-01, 1.26868606e-01, 1.72469109e-01, 1.25591457e-01,
          1.28874958e-01, 1.01188757e-01, 1.36632323e-01, 1.90689921e-01,
          0., 0., 0., 0., 2.99615078e-02, 0., 0., 9.58547071e-02,
          3.37438472e-02, 0., 0., 0., 1.56322196e-01, 1.50706291e-01, 0.,
          0., 1.68685932e-02, 1.09225467e-01, 1.07346423e-01,
          2.69251931e-02, 1.37188107e-01, 0., 0., 4.28457521e-02,
          2.36048326e-02, 0., 0., 0., 2.66826265e-02, 0., 0., 0. ]
      - [ 2.94878274e-01, 1.54385582e-01, 7.56470934e-02, 6.50121570e-02,
          8.10624808e-02, 8.24049935e-02, 2.22286969e-01, 2.46899769e-01,
          2.49497950e-01, 1.51290625e-01, 1.58464611e-01, 2.06902638e-01,
          1.71790734e-01, 8.43841657e-02, 1.67797923e-01, 1.76813692e-01,
          1.78276822e-01, 1.72583014e-01, 0., 1.12079285e-01,
          1.41218513e-01, 5.10851331e-02, 1.79861858e-01, 1.64286181e-01,
          3.11787456e-01, 2.09853768e-01, 3.39974351e-02, 3.34845297e-02,
          4.86637205e-02, 5.06769717e-02, 1.82478935e-01, 2.43256569e-01,
          1.61895096e-01, 4.34667058e-02, 3.90941985e-02, 3.59921306e-02,
          8.74698311e-02, 0., 0., 0., 0., 0., 0., 0., 7.59012476e-02,
          7.85889700e-02, 9.31891799e-02, 0., 1.14955105e-01, 0., 0., 0.,
          5.72624430e-02, 0., 0., 0., 0., 0., 4.01605517e-02,
          3.10667232e-02, 9.73274410e-02, 2.17676032e-02, 1.32057145e-01,
          6.17232919e-02 ]
      - [ 1.30514473e-01, 1.27864927e-01, 1.10833809e-01, 5.41018024e-02,
          1.64311871e-01, 8.24699029e-02, 9.22873318e-02, 1.36369079e-01,
          3.58982533e-01, 1.39417961e-01, 1.29694149e-01, 1.69359609e-01,
          2.80085355e-01, 1.40497357e-01, 1.07849948e-01, 1.40282512e-01,
          1.89420968e-01, 2.07574800e-01, 1.60913050e-01, 1.80723876e-01,
          2.33833104e-01, 1.54247925e-01, 1.53496489e-01, 5.65167181e-02,
          2.71938413e-01, 1.21466592e-01, 1.13697380e-01, 9.77166742e-02,
          1.47928581e-01, 1.22059703e-01, 7.57545680e-02, 1.40517920e-01,
          1.65628463e-01, 9.54844505e-02, 0., 0., 1.04235977e-01, 0., 0.,
          0., 0., 0., 0., 0., 1.01274431e-01, 0., 1.38400018e-01,
          1.25297174e-01, 9.10887867e-02, 1.20700464e-01, 5.31263351e-02,
          0., 7.58165866e-02, 0., 0., 0., 2.88798530e-02, 2.18734760e-02,
          0., 0., 8.09917152e-02, 0., 0., 1.38410881e-01 ]
      - [ 1.55407533e-01, 5.13696149e-02, 0., 1.08898945e-01,
          1.70905709e-01, 8.42624977e-02, 6.61628768e-02, 1.57984778e-01,
          2.36032099e-01, 2.12880462e-01, 1.78662017e-01, 2.39567429e-01,
          1.40499294e-01, 7.61694014e-02, 1.18729413e-01, 2.60001421e-01,
          2.86900643e-02, 0., 4.85823825e-02, 5.50504439e-02,
          2.27371991e-01, 1.39050812e-01, 3.65472555e-01, 3.95040184e-01,
          2.38608152e-01, 0., 0., 0., 3.31284329e-02, 0., 8.01606849e-02,
          1.14268236e-01, 1.71591863e-01, 0., 0., 0., 5.23806512e-02, 0.,
          0., 0., 0., 0., 0., 0., 9.79952216e-02, 0., 0., 2.19235495e-01,
          0., 0., 0., 0., 2.86900643e-02, 0., 4.61965688e-02, 0.,
          4.68506776e-02, 0., 0., 0., 1.37592718e-01, 3.23230922e-02,
          1.01869188e-01, 1.68447331e-01 ]
      - [ 3.28668267e-01, 6.80293441e-02, 3.78451832e-02, 7.86409527e-02,
          3.66631337e-02, 0., 0., 3.10648710e-01, 2.18157098e-01,
          1.54209271e-01, 7.92232305e-02, 1.66366458e-01, 4.47723538e-01,
          1.80628419e-01, 8.65251869e-02, 2.07874268e-01, 3.83605033e-01,
          2.27563065e-02, 0., 0., 4.06740978e-02, 0., 0., 9.91232246e-02,
          3.82464707e-01, 0., 0., 0., 0., 0., 3.50592174e-02,
          1.17537566e-01, 2.03370489e-02, 4.42411602e-02, 3.63888964e-02,
          0., 4.19258997e-02, 0., 0., 0., 0., 0., 0., 0., 2.52189636e-01,
          0., 0., 2.06476264e-02, 3.23145054e-02, 0., 0., 0.,
          1.01685245e-02, 0., 0., 0., 0., 0., 0., 0., 2.49076951e-02, 0.,
          3.25011835e-02, 0. ]
      - [ 2.39139408e-01, 1.86614230e-01, 0., 2.64080949e-02,
          4.93270122e-02, 3.88737842e-02, 6.24220893e-02, 4.13691759e-01,
          1.77583054e-01, 2.69231141e-01, 2.03238472e-01, 0.,
          1.06492117e-01, 1.58044249e-01, 1.95955545e-01, 1.76228166e-01,
          4.07308906e-01, 9.80001986e-02, 9.55026299e-02, 3.58747058e-02,
          3.66693027e-02, 0., 1.26521122e-02, 3.51507574e-01,
          2.43340582e-01, 5.68665005e-02, 0., 0., 7.33862817e-02,
          2.80618872e-02, 3.31379771e-02, 4.59940210e-02, 1.60096169e-01,
          1.32943511e-01, 0., 0., 1.10007912e-01, 0., 0., 0., 0., 0., 0.,
          0., 1.20625094e-01, 0., 8.12421963e-02, 9.03555378e-02,
          1.13163926e-02, 0., 0., 3.15362364e-02, 6.89797103e-02, 0.,
          4.04575206e-02, 3.09091099e-02, 0., 0., 0., 0., 3.26498337e-02,
          1.17346719e-02, 0., 0. ]
      - [ 3.60082179e-01, 3.57894823e-02, 0., 2.92370599e-02,
          4.79266979e-02, 1.57257020e-02, 3.82372066e-02, 1.27077460e-01,
          4.33966249e-01, 1.55236542e-01, 1.36267990e-01, 8.39324370e-02,
          1.85516238e-01, 9.54749733e-02, 3.05823050e-02, 1.96602717e-01,
          2.41013020e-02, 1.39581747e-02, 3.19866277e-02, 2.35192582e-01,
          2.40196526e-01, 1.95234761e-01, 1.99210510e-01, 1.62402749e-01,
          3.01288843e-01, 1.43109724e-01, 1.26457065e-01, 0.,
          1.27719656e-01, 0., 1.48868516e-01, 1.23607256e-01,
          5.38921496e-03, 2.91885976e-02, 0., 2.49921400e-02,
          5.22503778e-02, 0., 0., 2.76108850e-02, 0., 4.36096825e-02, 0.,
          0., 1.20144449e-01, 0., 1.66955322e-01, 1.11456186e-01,
          1.08739376e-01, 6.43382221e-02, 0., 8.28843638e-02,
          1.03242509e-01, 0., 0., 0., 0., 0., 0., 0., 8.26150998e-02, 0.,
          0., 1.57981515e-01 ]
      - [ 2.17654273e-01, 1.50021210e-01, 9.05828625e-02, 1.12835899e-01,
          1.37371510e-01, 1.80335850e-01, 5.63035645e-02, 3.47073041e-02,
          2.64448583e-01, 2.47044072e-01, 2.51436383e-01, 1.76860124e-01,
          1.79286376e-01, 1.90224841e-01, 8.54549408e-02, 1.55711934e-01,
          2.34666497e-01, 1.26353085e-01, 1.69890165e-01, 0.,
          9.79197770e-02, 9.12778601e-02, 2.61302769e-01, 2.07036421e-01,
          2.47714236e-01, 1.32634267e-01, 1.28713712e-01, 1.29368931e-01,
          1.38291076e-01, 8.51311311e-02, 1.41658604e-01, 1.10601515e-01,
          6.64040372e-02, 0., 0., 7.20377490e-02, 1.15320385e-01, 0., 0.,
          0., 1.45996111e-02, 0., 0., 0., 1.30932197e-01, 1.19483016e-01,
          1.26975104e-01, 2.28106659e-02, 1.11637965e-01, 8.00479650e-02,
          1.03445999e-01, 0., 9.82475877e-02, 0., 0., 0., 0., 0., 0., 0.,
          6.36382326e-02, 0., 8.57210234e-02, 7.99411014e-02 ]
      - [ 1.05239406e-01, 1.15834996e-01, 1.10872447e-01, 1.31015196e-01,
          8.57792720e-02, 1.20102331e-01, 1.24664508e-01, 3.37345600e-01,
          1.78785384e-01, 1.70064762e-01, 1.38170123e-01, 1.50095448e-01,
          2.15672582e-01, 1.09408200e-01, 1.93250805e-01, 2.84439474e-01,
          1.13481440e-01, 3.96032520e-02, 9.06789899e-02, 2.40458716e-02,
          6.19908012e-02, 1.37626812e-01, 2.12599874e-01, 3.43451500e-01,
          1.92842007e-01, 1.37209162e-01, 1.19630069e-01, 7.77234659e-02,
          8.29938427e-02, 0., 1.39841542e-01, 2.64926165e-01, 0., 0., 0.,
          0., 3.72282192e-02, 0., 4.02236134e-02, 3.12115196e-02,
          3.58489156e-02, 0., 0., 0., 8.32448304e-02, 3.62537652e-02,
          6.19297028e-02, 2.11857691e-01, 1.70325011e-01, 8.62534419e-02,
          0., 0., 9.16037038e-02, 0., 0., 0., 0., 0., 0., 0.,
          6.91938847e-02, 0., 0., 1.47105739e-01 ]
      - [ 3.59851956e-01, 1.42813757e-01, 0., 0., 1.17974728e-01, 0.,
          1.51843086e-01, 2.00776875e-01, 3.90373230e-01, 1.79644957e-01,
          1.75467193e-01, 6.39515221e-02, 1.42655626e-01, 1.52681172e-01,
          1.55158177e-01, 1.59943268e-01, 3.72765541e-01, 3.87219042e-02,
          1.35962442e-01, 1.10223591e-01, 1.00817263e-01, 1.04807794e-01,
          1.17587291e-01, 1.23853900e-01, 2.81165868e-01, 1.06583655e-01,
          3.08970958e-02, 4.10931371e-02, 9.48775932e-02, 2.71398369e-02,
          8.45848620e-02, 1.48980841e-01, 1.59816816e-01, 7.98522905e-02,
          0., 0., 1.00526951e-01, 0., 0., 0., 2.75304392e-02, 0., 0.,
          8.09882730e-02, 1.20714813e-01, 0., 0., 0., 1.98884234e-01, 0.,
          0., 0., 4.00008000e-02, 0., 0., 0., 0., 0., 0., 0.,
          3.67072523e-02, 0., 0., 0. ]
      - [ 7.77175426e-02, 9.54525322e-02, 0., 6.62457198e-02,
          9.05368775e-02, 7.85106495e-02, 5.53086139e-02, 2.35587940e-01,
          2.31468022e-01, 1.63243398e-01, 2.61412293e-01, 2.68036038e-01,
          3.18679392e-01, 1.72352672e-01, 1.62697330e-01, 1.48649439e-01,
          1.08518578e-01, 9.75285396e-02, 1.81231424e-01, 3.51922780e-01,
          2.65734047e-01, 2.32908502e-01, 1.65204540e-01, 2.03267843e-01,
          1.55667171e-01, 5.86644523e-02, 4.24149670e-02, 4.33039069e-02,
          6.98304847e-02, 3.97129171e-02, 4.62497175e-02, 1.40733063e-01,
          5.12491390e-02, 0., 0., 2.34278664e-02, 2.57404521e-02, 0.,
          2.90964264e-02, 0., 0., 0., 0., 3.36508490e-02, 8.22659656e-02,
          7.13541284e-02, 6.98330477e-02, 4.43095528e-02, 0.,
          5.21332547e-02, 0., 8.44703764e-02, 1.88452333e-01, 0.,
          1.56085892e-02, 0., 1.19155142e-02, 0., 0., 0., 3.07657253e-02,
          0., 0., 6.99157268e-02 ]
      - [ 1.08816460e-01, 1.08755410e-01, 1.13826141e-01, 8.21894705e-02,
          1.80940375e-01, 1.54373989e-01, 2.09264472e-01, 2.35732719e-01,
          2.47710228e-01, 0., 1.46253198e-01, 1.74562216e-01,
          2.70455897e-01, 1.93453133e-01, 1.05007350e-01, 2.74637073e-01,
          1.25568956e-01, 1.26434356e-01, 1.15401760e-01, 2.38177031e-01,
          1.06832094e-01, 0., 9.20684263e-02, 2.99423099e-01,
          1.99435174e-01, 1.37173086e-01, 1.55223653e-01, 1.26834363e-01,
          9.18521956e-02, 1.25156716e-01, 9.49828476e-02, 2.41073012e-01,
          3.15897763e-02, 0., 0., 0., 6.83511514e-03, 0., 0., 0.,
          1.08072655e-02, 2.48335619e-02, 0., 2.26519275e-02,
          1.18879922e-01, 2.66830064e-02, 1.31746590e-01, 1.02542616e-01,
          9.90561992e-02, 1.37907147e-01, 0., 3.12623307e-02,
          1.16898455e-01, 0., 0., 0., 2.46443581e-02, 0., 0., 0., 0., 0.,
          0., 0. ]
      - [ 9.58666727e-02, 3.80603045e-01, 3.55286337e-02, 0.,
          1.36805885e-02, 0., 1.66521166e-02, 0., 2.16011494e-01,
          3.69543791e-01, 1.21247187e-01, 1.09120421e-01, 1.51549906e-01,
          0., 1.58392593e-01, 1.45149872e-01, 2.16563985e-01,
          1.99734971e-01, 3.96399647e-02, 1.54336825e-01, 2.87599683e-01,
          1.17201760e-01, 1.20989501e-01, 1.50788754e-01, 1.60474360e-01,
          4.82697301e-02, 6.77503496e-02, 1.16124995e-01, 3.03480744e-01,
          9.36773419e-02, 1.30195275e-01, 1.06450081e-01, 0.,
          1.73344329e-01, 3.52247171e-02, 0., 1.44702911e-01, 0., 0., 0.,
          6.08926192e-02, 2.60378066e-02, 0., 0., 3.34589854e-02, 0., 0.,
          0., 5.99688776e-02, 0., 0., 8.84326845e-02, 1.84756935e-01, 0.,
          0., 0., 0., 0., 0., 5.98476864e-02, 1.92548797e-01, 0., 0., 0. ]
      - [ 2.49596551e-01, 1.07467093e-01, 0., 0., 3.14663202e-02,
          5.09801060e-02, 0., 2.26351067e-01, 4.10867780e-01,
          1.87000066e-01, 7.95885548e-02, 2.35425547e-01, 2.38140061e-01,
          4.34213057e-02, 1.17745981e-01, 3.17189962e-01, 2.69802541e-01,
          7.85428956e-02, 7.49597698e-02, 1.12812862e-01, 5.54021709e-02,
          0., 1.18772641e-01, 2.14708075e-01, 3.48060191e-01,
          1.32297143e-01, 0., 6.58962056e-02, 1.80351600e-01,
          8.30604210e-02, 6.05726168e-02, 1.79827675e-01, 2.43737064e-02,
          0., 0., 2.72808596e-02, 3.58771235e-02, 0., 2.44578999e-02,
          3.06907929e-02, 9.04973671e-02, 0., 0., 3.63455266e-02,
          8.64676461e-02, 0., 0., 0., 4.51598279e-02, 4.28066365e-02, 0.,
          0., 9.53709185e-02, 0., 0., 0., 0., 3.85382138e-02,
          7.26143569e-02, 5.07566705e-02, 1.01269335e-01, 0., 0., 0. ]
      - [ 1.78769946e-01, 5.79460636e-02, 1.12942934e-01, 2.60539562e-01,
          2.45172977e-01, 1.87839180e-01, 7.96976238e-02, 2.28195265e-01,
          2.40550667e-01, 8.22344348e-02, 1.91526011e-01, 2.31176823e-01,
          2.71211445e-01, 2.04645529e-01, 0., 1.99599564e-01,
          2.61322230e-01, 2.99056862e-02, 9.33526978e-02, 1.04039729e-01,
          1.69306397e-01, 0., 1.15692541e-01, 2.57139206e-01,
          1.60573348e-01, 0., 8.84701237e-02, 0., 7.35095367e-02,
          1.16016239e-01, 4.76024896e-02, 2.39431202e-01, 0., 0., 0., 0.,
          8.59911144e-02, 0., 1.22981474e-01, 1.36853233e-01,
          1.60803050e-01, 0., 0., 0., 5.84194586e-02, 0., 0., 0.,
          8.50339979e-02, 7.51771107e-02, 8.51520747e-02, 0.,
          1.07543997e-01, 0., 3.12415622e-02, 0., 0., 5.84701039e-02, 0.,
          0., 2.57605594e-02, 2.39320267e-02, 0., 5.82439937e-02 ]
      - [ 1.85403854e-01, 6.70019388e-02, 7.58128986e-02, 5.48361912e-02,
          1.29920974e-01, 1.36210948e-01, 1.75670162e-01, 1.22947067e-01,
          7.39531219e-02, 5.80990650e-02, 7.96464980e-02, 2.11511046e-01,
          1.79154426e-01, 1.55057952e-01, 2.58097231e-01, 3.53188574e-01,
          1.82398856e-01, 4.65727299e-02, 1.52274981e-01, 1.74197897e-01,
          2.16272250e-01, 2.08533466e-01, 3.13175559e-01, 2.09933192e-01,
          2.70270377e-01, 8.62386599e-02, 0., 4.74560186e-02,
          6.42695799e-02, 0., 8.07209313e-02, 1.57966033e-01,
          7.41707757e-02, 0., 0., 0., 6.03497103e-02, 0., 0., 0., 0., 0.,
          0., 3.68099920e-02, 9.37222391e-02, 6.68328106e-02,
          7.64954165e-02, 1.05496719e-01, 6.70749545e-02, 0., 0., 0., 0.,
          0., 0., 0., 0., 0., 0., 0., 1.38858348e-01, 0., 1.34110212e-01,
          2.03319773e-01 ]
      - [ 1.41604304e-01, 9.36517790e-02, 1.42823130e-01, 7.54503757e-02,
          1.38904497e-01, 1.44787580e-01, 1.76311538e-01, 1.40691742e-01,
          2.32076138e-01, 2.27815777e-01, 1.77532136e-01, 1.45196542e-01,
          2.34389395e-01, 1.19161509e-01, 1.26603827e-01, 0.,
          3.01021218e-01, 1.32672474e-01, 6.33879974e-02, 2.28071406e-01,
          1.49433449e-01, 1.41852334e-01, 1.15143314e-01, 9.33613852e-02,
          1.92231968e-01, 2.07499743e-01, 1.35146022e-01, 1.28909811e-01,
          1.53065294e-01, 1.11120068e-01, 2.27116853e-01, 1.89605877e-01,
          0., 6.98039159e-02, 8.30113143e-02, 0., 1.05001926e-01, 0., 0.,
          0., 5.96427917e-02, 0., 0., 6.98039159e-02, 1.33851722e-01,
          6.33879974e-02, 7.04917237e-02, 5.92762381e-02, 9.82203111e-02,
          8.42599124e-02, 1.70043588e-01, 0., 1.66022629e-01, 0., 0., 0.,
          0., 0., 0., 0., 5.25009632e-02, 0., 7.69919306e-02, 0. ]
      - [ 1.80965185e-01, 0., 0., 0., 0., 0., 0., 0., 4.64797258e-01,
          6.21243566e-02, 1.91563457e-01, 1.82243168e-01, 2.52338648e-01,
          1.91563457e-01, 1.07602537e-01, 0., 4.04650450e-01,
          1.07602537e-01, 1.91563457e-01, 2.04554468e-01, 2.34616354e-01,
          1.91563457e-01, 6.21243566e-02, 9.28975791e-02, 4.55419064e-01,
          0., 0., 0., 0., 0., 0., 0., 0., 0., 0., 0., 0., 0., 0., 0., 0.,
          0., 0., 0., 0., 0., 0., 0., 0., 0., 0., 0., 0., 0., 0., 0., 0.,
          0., 0., 0., 0., 0., 0., 0. ]
      - [ 1.39944389e-01, 4.08788137e-02, 4.64433543e-02, 4.96257469e-02,
          9.92065296e-02, 3.06636561e-02, 1.25074133e-01, 3.30919772e-01,
          2.82230347e-01, 1.38303474e-01, 1.24841966e-01, 1.58334255e-01,
          1.40934005e-01, 9.47156549e-02, 1.32243901e-01, 4.27616954e-01,
          2.58888751e-01, 1.36016116e-01, 0., 1.18564092e-01,
          6.61110133e-02, 1.59389541e-01, 8.82322565e-02, 3.53190482e-01,
          2.13379234e-01, 9.10255089e-02, 8.05104896e-02, 4.58528586e-02,
          6.67143688e-02, 0., 6.29609227e-02, 3.26231182e-01, 0.,
          1.53581938e-02, 0., 0., 4.91997376e-02, 0., 7.64882192e-02,
          3.78923267e-02, 6.05347939e-02, 0., 0., 0., 5.59693016e-02,
          2.83703152e-02, 0., 0., 0., 0., 0., 0., 4.75861877e-02,
          4.37911600e-02, 2.78381892e-02, 0., 5.93023635e-02,
          4.05209325e-02, 3.82104851e-02, 0., 3.64339612e-02, 0., 0., 0. ]
      - [ 2.08680972e-01, 1.35387897e-01, 1.90489426e-01, 1.26401678e-01,
          1.60400137e-01, 1.14894152e-01, 1.79776549e-01, 1.60375729e-01,
          2.63705283e-01, 2.07719728e-01, 2.05292270e-01, 1.72995105e-01,
          2.17989355e-01, 1.56541318e-01, 1.38365164e-01, 9.24883932e-02,
          1.34627834e-01, 2.21540809e-01, 1.57693774e-01, 1.71050966e-01,
          1.29742235e-01, 9.15779993e-02, 8.99069682e-02, 7.81126693e-02,
          1.67043447e-01, 3.06585938e-01, 8.52109343e-02, 1.11716785e-01,
          2.43051916e-01, 1.16338432e-01, 8.66345018e-02, 5.12644537e-02,
          1.39790654e-01, 8.05545747e-02, 0., 0., 7.14909807e-02, 0., 0.,
          0., 3.57454903e-02, 5.14419079e-02, 0., 0., 7.05270097e-02, 0.,
          9.96792465e-02, 1.41723201e-01, 6.56686574e-02, 8.50921422e-02,
          0., 4.70149331e-02, 6.98769763e-02, 0., 3.33932415e-02,
          3.33722495e-02, 0., 3.00582536e-02, 0., 0., 1.38215631e-01,
          9.13527831e-02, 0., 0. ]
      - [ 3.51119280e-01, 4.62664776e-02, 0., 2.57165320e-02,
          6.03374951e-02, 4.04334813e-02, 8.06214735e-02, 2.87863404e-01,
          3.67746681e-01, 1.80603981e-01, 6.08631670e-02, 1.09382734e-01,
          9.34182256e-02, 0., 1.30998507e-01, 3.11333984e-01,
          3.26650739e-01, 1.24006920e-01, 3.69973779e-02, 0.,
          1.04185395e-01, 7.47000650e-02, 7.78368488e-02, 3.94600451e-01,
          1.87618151e-01, 5.60021289e-02, 4.32933383e-02, 2.55369227e-02,
          7.81504512e-02, 5.04775755e-02, 7.44382590e-02, 2.86097497e-01,
          8.92570838e-02, 3.18925530e-02, 3.94654460e-02, 0.,
          5.14225736e-02, 0., 0., 0., 0., 0., 0., 0., 5.32274209e-02, 0.,
          4.11019363e-02, 7.63895437e-02, 4.05238420e-02, 0.,
          4.46489342e-02, 0., 4.55812402e-02, 0., 0., 1.44437430e-02, 0.,
          0., 0., 0., 5.32956310e-02, 3.39593031e-02, 1.27466992e-02,
          2.73567624e-02 ]
      - [ 3.51514310e-01, 2.48621143e-02, 0., 4.81122471e-02,
          6.26076311e-02, 6.34296387e-02, 6.00062683e-02, 1.55429468e-01,
          4.35362369e-01, 1.92017719e-01, 1.32547483e-01, 7.51342699e-02,
          7.63166919e-02, 9.13832113e-02, 1.25759393e-01, 1.36163920e-01,
          2.54044414e-01, 2.01272801e-01, 1.11655325e-01, 8.79478008e-02,
          1.18080549e-01, 1.27364486e-01, 2.15114146e-01, 1.17264107e-01,
          2.85796434e-01, 1.84133008e-01, 1.08770020e-01, 1.28623083e-01,
          1.45010084e-01, 9.60549191e-02, 1.16612583e-01, 1.45956919e-01,
          1.71243325e-01, 4.33900617e-02, 0., 0., 9.47731137e-02, 0., 0.,
          0., 2.76849978e-02, 0., 5.77926300e-02, 1.15703247e-01,
          1.24486327e-01, 0., 0., 0., 1.55268431e-01, 1.04400106e-01, 0.,
          0., 7.64476955e-02, 0., 0., 0., 2.19863951e-02, 0., 0., 0.,
          2.39759106e-02, 0., 0., 0. ]
      - [ 4.12486643e-01, 1.30020425e-01, 1.23396181e-01, 9.11931917e-02,
          2.27641061e-01, 8.96005854e-02, 7.34451115e-02, 2.39129975e-01,
          2.61462063e-01, 0., 1.45964883e-02, 3.02881300e-01,
          3.23493212e-01, 1.19166791e-01, 1.57454401e-01, 1.62476808e-01,
          3.51945341e-01, 4.55563031e-02, 9.20585543e-02, 4.97083031e-02,
          2.18963310e-01, 6.03135303e-02, 6.16461076e-02, 1.97161674e-01,
          2.13211969e-01, 0., 0., 0., 0., 0., 0., 1.40782148e-01, 0., 0.,
          0., 0., 3.38139944e-02, 0., 0., 1.03624530e-01, 1.05235219e-01,
          0., 0., 0., 1.95225198e-02, 0., 0., 0., 0., 0., 0., 0.,
          9.76125989e-03, 0., 0., 9.10773575e-02, 9.20875371e-02, 0., 0.,
          0., 0., 0., 0., 0. ]
      - [ 1.62021473e-01, 1.50772780e-01, 6.93084821e-02, 1.37112454e-01,
          1.89118832e-01, 1.63193196e-01, 1.64057970e-01, 1.24075100e-01,
          1.70743436e-01, 4.54412587e-02, 1.91190571e-01, 1.40092015e-01,
          2.29474396e-01, 2.65855044e-01, 2.00585783e-01, 1.68958738e-01,
          2.96282828e-01, 1.67871609e-01, 1.19750366e-01, 1.41812742e-01,
          1.15157612e-01, 1.30378738e-01, 1.85231194e-01, 1.84230044e-01,
          1.45618245e-01, 1.42789885e-01, 6.86002523e-02, 7.30876029e-02,
          1.62446514e-01, 1.60556301e-01, 1.36902332e-01, 2.41555467e-01,
          1.24264121e-01, 6.51697963e-02, 5.60165755e-02, 0.,
          6.08716384e-02, 0., 0., 0., 0., 0., 0., 0., 1.36589870e-01,
          7.35605881e-02, 1.44643158e-01, 8.53122696e-02, 3.78171578e-02,
          7.27401227e-02, 0., 4.95023802e-02, 1.12594523e-01, 0., 0., 0.,
          0., 0., 0., 4.42099161e-02, 2.54963245e-02, 0., 0.,
          1.00540340e-01 ]
      - [ 3.04422468e-01, 1.85069621e-01, 1.72232419e-01, 1.86885238e-01,
          1.34328052e-01, 0., 3.75435874e-02, 2.90606171e-01,
          2.97278106e-01, 8.34543407e-02, 1.22033484e-01, 2.18675181e-01,
          1.61999077e-01, 9.58547518e-02, 8.20827782e-02, 1.36306852e-01,
          1.59622133e-01, 5.33290692e-02, 1.75945550e-01, 1.77514523e-01,
          1.04869887e-01, 0., 1.04418442e-01, 2.82065034e-01,
          2.05006704e-01, 9.39120054e-02, 1.09844320e-01, 2.08630651e-01,
          1.71062738e-01, 5.90505041e-02, 1.12790830e-01, 2.03714609e-01,
          2.30556633e-02, 0., 0., 8.96716788e-02, 1.16438359e-01, 0.,
          4.15641889e-02, 0., 5.00209220e-02, 0., 6.56603426e-02,
          9.21437517e-02, 1.18993536e-01, 2.39078533e-02, 0., 0., 0., 0.,
          2.83348449e-02, 9.79534015e-02, 1.02461606e-01, 0., 0., 0.,
          4.85182591e-02, 0., 6.75142705e-02, 8.74784887e-02,
          1.03750482e-01, 0., 0., 0. ]
      - [ 1.86225519e-01, 1.26807511e-01, 0., 2.74300873e-01,
          7.89496582e-03, 0., 0., 0., 3.71659189e-01, 1.05283014e-01,
          8.51646289e-02, 3.13502043e-01, 2.07251713e-01, 1.57747880e-01,
          8.98099393e-02, 1.79523557e-01, 1.70093492e-01, 1.39297500e-01,
          1.62047133e-01, 2.77081817e-01, 8.70275944e-02, 0.,
          9.41534266e-02, 1.60701171e-01, 3.26621950e-01, 0., 0.,
          2.29037002e-01, 1.69445321e-01, 6.36617094e-02, 1.28022447e-01,
          1.26600996e-01, 3.69697511e-02, 0., 8.03248286e-02,
          9.33832005e-02, 1.01821601e-01, 0., 0., 0., 0., 0., 0., 0.,
          1.23167306e-01, 0., 7.95205310e-02, 1.20288767e-02,
          6.43269867e-02, 1.73103344e-02, 8.80042166e-02, 0.,
          6.60540238e-02, 0., 0., 0., 0., 0., 0., 0., 1.15995340e-01,
          9.02989134e-02, 7.99897090e-02, 0. ]
      - [ 4.48703825e-01, 2.59951521e-02, 0., 0., 6.15020990e-02, 0., 0.,
          0., 4.71522033e-01, 1.21077634e-01, 0., 0., 1.02850117e-01, 0.,
          1.33760467e-01, 1.72268644e-01, 2.50901252e-01, 9.70175862e-02,
          0., 1.06450878e-01, 2.48845652e-01, 0., 1.43436700e-01,
          1.19095743e-01, 2.97043532e-01, 0., 3.88308242e-02, 0.,
          3.26289505e-01, 1.80574015e-01, 1.24939859e-01, 1.88627422e-01,
          0., 0., 0., 0., 5.11610508e-02, 0., 0., 0., 1.91013515e-02,
          8.38824082e-03, 0., 0., 9.97535605e-03, 0., 0., 0.,
          1.18064344e-01, 0., 0., 0., 1.91013515e-02, 0., 0., 0.,
          2.46943124e-02, 1.70326848e-02, 3.02640982e-02, 0.,
          8.05484578e-02, 0., 7.30173737e-02, 8.71376321e-02 ]
      - [ 1.45815969e-01, 4.36606519e-02, 1.53030202e-01, 1.97392642e-01,
          1.80748165e-01, 5.14912792e-02, 0., 2.11568043e-01,
          2.99109042e-01, 5.66096604e-02, 1.10636704e-01, 2.88494945e-01,
          2.38463670e-01, 1.28575802e-01, 1.77373737e-01, 1.96129486e-01,
          1.22841164e-01, 1.48024589e-01, 1.31619081e-01, 2.07329661e-01,
          2.09250018e-01, 3.00762523e-02, 0., 3.42820406e-01,
          1.49706662e-01, 0., 0., 1.90129951e-01, 2.12492168e-01, 0.,
          1.30165577e-01, 1.78212717e-01, 2.62645055e-02, 8.14902037e-02,
          8.64608213e-02, 0., 9.08605456e-02, 2.19699107e-02, 0.,
          3.71399969e-02, 3.57885212e-02, 0., 0., 1.91306695e-02,
          5.41970097e-02, 6.89108819e-02, 0., 7.49557614e-02,
          7.81005695e-02, 0., 8.82019922e-02, 0., 7.23139867e-02, 0., 0.,
          0., 0., 0., 0., 0., 1.57801002e-01, 0., 7.80427828e-02,
          3.13430540e-02 ]
      - [ 2.43892357e-01, 1.84879437e-01, 1.23989120e-01, 8.41923580e-02,
          1.15010209e-01, 1.00818701e-01, 1.78777695e-01, 1.13664381e-01,
          3.31715643e-01, 1.49310499e-01, 1.91999391e-01, 1.86965212e-01,
          2.98035949e-01, 1.35079697e-01, 1.35658860e-01, 1.51389360e-01,
          2.25342184e-01, 2.51140177e-01, 0., 6.70563281e-02,
          1.61968291e-01, 6.60292134e-02, 1.87606111e-01, 2.37436235e-01,
          2.20245376e-01, 9.50008854e-02, 9.47561041e-02, 6.59410506e-02,
          2.89813634e-02, 0., 8.96158442e-02, 1.11151628e-01,
          1.09739952e-01, 1.26781240e-01, 7.48295560e-02, 0.,
          1.62226617e-01, 0., 0., 8.67496282e-02, 1.04493789e-01, 0., 0.,
          0., 2.36631837e-02, 0., 0., 6.38848543e-02, 1.23180792e-01, 0.,
          0., 0., 5.54950833e-02, 0., 0., 0., 0., 0., 0., 0.,
          1.00394383e-01, 0., 8.07394758e-02, 1.11760199e-01 ]
      - [ 2.27440983e-01, 1.82151332e-01, 1.39735043e-01, 1.33955255e-01,
          2.17094183e-01, 1.91103086e-01, 1.38339221e-01, 2.65350103e-01,
          2.20000952e-01, 1.00107826e-01, 1.64315403e-01, 2.24862784e-01,
          2.93821186e-01, 8.33912119e-02, 3.84919271e-02, 2.25600064e-01,
          2.71224290e-01, 1.15113229e-01, 9.79933590e-02, 5.11889681e-02,
          1.13434799e-01, 7.20244497e-02, 1.40642598e-01, 2.10094735e-01,
          2.84877449e-01, 6.05355278e-02, 0., 3.74188423e-02,
          6.45823926e-02, 3.65946703e-02, 7.44139999e-02, 2.18444556e-01,
          3.26318257e-02, 2.16524228e-02, 1.08106837e-01, 8.82107839e-02,
          1.28471628e-01, 3.14942114e-02, 0., 0., 0., 0., 0., 0.,
          1.48055747e-01, 3.89964432e-02, 7.93673247e-02, 0., 0., 0.,
          3.73233743e-02, 6.25661910e-02, 7.36478716e-02, 0., 0., 0.,
          2.82599889e-02, 0., 0., 0., 1.03034347e-01, 7.99579918e-02, 0.,
          0. ]
      - [ 2.06960157e-01, 2.30469778e-01, 1.06840543e-01, 1.34508446e-01,
          1.74722478e-01, 1.47746265e-01, 1.48933157e-01, 1.89516947e-01,
          1.81616858e-01, 2.81762779e-01, 2.32782185e-01, 6.34076297e-02,
          2.20676795e-01, 1.87725902e-01, 1.52812019e-01, 8.04188997e-02,
          8.43032748e-02, 2.90762693e-01, 1.37576414e-02, 1.69505820e-01,
          6.75462708e-02, 6.18327111e-02, 0., 1.38438359e-01,
          2.93940932e-01, 2.25272760e-01, 0., 2.12835014e-01,
          1.41604021e-01, 1.15607567e-01, 8.87821019e-02, 0.,
          9.32925791e-02, 8.78224894e-02, 6.80657402e-02, 0.,
          7.10452199e-02, 0., 0., 3.67804058e-02, 3.59332897e-02,
          3.15794721e-02, 0., 0., 6.95423335e-02, 5.25627509e-02,
          7.36995712e-02, 1.26142740e-01, 4.89345640e-02, 0.,
          8.63765776e-02, 0., 8.80852640e-02, 1.69282556e-02, 0., 0.,
          2.43702866e-02, 0., 0., 5.86743094e-02, 1.51303858e-01,
          6.60870001e-02, 0., 0. ]
      - [ 2.77842492e-01, 2.35346016e-02, 3.09048705e-02, 0.,
          8.00143629e-02, 6.46200031e-02, 3.59764509e-02, 3.55415791e-01,
          2.83902317e-01, 1.13227792e-01, 1.26523748e-01, 1.57787457e-01,
          1.17536604e-01, 9.04169604e-02, 8.20805952e-02, 2.31316030e-01,
          1.88420936e-01, 9.26783532e-02, 1.60126075e-01, 0.,
          1.45506456e-01, 1.89614981e-01, 6.70054704e-02, 2.45493397e-01,
          3.09940696e-01, 9.08857062e-02, 1.12878934e-01, 1.51838630e-01,
          1.46713406e-01, 1.14952609e-01, 3.38058546e-02, 2.34332651e-01,
          1.69607595e-01, 0., 0., 0., 4.12310064e-02, 0., 0., 0.,
          3.62305827e-02, 0., 0., 0., 9.23924148e-02, 0., 7.72731900e-02,
          1.91540927e-01, 1.63464487e-01, 1.34217873e-01, 0., 0.,
          6.92728087e-02, 0., 0., 0., 0., 0., 0., 0., 4.56873812e-02, 0.,
          0., 9.70393866e-02 ]
      - [ 2.13859662e-01, 2.30221495e-01, 1.69464439e-01, 1.58348739e-01,
          1.10583022e-01, 7.68983588e-02, 1.44501194e-01, 1.82751462e-01,
          1.98597580e-01, 2.61493027e-01, 1.50427982e-01, 2.00178504e-01,
          1.23112418e-01, 1.07605502e-01, 6.01074062e-02, 1.53657630e-01,
          2.77810037e-01, 1.20590232e-01, 1.23834737e-01, 8.54400247e-02,
          1.11658439e-01, 0., 6.58771619e-02, 2.17929855e-01,
          3.64023387e-01, 1.01444401e-01, 5.09889834e-02, 0.,
          7.66626000e-02, 0., 1.10113949e-01, 2.55576462e-01,
          1.28368109e-01, 1.09312505e-01, 0., 0., 1.10458344e-01, 0., 0.,
          0., 0., 0., 0., 0., 1.15313388e-01, 7.55593851e-02, 0.,
          7.06485510e-02, 1.98320150e-01, 0., 0., 0., 7.98353404e-02, 0.,
          0., 0., 0., 0., 0., 0., 9.76225957e-02, 0., 0., 1.52732521e-01 ]
      - [ 2.61328131e-01, 8.97815377e-02, 4.46645208e-02, 2.45386124e-01,
          1.62795022e-01, 1.73300043e-01, 1.65394396e-01, 9.79391560e-02,
          1.94685087e-01, 1.92289367e-01, 9.41382870e-02, 3.24073672e-01,
          1.54303074e-01, 1.86058834e-01, 1.49065197e-01, 1.17855005e-01,
          9.42317322e-02, 7.29541853e-02, 1.02192268e-01, 1.74004987e-01,
          1.56756938e-01, 2.46358871e-01, 1.37093008e-01, 1.33864313e-01,
          2.45732814e-01, 1.40541181e-01, 1.38339818e-01, 1.56600222e-01,
          1.82764977e-01, 1.97226852e-01, 8.29398856e-02, 0.,
          3.73592377e-02, 4.46099602e-02, 3.69671248e-02, 0.,
          4.33242731e-02, 0., 0., 0., 0., 0., 0., 0., 1.11323692e-01,
          3.85781899e-02, 1.55897856e-01, 0., 7.52175525e-02,
          1.50601327e-01, 0., 0., 1.30342588e-01, 0., 0., 0.,
          3.94023880e-02, 3.52640450e-02, 0., 0., 8.12006071e-02, 0., 0.,
          7.23957866e-02 ]
      - [ 2.13591769e-01, 1.46062300e-02, 5.25551438e-02, 3.14940736e-02,
          5.14497422e-02, 1.15884237e-01, 1.76834404e-01, 2.71005332e-01,
          3.00306886e-01, 1.49156407e-01, 2.74478942e-01, 2.83620596e-01,
          2.89809585e-01, 2.59456515e-01, 2.10346237e-01, 2.13885233e-01,
          1.52417913e-01, 2.30051354e-02, 7.00935423e-02, 0.,
          1.33568108e-01, 1.27571136e-01, 1.57254279e-01, 1.87840790e-01,
          1.24272510e-01, 0., 4.05073538e-02, 0., 8.60017538e-02,
          1.12487681e-01, 1.55852824e-01, 1.59774393e-01, 0., 0., 0., 0.,
          7.97006264e-02, 0., 0., 0., 4.21320833e-02, 0., 0., 0.,
          2.14163974e-01, 1.72566980e-01, 5.83915114e-02, 1.44637134e-02,
          4.58349176e-02, 3.27978320e-02, 3.23418453e-02, 8.35594237e-02,
          9.35800225e-02, 0., 0., 0., 0., 0., 0., 0., 3.86500806e-02, 0.,
          0., 3.88401262e-02 ]
      - [ 8.12264755e-02, 4.06916961e-02, 0., 1.21682756e-01,
          1.48745865e-01, 8.36965069e-02, 5.81804216e-02, 1.52907804e-01,
          2.58534193e-01, 1.79347247e-01, 2.85789281e-01, 1.96072415e-01,
          1.98637009e-01, 1.94528013e-01, 2.85332501e-01, 8.60434398e-02,
          2.58362383e-01, 1.84914067e-01, 1.41202077e-01, 9.25896093e-02,
          3.15189123e-01, 1.34819373e-01, 1.68470919e-01, 1.99954197e-01,
          2.62521237e-01, 7.59800449e-02, 0., 0., 7.92477280e-02, 0., 0.,
          0., 9.54760388e-02, 0., 0., 0., 3.98458466e-02, 0., 0., 0.,
          1.78196039e-02, 0., 1.47165731e-01, 8.38405415e-02,
          1.62126854e-01, 5.35917394e-02, 0., 6.35760203e-02,
          1.46822989e-01, 1.48758397e-01, 0., 0., 1.23743296e-01, 0., 0.,
          0., 0., 0., 0., 0., 0., 0., 0., 8.70998055e-02 ]
      - [ 1.21915199e-01, 3.67633961e-02, 4.19079214e-02, 0.,
          2.31101513e-01, 5.16276956e-02, 1.58932596e-01, 2.32088089e-01,
          2.14268491e-01, 1.81358293e-01, 1.18729621e-01, 1.16122670e-01,
          2.55921602e-01, 1.90584317e-01, 1.83994547e-01, 2.57496446e-01,
          8.87151286e-02, 8.79540816e-02, 6.49047419e-02, 1.62778959e-01,
          2.19381332e-01, 1.64757133e-01, 1.58922866e-01, 1.27941638e-01,
          1.46869928e-01, 1.40778512e-01, 1.39771342e-01, 1.19737573e-01,
          2.28446394e-01, 2.30136767e-01, 7.45948479e-02, 1.21292710e-01,
          5.53133450e-02, 0., 5.64100891e-02, 3.92895006e-02,
          1.11067191e-01, 0., 0., 0., 2.12069713e-02, 0., 0., 0.,
          9.05962214e-02, 0., 8.44447538e-02, 1.52794421e-01,
          1.06034860e-01, 0., 0., 0., 1.73809707e-01, 1.01587705e-01, 0.,
          0., 0., 0., 0., 0., 1.39467090e-01, 8.19539875e-02,
          1.79181680e-01, 7.25577101e-02 ]
      - [ 1.64439172e-01, 6.89444765e-02, 1.96382385e-02, 2.29888353e-02,
          2.76770592e-02, 0., 3.24154682e-02, 9.82141495e-02,
          3.25099111e-01, 1.52402773e-01, 6.64208531e-02, 1.24707632e-01,
          1.23031199e-01, 1.12368658e-01, 1.13916293e-01, 1.15933284e-01,
          2.27487803e-01, 1.14136815e-01, 7.37464353e-02, 1.01095080e-01,
          7.09414110e-02, 1.05818041e-01, 1.42591864e-01, 2.39611849e-01,
          4.56879020e-01, 1.85153693e-01, 1.27806440e-01, 7.07214996e-02,
          1.18050471e-01, 1.35345027e-01, 1.81350276e-01, 2.63173848e-01,
          1.25549316e-01, 0., 0., 0., 2.25982238e-02, 0., 0., 0., 0., 0.,
          0., 0., 1.08559035e-01, 6.53070360e-02, 1.66038156e-01,
          1.74010303e-02, 2.90763915e-01, 0., 0., 0., 8.45548138e-02, 0.,
          0., 0., 0., 0., 0., 0., 3.29422913e-02, 0., 0., 1.63166851e-01 ]
      - [ 2.98307061e-01, 8.23320672e-02, 0., 2.63172463e-02,
          4.43978272e-02, 2.81012915e-02, 3.08925379e-02, 2.02264056e-01,
          2.77602702e-01, 9.42052975e-02, 2.52694134e-02, 1.86091028e-02,
          5.73173463e-02, 0., 2.15547793e-02, 1.60483688e-01,
          2.08151624e-01, 1.50010183e-01, 1.00534260e-01, 2.36877754e-01,
          3.10057282e-01, 3.40458661e-01, 2.14099899e-01, 1.52649865e-01,
          2.35403880e-01, 1.11190818e-01, 1.12144060e-01, 8.36890563e-02,
          3.03619534e-01, 1.33217975e-01, 7.66105577e-02, 2.04056919e-01,
          8.37608874e-02, 2.15547793e-02, 3.12966555e-02, 1.86091028e-02,
          5.91971017e-02, 0., 0., 0., 0., 0., 0., 0., 4.18586731e-02, 0.,
          0., 6.76588863e-02, 1.21488236e-01, 0., 0., 0., 1.40398249e-01,
          0., 1.53437376e-01, 6.81243017e-02, 0., 1.75994039e-02, 0., 0.,
          5.33595458e-02, 0., 0., 0. ]
      - [ 9.41583440e-02, 1.55783772e-01, 2.90245693e-02, 1.73445299e-01,
          2.23664045e-01, 1.62115172e-01, 1.41470835e-01, 0.,
          1.27236307e-01, 2.10477695e-01, 1.50444344e-01, 2.92894661e-01,
          2.44751185e-01, 6.38486594e-02, 0., 6.17249422e-02,
          1.57389134e-01, 0., 9.22639444e-02, 2.17111856e-01,
          1.90777048e-01, 1.89563736e-01, 1.18719831e-01, 1.33935004e-01,
          2.25864395e-01, 2.08182961e-01, 1.50258020e-01, 1.58277497e-01,
          2.65717566e-01, 1.01547778e-01, 1.88217580e-01, 5.91302142e-02,
          9.50198993e-02, 0., 7.47244284e-02, 0., 1.17161684e-01, 0., 0.,
          0., 0., 0., 0., 0., 1.48891449e-01, 8.43837708e-02,
          1.18569739e-01, 9.06615108e-02, 0., 7.43588805e-02,
          1.01884715e-01, 4.79341224e-02, 1.63196087e-01, 0., 0., 0.,
          1.62212681e-02, 0., 7.37124309e-02, 0., 1.33764014e-01,
          8.92892554e-02, 0., 0. ]
      - [ 1.89122766e-01, 1.07519858e-01, 1.28546134e-01, 1.38632700e-01,
          1.16490394e-01, 1.14231989e-01, 1.44098341e-01, 1.32266685e-01,
          3.55331510e-01, 2.33731732e-01, 1.51416317e-01, 1.96996272e-01,
          3.36341381e-01, 1.24229044e-01, 1.19997226e-01, 1.30056858e-01,
          2.84022272e-01, 1.55810192e-01, 2.27612615e-01, 1.89742118e-01,
          2.27140054e-01, 1.16111428e-01, 8.81051421e-02, 2.59898677e-02,
          2.55667806e-01, 0., 0., 3.76527049e-02, 1.14346147e-01,
          4.98364195e-02, 3.27231623e-02, 6.99208751e-02, 9.31178480e-02,
          1.00942500e-01, 0., 0., 1.09615318e-01, 0., 0., 0.,
          1.39776357e-02, 0., 2.55140699e-02, 0., 1.34559140e-01,
          1.24029323e-01, 8.98269340e-02, 0., 0., 0., 9.17383209e-02,
          5.10651320e-02, 7.36317635e-02, 0., 0., 2.64811218e-02,
          3.75577286e-02, 4.15852033e-02, 0., 0., 3.76359336e-02, 0., 0.,
          0. ]
      - [ 2.31776074e-01, 1.29553840e-01, 1.65924579e-01, 1.27637997e-01,
          1.83195561e-01, 9.04505923e-02, 1.71023533e-01, 1.37981772e-01,
          2.67543226e-01, 1.81542367e-01, 1.37358770e-01, 2.20067754e-01,
          1.89229831e-01, 1.07327171e-01, 1.60694882e-01, 2.57981002e-01,
          2.25353688e-01, 2.11288363e-01, 8.34015906e-02, 1.28093764e-01,
          8.84638280e-02, 7.01301917e-02, 9.82464179e-02, 2.21983865e-01,
          2.90821016e-01, 1.05044760e-01, 1.24634780e-01, 1.17577925e-01,
          9.78432223e-02, 7.05486014e-02, 1.39694944e-01, 2.03714147e-01,
          6.62360787e-02, 0., 6.83482438e-02, 0., 4.66245301e-02,
          4.51855883e-02, 0., 0., 0., 0., 0., 7.40256384e-02,
          1.11580528e-01, 2.72022691e-02, 8.84166881e-02, 1.00602217e-01,
          4.95027117e-02, 5.33868074e-02, 5.27225807e-02, 0.,
          1.21914744e-01, 0., 0., 5.08221239e-02, 1.21379651e-01, 0., 0.,
          0., 5.44457212e-02, 0., 0., 0. ]
      - [ 9.04556066e-02, 8.41883868e-02, 1.62995830e-01, 2.41450131e-01,
          1.06358916e-01, 2.54079532e-02, 3.78278159e-02, 3.71244028e-02,
          2.18618244e-01, 2.43828610e-01, 2.41841331e-01, 2.36532390e-01,
          1.28335446e-01, 2.38399193e-01, 1.58156976e-01, 0.,
          1.59756556e-01, 1.75475061e-01, 1.91001073e-01, 1.29255235e-01,
          1.86399743e-01, 2.03351468e-01, 1.77557528e-01, 2.38163024e-01,
          2.14888602e-01, 9.63241458e-02, 9.79879871e-02, 1.26658410e-01,
          1.82776764e-01, 1.15544610e-01, 1.52733937e-01, 0., 0., 0.,
          1.30201072e-01, 0., 1.07706510e-01, 0., 0., 0., 2.66202856e-02,
          0., 0., 0., 1.64696649e-01, 0., 9.68097299e-02, 7.68504739e-02,
          1.12697519e-01, 1.22917980e-01, 7.37563521e-02, 0.,
          1.07095577e-01, 0., 0., 0., 0., 0., 0., 0., 9.37676951e-02, 0.,
          9.34555307e-02, 7.84612149e-02 ]
      - [ 1.87348664e-01, 1.09175511e-01, 1.10992059e-01, 1.30208597e-01,
          2.69454390e-01, 9.35565382e-02, 1.03869505e-01, 1.10789284e-01,
          2.70187795e-01, 2.40829036e-01, 7.20313117e-02, 1.73892811e-01,
          2.45863080e-01, 2.83722043e-01, 9.52623487e-02, 9.00238529e-02,
          8.01590458e-02, 9.87429544e-02, 1.05742194e-01, 1.21335544e-01,
          1.74463853e-01, 2.06508160e-01, 2.94501483e-01, 3.35083187e-01,
          2.07994565e-01, 3.60360034e-02, 1.15203060e-01, 1.39622882e-01,
          1.09021686e-01, 8.87591615e-02, 4.33404073e-02, 3.70970182e-02,
          0., 0., 0., 7.43336156e-02, 6.99268356e-02, 0., 0., 0.,
          5.52820191e-02, 7.64923394e-02, 7.48418346e-02, 5.99054322e-02,
          1.02433465e-01, 0., 0., 0., 6.30630553e-02, 0., 4.42364104e-02,
          6.54707402e-02, 7.62010068e-02, 0., 0., 0., 0., 5.69621399e-02,
