%YAML:1.0
---
opencv_ml_svm:
   format: 3
   svmType: C_SVC
   kernel:
      type: RBF
      gamma: 5.3830000000000000e+00
   C: 2.6699999999999999e+00
   term_criteria: { epsilon:1.1920928955078125e-07, iterations:1000 }
   var_count: 64
   class_count: 10
   class_labels: !!opencv-matrix
      rows: 10
      cols: 1
      dt: i
      data: [ 0, 1, 2, 3, 4, 5, 6, 7, 8, 9 ]
   sv_total: 1165
   support_vectors:
      - [ 1.42988041e-01, 2.00210437e-01, 1.16419911e-01, 1.44714817e-01,
          2.96182603e-01, 1.69744313e-01, 4.62791398e-02, 1.32685870e-01,
          2.19337046e-01, 1.23263270e-01, 1.34477124e-01, 2.29008511e-01,
          2.81133384e-01, 1.46700442e-01, 1.59778878e-01, 1.49586767e-01,
          1.16517186e-01, 6.76775128e-02, 8.15144479e-02, 8.64740312e-02,
          2.22475260e-01, 1.91077277e-01, 1.52838022e-01, 1.94309607e-01,
          1.69443384e-01, 1.40503868e-01, 1.66146308e-01, 1.43917158e-01,
          2.16242760e-01, 1.51852056e-01, 1.59601435e-01, 4.71900031e-02,
          2.45112795e-02, 0., 1.04936853e-01, 0., 1.12913601e-01, 0., 0.,
          0., 3.57396752e-02, 0., 0., 0., 1.59129277e-01, 1.54199913e-01,
          0., 0., 9.59699303e-02, 1.06288277e-01, 0., 0., 8.57544541e-02,
          0., 0., 0., 0., 0., 0., 0., 5.21116927e-02, 0., 5.86589687e-02,
          6.28459230e-02 ]
      - [ 1.36130393e-01, 2.30109334e-01, 8.87601003e-02, 1.28024265e-01,
          1.98400468e-01, 2.46117070e-01, 1.98783115e-01, 1.71167418e-01,
          1.75365075e-01, 1.42831430e-01, 2.02951849e-01, 1.92242146e-01,
          2.74919659e-01, 1.17876761e-01, 1.05317369e-01, 8.15005749e-02,
          1.11531317e-01, 7.13732466e-02, 1.67765334e-01, 1.13777295e-01,
          2.20215529e-01, 1.73600927e-01, 1.73284248e-01, 1.45199507e-01,
          1.63920432e-01, 1.42983079e-01, 1.21869192e-01, 2.03464210e-01,
          1.53165236e-01, 1.75282538e-01, 6.86937422e-02, 0.,
          6.29086718e-02, 0., 1.15461692e-01, 6.96891323e-02,
          1.20641813e-01, 0., 0., 0., 0., 0., 0., 0., 2.25256398e-01,
          9.37992185e-02, 4.48500142e-02, 8.78513604e-02, 1.27880061e-02,
          3.33326086e-02, 1.32949561e-01, 0., 1.25817344e-01, 0., 0., 0.,
          0., 0., 0., 2.37613935e-02, 5.05085774e-02, 0., 0.,
          6.55246899e-02 ]
      - [ 1.56886697e-01, 2.01467201e-01, 0., 1.85629115e-01,
          2.04377785e-01, 1.92811266e-01, 1.87539265e-01, 1.57985032e-01,
          2.06352845e-01, 1.75849870e-01, 1.67618901e-01, 2.11226150e-01,
          1.97583139e-01, 1.78764492e-01, 1.09791234e-01, 7.35601112e-02,
          1.44436076e-01, 6.99727312e-02, 1.42832339e-01, 1.67491853e-01,
          1.74744233e-01, 1.23998135e-01, 1.99597672e-01, 2.09564343e-01,
          1.67261928e-01, 1.81671888e-01, 1.32061481e-01, 1.01462148e-01,
          2.24419340e-01, 1.37436837e-01, 1.28291026e-01, 9.54721645e-02,
          2.53916178e-02, 1.24163277e-01, 0., 0., 9.21558812e-02, 0., 0.,
          0., 0., 0., 0., 3.68286222e-02, 1.36330962e-01, 9.31277052e-02,
          1.32003605e-01, 9.63861421e-02, 1.14701666e-01, 0.,
          1.39453188e-01, 0., 1.36167794e-01, 0., 0., 0., 0., 0., 0., 0.,
          5.96418865e-02, 0., 0., 6.76361844e-02 ]
      - [ 1.94444954e-01, 1.68548107e-01, 1.67455807e-01, 6.08774237e-02,
          1.25819609e-01, 4.97685149e-02, 6.59448802e-02, 1.81864500e-01,
          2.15109229e-01, 3.07929993e-01, 1.72597736e-01, 8.56795385e-02,
          1.86376125e-01, 1.57932460e-01, 1.52763233e-01, 1.90141007e-01,
          1.70714781e-01, 1.65119529e-01, 7.31738955e-02, 9.25696865e-02,
          1.70529559e-01, 1.01125814e-01, 2.15977415e-01, 3.05336654e-01,
          1.98891446e-01, 1.54658437e-01, 1.43696368e-01, 8.43611881e-02,
          1.10138357e-01, 8.86780098e-02, 1.28631875e-01, 1.82207182e-01,
          1.34344742e-01, 0., 0., 0., 2.18991023e-02, 0., 0., 0.,
          8.34290609e-02, 0., 4.85434495e-02, 5.42991310e-02,
          1.14491329e-01, 7.10943788e-02, 4.93794344e-02, 7.84260705e-02,
          1.99594021e-01, 1.03936754e-01, 0., 0., 1.32966802e-01, 0., 0.,
          0., 0., 0., 0., 0., 6.49632365e-02, 0., 6.96647465e-02,
          5.89469746e-02 ]
      - [ 1.15067020e-01, 9.66609344e-02, 2.42639959e-01, 1.53062910e-01,
          1.79296374e-01, 5.70132546e-02, 0., 1.42984614e-01,
          2.21900702e-01, 2.21048757e-01, 1.61583841e-01, 2.35557228e-01,
          2.41684854e-01, 2.28220433e-01, 1.33492380e-01, 5.96269332e-02,
          2.15322167e-01, 1.32934198e-01, 1.00912742e-01, 9.11968648e-02,
          1.60212055e-01, 3.00896883e-01, 1.62879735e-01, 6.24458976e-02,
          2.56898165e-01, 1.45037398e-01, 4.19578515e-02, 1.10181727e-01,
          1.75121099e-01, 1.00358680e-01, 9.43485349e-02, 7.12327585e-02,
          4.95873243e-02, 0., 7.64271095e-02, 0., 9.81296077e-02,
          6.98440522e-02, 0., 0., 4.72356528e-02, 5.77757992e-02,
          3.78646031e-02, 0., 1.26096338e-01, 1.05254494e-01,
          8.44659135e-02, 1.20145366e-01, 1.37404844e-01, 7.91610181e-02,
          0., 8.13214630e-02, 1.18411884e-01, 0., 0., 0., 2.37418059e-02,
          0., 0., 0., 8.60128626e-02, 0., 7.43643716e-02, 7.24515095e-02 ]
      - [ 1.71692073e-01, 1.07062645e-01, 1.37624323e-01, 7.16375262e-02,
          1.60878450e-01, 1.46647587e-01, 1.51130140e-01, 2.40254581e-01,
          2.56606072e-01, 1.41821414e-01, 1.39142141e-01, 1.99502394e-01,
          2.64578849e-01, 1.65742084e-01, 1.10832609e-01, 1.38266802e-01,
          1.62238851e-01, 8.81592855e-02, 1.97360665e-01, 1.72432184e-01,
          1.54521048e-01, 1.26693055e-01, 1.63962051e-01, 2.25004867e-01,
          2.15811580e-01, 1.92783535e-01, 8.46591368e-02, 9.72967967e-02,
          1.72744468e-01, 1.26373053e-01, 1.26869947e-01, 0.,
          1.96003452e-01, 0., 0., 0., 8.29414129e-02, 0., 0., 0.,
          4.60437723e-02, 0., 0., 0., 9.58853662e-02, 5.69533147e-02,
          7.97064081e-02, 1.58299103e-01, 1.10542268e-01, 8.91465843e-02,
          8.24540406e-02, 0., 1.08481906e-01, 0., 0., 0., 0., 0., 0., 0.,
          8.77572224e-02, 0., 0., 1.13327295e-01 ]
      - [ 1.71390384e-01, 1.20831586e-01, 1.32979080e-01, 1.24721885e-01,
          1.80570632e-01, 9.08138826e-02, 1.18311837e-01, 2.99236387e-01,
          2.41028950e-01, 2.10201740e-01, 2.58517504e-01, 1.44481257e-01,
          1.74457103e-01, 1.53730825e-01, 1.45701334e-01, 2.03899816e-01,
          2.09927186e-01, 0., 4.60636355e-02, 1.44281954e-01,
          1.24037914e-01, 1.28299206e-01, 2.16521591e-01, 1.79285005e-01,
          2.46252626e-01, 1.68552145e-01, 1.47259444e-01, 1.68006316e-01,
          1.44250974e-01, 8.58521610e-02, 7.97521025e-02, 1.33283839e-01,
          3.87179516e-02, 0., 0., 5.12222610e-02, 7.48831481e-02, 0., 0.,
          0., 0., 0., 2.24502161e-02, 0., 1.49777845e-01, 1.08295366e-01,
          1.37021676e-01, 0., 5.12190349e-02, 0., 1.07497327e-01,
          3.51913236e-02, 1.00384995e-01, 0., 0., 0., 0., 0., 0., 0.,
          5.55107370e-02, 3.83735560e-02, 7.63967261e-02, 5.77409714e-02 ]
      - [ 2.41635352e-01, 1.38456419e-01, 7.43924379e-02, 1.37674958e-01,
          2.51772702e-01, 1.23068504e-01, 1.43276975e-01, 1.71401173e-01,
          2.14096710e-01, 2.23117068e-01, 1.27826974e-01, 6.07041717e-02,
          2.48249143e-01, 1.61138892e-01, 1.33032799e-01, 1.21745043e-01,
          1.38038874e-01, 8.97176713e-02, 1.65103912e-01, 1.06602527e-01,
          1.67984068e-01, 1.63406357e-01, 2.66460150e-01, 7.78578892e-02,
          2.00835839e-01, 1.37985170e-01, 1.95735961e-01, 6.93525746e-02,
          2.46354878e-01, 1.25210002e-01, 1.31819680e-01, 9.65383202e-02,
          7.59661868e-02, 0., 0., 7.71743581e-02, 9.11786258e-02, 0.,
          4.67630401e-02, 0., 2.57714428e-02, 0., 0., 0., 1.40586987e-01,
          1.28894508e-01, 1.11298926e-01, 2.77004167e-02, 4.28040363e-02,
          1.11231081e-01, 1.26271561e-01, 0., 1.37540236e-01, 0., 0., 0.,
          0., 0., 0., 0., 6.01545200e-02, 2.31386106e-02, 4.29189429e-02,
          5.47357723e-02 ]
      - [ 5.44206500e-02, 1.19914509e-01, 1.08701415e-01, 2.43965700e-01,
          2.09644750e-01, 1.00433789e-01, 6.01328388e-02, 1.26709938e-01,
          1.40269846e-01, 1.70589894e-01, 2.08675832e-01, 2.55460382e-01,
          2.83790916e-01, 2.52811998e-01, 5.35439886e-02, 5.59366271e-02,
          1.07529938e-01, 0., 1.29143983e-01, 1.57549456e-01,
          2.95733303e-01, 1.90257609e-01, 1.57037735e-01, 1.69413030e-01,
          1.42874822e-01, 1.25573769e-01, 9.59872007e-02, 1.72642499e-01,
          2.64123321e-01, 8.09484944e-02, 5.39144687e-02, 0.,
          5.19351363e-02, 4.63871658e-02, 0., 1.19783126e-01,
          1.23954989e-01, 0., 0., 0., 0., 0., 0., 0., 1.98549911e-01,
          1.58799693e-01, 0., 0., 4.26127277e-02, 0., 9.47500691e-02,
          8.86310786e-02, 1.32532284e-01, 3.22764069e-02, 3.53804603e-02,
          0., 3.91294956e-02, 0., 0., 0., 7.64421150e-02, 0., 0., 0. ]
      - [ 2.45205015e-01, 1.39415205e-01, 1.02357522e-01, 0.,
          1.73967645e-01, 9.83224884e-02, 1.02988131e-01, 2.95937181e-01,
          2.87899256e-01, 1.92383289e-01, 1.64684340e-01, 1.16573878e-01,
          1.75059199e-01, 1.88361868e-01, 1.10698096e-01, 9.66130793e-02,
          2.00544372e-01, 1.08683161e-01, 8.79758969e-02, 1.19302876e-01,
          1.37491822e-01, 1.95009083e-01, 2.95038465e-02, 2.77436674e-01,
          2.30234697e-01, 1.21185325e-01, 1.15471661e-01, 1.13801248e-01,
          1.29640847e-01, 1.23485729e-01, 1.00881040e-01, 1.84364200e-01,
          1.24608055e-01, 8.28310996e-02, 0., 0., 9.08139721e-02, 0., 0.,
          0., 0., 0., 0., 0., 1.33744583e-01, 9.19201821e-02,
          1.11808680e-01, 1.44568264e-01, 1.18801020e-01, 1.08885176e-01,
          6.84893057e-02, 0., 9.87562314e-02, 0., 0., 0., 0., 0., 0., 0.,
          5.10562174e-02, 0., 0., 1.05593219e-01 ]
      - [ 7.88051635e-02, 8.68224204e-02, 2.52815098e-01, 1.57547563e-01,
          7.36174360e-02, 3.17257605e-02, 7.26634935e-02, 1.18952230e-01,
          1.86505988e-01, 1.83861032e-01, 2.57499963e-01, 1.96935356e-01,
          2.71753132e-01, 2.47616634e-01, 1.38564810e-01, 1.29082337e-01,
          1.63770586e-01, 1.61020026e-01, 9.66572240e-02, 2.30305880e-01,
          1.87829822e-01, 1.46706015e-01, 2.46813878e-01, 9.61135775e-02,
          2.10789412e-01, 1.45635739e-01, 8.11388195e-02, 1.68753758e-01,
          1.13603212e-01, 0., 1.04647502e-01, 1.25566989e-01,
          3.43530849e-02, 0., 0., 1.15234368e-01, 1.26056433e-01, 0., 0.,
          3.77021767e-02, 0., 0., 0., 0., 1.53136656e-01, 1.34483501e-01,
          8.92591998e-02, 0., 7.64011294e-02, 7.58613572e-02,
          1.24210544e-01, 0., 1.33048922e-01, 0., 0., 0., 0., 0., 0., 0.,
          8.56026337e-02, 0., 7.80721083e-02, 7.15347528e-02 ]
      - [ 2.45973215e-01, 1.22960091e-01, 6.42639771e-02, 1.83787048e-01,
          1.91950649e-01, 6.11492991e-02, 1.81560606e-01, 1.31685868e-01,
          2.39242256e-01, 2.00821131e-01, 1.37304246e-01, 2.04741910e-01,
          1.62575200e-01, 1.70364007e-01, 1.53546900e-01, 1.50288254e-01,
          1.18102834e-01, 9.93320048e-02, 1.35346144e-01, 1.16533689e-01,
          1.96636155e-01, 1.87946588e-01, 2.06550360e-01, 1.16884992e-01,
          1.65946200e-01, 1.89555094e-01, 1.89629868e-01, 1.52121723e-01,
          2.28185833e-01, 7.46974871e-02, 1.71041206e-01, 0.,
          1.22927368e-01, 6.36515841e-02, 4.43894044e-02, 4.06518541e-02,
          7.97841027e-02, 0., 0., 0., 0., 0., 0., 0., 1.13075718e-01,
          8.23894814e-02, 1.31418750e-01, 9.14289802e-02, 1.04212694e-01,
          1.17437504e-01, 0., 0., 1.04725368e-01, 0., 0., 0., 0., 0., 0.,
          0., 8.51311013e-02, 0., 8.81830305e-02, 1.22982845e-01 ]
      - [ 1.74947068e-01, 1.19993731e-01, 1.19019866e-01, 1.76176965e-01,
          1.51008725e-01, 2.49741264e-02, 1.79529473e-01, 3.05678517e-01,
          2.29129866e-01, 1.70843944e-01, 1.28712714e-01, 1.87934667e-01,
          1.77093178e-01, 1.53015926e-01, 1.59975260e-01, 1.78670138e-01,
          1.75375059e-01, 7.56740198e-02, 1.05711661e-01, 9.10837501e-02,
          1.40817583e-01, 1.83367178e-01, 1.57771215e-01, 2.49603018e-01,
          2.26455525e-01, 1.49235815e-01, 1.09854601e-01, 1.40402108e-01,
          1.19805664e-01, 8.77932906e-02, 9.45992023e-02, 1.84106290e-01,
          1.45452827e-01, 0., 0., 0., 5.63934520e-02, 0., 0., 0., 0., 0.,
          0., 0., 1.05705969e-01, 6.09017871e-02, 1.12835407e-01,
          1.47539377e-01, 1.92283303e-01, 8.38765278e-02, 0., 0.,
          1.06616803e-01, 0., 0., 0., 0., 0., 0., 0., 6.21919371e-02, 0.,
          0., 1.22577578e-01 ]
      - [ 2.98097640e-01, 1.09600984e-01, 1.09948859e-01, 7.59089738e-02,
          1.67412221e-01, 1.17959805e-01, 1.65732667e-01, 1.96352810e-01,
          2.43292779e-01, 1.11775458e-01, 8.94393846e-02, 2.37364188e-01,
          1.72664955e-01, 1.37998000e-01, 1.31632149e-01, 1.68141991e-01,
          2.77071148e-01, 1.75845832e-01, 1.64587408e-01, 9.57527161e-02,
          1.39523044e-01, 7.97226280e-02, 8.62350687e-02, 3.00813615e-01,
          2.57632583e-01, 5.89806624e-02, 3.63164730e-02, 0.,
          1.72856867e-01, 6.90456256e-02, 1.13100067e-01, 2.36158013e-01,
          1.00302048e-01, 6.12327531e-02, 0., 6.02566898e-02,
          1.16215996e-01, 0., 5.14642522e-02, 0., 0., 0., 4.83005159e-02,
          0., 1.15618028e-01, 0., 6.77252933e-02, 0., 0., 0.,
          4.52752672e-02, 6.13029189e-02, 1.04247950e-01, 0., 0.,
          3.07858773e-02, 6.89598024e-02, 0., 6.87302202e-02,
          5.20534888e-02, 1.30606204e-01, 0., 0., 0. ]
      - [ 1.08019128e-01, 1.87156960e-01, 1.05302975e-01, 1.62885129e-01,
          1.19254716e-01, 4.27845269e-02, 2.38175374e-02, 6.29978180e-02,
          2.96463341e-01, 2.21301824e-01, 1.50425032e-01, 2.58679926e-01,
          2.34771475e-01, 2.00191930e-01, 9.29752588e-02, 1.17386259e-01,
          1.21365033e-01, 1.79685161e-01, 1.30907461e-01, 1.28372639e-01,
          2.12522700e-01, 1.47512883e-01, 1.96273208e-01, 2.36525074e-01,
          2.03166202e-01, 1.46091938e-01, 1.76702023e-01, 1.47858307e-01,
          1.34161666e-01, 0., 0., 1.63106441e-01, 7.45156333e-02,
          7.67479762e-02, 6.55665249e-02, 0., 7.91855901e-02, 0., 0., 0.,
          0., 0., 0., 0., 1.31796151e-01, 7.68157989e-02, 1.30504593e-01,
          1.27769306e-01, 1.03733175e-01, 1.14426605e-01, 8.67408812e-02,
          0., 1.35784835e-01, 0., 0., 0., 0., 0., 0., 0., 9.08011794e-02,
          6.90240338e-02, 0., 8.52701589e-02 ]
      - [ 1.73166692e-01, 1.89866602e-01, 1.02768578e-01, 2.22585559e-01,
          1.40945718e-01, 1.74118474e-01, 2.17136398e-01, 2.01992616e-01,
          2.43956640e-01, 1.91821098e-01, 1.55863136e-01, 2.20804751e-01,
          2.20097974e-01, 8.75110552e-02, 6.06837049e-02, 1.06633507e-01,
          2.60109633e-01, 2.45742187e-01, 1.79444566e-01, 8.71265307e-02,
          1.21504501e-01, 7.63696134e-02, 9.83304754e-02, 2.18776181e-01,
          2.55436420e-01, 9.09078568e-02, 1.75284520e-01, 8.54312107e-02,
          5.91687672e-02, 0., 0., 5.56748137e-02, 1.67789981e-01,
          1.39965400e-01, 0., 0., 1.06609538e-01, 0., 0., 0., 0., 0., 0.,
          5.34982458e-02, 9.55164954e-02, 0., 0., 1.36432245e-01, 0., 0.,
          0., 7.82904699e-02, 9.12384763e-02, 0., 0., 9.38515961e-02,
          9.50956866e-02, 6.30054772e-02, 0., 0., 7.16148838e-02, 0., 0.,
          0. ]
      - [ 2.57587910e-01, 1.99356750e-01, 1.02952160e-01, 7.91486651e-02,
          1.10065803e-01, 7.66330287e-02, 0., 2.75270730e-01,
          3.96905094e-01, 1.72560319e-01, 1.27641156e-01, 8.65735263e-02,
          1.20254129e-01, 2.80352198e-02, 9.67567936e-02, 1.75715402e-01,
          2.29582414e-01, 1.27358928e-01, 4.35219333e-02, 2.75056586e-02,
          6.50587231e-02, 5.10215908e-02, 1.64486721e-01, 2.51482695e-01,
          3.14777672e-01, 9.33931544e-02, 1.23733841e-01, 1.80448696e-01,
          8.97804275e-02, 8.15215334e-02, 0., 1.87432691e-01,
          9.81063992e-02, 0., 0., 0., 2.72038691e-02, 0., 0., 0.,
          3.24522555e-02, 0., 0., 0., 1.03217654e-01, 0., 1.38934001e-01,
          1.83174253e-01, 2.00759590e-01, 1.33467928e-01, 0., 0.,
          9.64756906e-02, 0., 0., 0., 0., 0., 0., 0., 1.06702354e-02, 0.,
          0., 0. ]
      - [ 1.90985665e-01, 8.44833031e-02, 7.19618648e-02, 8.74058753e-02,
          1.88829660e-01, 1.58355236e-01, 1.37980193e-01, 2.41053239e-01,
          2.25061953e-01, 1.97876588e-01, 2.08643407e-01, 1.97424576e-01,
          2.10310385e-01, 1.23651415e-01, 1.82195947e-01, 1.93300039e-01,
          1.51190057e-01, 1.30285725e-01, 1.45643085e-01, 1.83907747e-01,
          1.66137367e-01, 2.30009630e-01, 1.39803395e-01, 1.00292511e-01,
          1.49631590e-01, 1.85001448e-01, 1.48269892e-01, 1.85262546e-01,
          1.14294313e-01, 4.02676649e-02, 0., 1.26901045e-01,
          1.15682669e-01, 9.14602801e-02, 0., 0., 9.35275406e-02, 0., 0.,
          0., 2.41823178e-02, 0., 0., 0., 1.25205845e-01, 0.,
          1.51289582e-01, 1.04908809e-01, 6.32141382e-02, 9.14213583e-02,
          1.06779680e-01, 0., 1.10266238e-01, 0., 0., 0., 0., 0., 0., 0.,
          8.08089897e-02, 0., 6.49926513e-02, 1.65190727e-01 ]
      - [ 1.61982939e-01, 1.98535621e-01, 9.10883173e-02, 2.02481270e-01,
          1.24728754e-01, 8.33567157e-02, 3.68487909e-02, 1.52845845e-01,
          2.54857183e-01, 1.42493635e-01, 2.07607448e-01, 2.45552048e-01,
          1.88027233e-01, 2.10763842e-01, 9.34496075e-02, 1.89182892e-01,
          1.98992819e-01, 1.27137512e-01, 1.58484593e-01, 8.32291842e-02,
          1.59612983e-01, 2.25238547e-01, 2.12725490e-01, 1.68445408e-01,
          2.43393973e-01, 7.75234848e-02, 1.00212872e-01, 1.51710287e-01,
          1.97822556e-01, 8.72682631e-02, 1.24565721e-01, 5.20623587e-02,
          1.49026260e-01, 6.91982657e-02, 0., 0., 1.03073262e-01, 0., 0.,
          0., 0., 0., 0., 5.11573628e-02, 1.50696218e-01, 7.77519047e-02,
          0., 0., 1.34921908e-01, 1.13946669e-01, 0., 0., 1.07144967e-01,
          0., 0., 0., 0., 0., 0., 0., 6.04379140e-02, 0., 6.60012290e-02,
          6.53846115e-02 ]
      - [ 1.23820782e-01, 1.57964066e-01, 1.33786887e-01, 4.98856045e-02,
          1.47573918e-01, 1.38240814e-01, 1.21035725e-01, 2.21565068e-01,
          2.54185617e-01, 1.57463178e-01, 2.23699659e-01, 1.43446162e-01,
          2.60548055e-01, 2.12710664e-01, 1.66938260e-01, 1.11633919e-01,
          1.27071723e-01, 1.60873279e-01, 1.59638897e-01, 1.59850314e-01,
          2.35094503e-01, 2.00431839e-01, 1.60639524e-01, 1.05974384e-01,
          2.00237006e-01, 1.50245875e-01, 1.73739955e-01, 1.26474321e-01,
          2.06257641e-01, 3.07172574e-02, 0., 5.74860051e-02,
          1.16704024e-01, 0., 0., 0., 3.39265317e-02, 0., 0., 0.,
          3.75846066e-02, 0., 0., 2.88332403e-02, 1.19730115e-01, 0.,
          1.53974280e-01, 1.50825992e-01, 1.77175533e-02, 1.37153238e-01,
          0., 0., 1.25490651e-01, 0., 0., 8.02313462e-02, 0., 0., 0., 0.,
          9.19209197e-02, 0., 5.34419343e-02, 9.80267301e-02 ]
      - [ 1.60991654e-01, 1.07053787e-01, 8.98266807e-02, 1.86468691e-01,
          1.58869252e-01, 1.77752808e-01, 1.89571694e-01, 1.57016322e-01,
          1.75540924e-01, 2.50428230e-01, 2.36892372e-01, 1.96106270e-01,
          2.10511163e-01, 1.96136370e-01, 1.74356148e-01, 1.37555107e-01,
          1.40982062e-01, 1.69940427e-01, 2.24452987e-01, 8.59907493e-02,
          1.37027979e-01, 1.46325424e-01, 1.77443236e-01, 1.04402579e-01,
          1.81613594e-01, 1.54731229e-01, 1.82869792e-01, 1.02967337e-01,
          1.18733674e-01, 4.65614200e-02, 4.89012487e-02, 7.38464817e-02,
          7.93870986e-02, 9.78036821e-02, 4.01283279e-02, 0.,
          9.83452573e-02, 0., 0., 0., 2.99766827e-02, 0., 0., 0.,
          1.34236082e-01, 9.90618393e-02, 1.18164741e-01, 1.55589834e-01,
          1.28977671e-01, 1.38158798e-01, 0., 0., 1.16404317e-01, 0., 0.,
          0., 0., 0., 0., 0., 5.95576316e-02, 0., 0., 1.45221934e-01 ]
      - [ 2.01593339e-01, 1.28905848e-01, 1.17153838e-01, 7.97866955e-02,
          1.88253999e-01, 1.08683161e-01, 2.48169512e-01, 1.58037871e-01,
          2.35468015e-01, 2.18600407e-01, 2.02949926e-01, 1.84793338e-01,
          2.31388941e-01, 2.20904812e-01, 1.45658970e-01, 1.11304253e-01,
          1.23505734e-01, 1.44450128e-01, 2.12533861e-01, 1.76377252e-01,
          1.36523008e-01, 2.09636316e-01, 1.87102526e-01, 1.59010008e-01,
          1.94348469e-01, 1.00334533e-01, 1.68274954e-01, 1.37060955e-01,
          1.56877860e-01, 0., 7.97852725e-02, 0., 7.54752457e-02, 0.,
          5.11414185e-02, 0., 6.49587736e-02, 0., 0., 0., 1.08871153e-02,
          0., 0., 0., 1.19659252e-01, 7.48013034e-02, 1.13633089e-01,
          1.03547126e-01, 9.18344036e-02, 1.05920687e-01, 1.02495916e-01,
          0., 1.26496851e-01, 0., 0., 0., 0., 0., 0., 0., 6.74649850e-02,
          3.54962461e-02, 7.04298317e-02, 0. ]
      - [ 1.56436056e-01, 1.17600955e-01, 1.54841140e-01, 0.,
          1.49657875e-01, 1.01288050e-01, 1.97259754e-01, 2.31274158e-01,
          2.07856625e-01, 1.84782967e-01, 2.24056065e-01, 1.40127540e-01,
          2.81441957e-01, 1.64690927e-01, 1.96730107e-01, 6.19924702e-02,
          1.33479625e-01, 1.26552939e-01, 2.28925914e-01, 1.37615323e-01,
          2.44452700e-01, 1.93448856e-01, 1.75439343e-01, 1.25878155e-01,
          1.93140492e-01, 1.20663382e-01, 1.15004368e-01, 2.10193440e-01,
          1.52319729e-01, 6.09179623e-02, 0., 1.00952521e-01,
          6.65250272e-02, 0., 6.36578351e-02, 0., 7.45283887e-02, 0., 0.,
          0., 2.37587821e-02, 0., 0., 0., 1.33895025e-01, 1.25084862e-01,
          8.95195752e-02, 8.21437240e-02, 0., 1.28168806e-01,
          7.92133883e-02, 0., 1.27381146e-01, 0., 0., 0., 6.04142956e-02,
          0., 0., 0., 3.11593506e-02, 0., 0., 1.21511906e-01 ]
      - [ 1.72720626e-01, 1.23372719e-01, 1.02482930e-01, 9.15596262e-02,
          1.79663703e-01, 2.36082241e-01, 1.82427108e-01, 2.13712037e-01,
          1.84294268e-01, 2.17555255e-01, 2.07777202e-01, 1.46670803e-01,
          3.04116994e-01, 1.15419365e-01, 1.46453336e-01, 1.18186027e-01,
          1.96097836e-01, 7.67795593e-02, 1.70327231e-01, 1.67121410e-01,
          1.39493480e-01, 1.56817317e-01, 2.21162900e-01, 4.16820720e-02,
          1.75593406e-01, 1.53075278e-01, 1.74361899e-01, 1.70610309e-01,
          1.42787009e-01, 6.94239065e-02, 4.23789211e-02, 0.,
          1.05573609e-01, 0., 0., 0., 8.15883875e-02, 0., 5.23257703e-02,
          0., 5.31773604e-02, 0., 0., 0., 1.45699009e-01, 9.70718265e-02,
          8.32830891e-02, 1.47643268e-01, 1.50172189e-01, 1.26766205e-01,
          0., 4.94893678e-02, 1.37818784e-01, 0., 0., 0., 0., 0., 0., 0.,
          4.79823425e-02, 0., 0., 0. ]
      - [ 1.40741602e-01, 1.43761471e-01, 8.31620395e-02, 1.97942302e-01,
          2.44140819e-01, 1.96801901e-01, 1.27613559e-01, 1.25844270e-01,
          2.06471801e-01, 1.94983676e-01, 1.77266240e-01, 2.12375462e-01,
          1.95906356e-01, 1.70666456e-01, 1.32499769e-01, 1.30124286e-01,
          1.02011316e-01, 0., 0., 2.26705581e-01, 2.47108355e-01,
          1.86826661e-01, 1.99550524e-01, 1.64128959e-01, 1.64095029e-01,
          1.70752943e-01, 1.43619761e-01, 1.29025608e-01, 2.15150297e-01,
          1.78715497e-01, 7.39531517e-02, 4.97617461e-02, 4.03337888e-02,
          0., 0., 0., 7.77274445e-02, 0., 0., 0., 4.95539792e-02, 0., 0.,
          0., 1.18553244e-01, 0., 1.24965556e-01, 1.51127160e-01,
          1.08098507e-01, 0., 8.11078548e-02, 9.60635692e-02,
          1.23084158e-01, 0., 0., 0., 0., 0., 0., 0., 8.14515352e-02, 0.,
          8.84794965e-02, 0. ]
      - [ 1.23167776e-01, 1.82529122e-01, 4.83194292e-02, 5.64655885e-02,
          2.08523467e-01, 2.03247309e-01, 2.28027105e-01, 1.59846961e-01,
          2.68157721e-01, 1.53272763e-01, 1.71715200e-01, 2.01351568e-01,
          1.70431376e-01, 8.97300169e-02, 1.44048512e-01, 1.74094856e-01,
          1.33197874e-01, 1.87597305e-01, 6.02249615e-02, 0.,
          1.74349144e-01, 1.97661877e-01, 2.22586244e-01, 6.71448037e-02,
          2.10925654e-01, 1.46859884e-01, 1.39620170e-01, 1.74324289e-01,
          2.75997698e-01, 1.38159916e-01, 0., 0., 1.04484893e-01,
          1.12623125e-01, 0., 0., 8.15365613e-02, 0., 0., 0., 0., 0., 0.,
          0., 1.35394797e-01, 1.31061092e-01, 7.46532306e-02,
          1.05280295e-01, 5.01763448e-02, 1.15646258e-01, 1.16987109e-01,
          0., 1.40387326e-01, 0., 0., 0., 0., 0., 0., 0., 8.41232091e-02,
          0., 0., 0. ]
      - [ 1.23380229e-01, 1.88229993e-01, 8.93438905e-02, 1.35228917e-01,
          2.38542616e-01, 1.72581539e-01, 9.51237008e-02, 1.26313418e-01,
          2.77537942e-01, 2.10345522e-01, 1.76048711e-01, 2.06511021e-01,
          2.38947690e-01, 1.08690903e-01, 0., 1.56944498e-01,
          1.99293450e-01, 2.62604088e-01, 1.53517678e-01, 8.95779207e-02,
          1.22873306e-01, 1.32457927e-01, 1.14817522e-01, 1.36288613e-01,
          3.16644698e-01, 1.10775903e-01, 6.29709512e-02, 7.14020059e-02,
          1.75409630e-01, 1.12987809e-01, 7.54087791e-02, 1.20307244e-01,
          1.71124622e-01, 9.18298513e-02, 7.89999515e-02, 0.,
          1.12715967e-01, 0., 0., 0., 0., 0., 0., 0., 1.10951222e-01,
          9.99550447e-02, 7.19286278e-02, 1.14361279e-01, 6.49676844e-02,
          5.40755466e-02, 0., 7.11878836e-02, 7.07668439e-02,
          2.88386010e-02, 0., 5.79812713e-02, 0., 0., 0., 5.66078499e-02,
          7.64638186e-02, 0., 7.27115795e-02, 0. ]
      - [ 1.82140678e-01, 1.55665666e-01, 1.61533281e-01, 1.22942686e-01,
          1.59184709e-01, 1.88008219e-01, 2.39578217e-01, 1.06012806e-01,
          1.77369103e-01, 2.00262681e-01, 1.19160689e-01, 2.29961082e-01,
          2.15996325e-01, 1.98164865e-01, 5.59185259e-02, 3.72868925e-02,
          1.48499414e-01, 5.67006990e-02, 1.44076109e-01, 1.31531522e-01,
          1.92947417e-01, 1.97168887e-01, 1.84917033e-01, 1.89231113e-01,
          1.80071414e-01, 1.61327183e-01, 2.07049683e-01, 1.02677040e-01,
          1.53253585e-01, 1.49906367e-01, 1.39354691e-01, 7.68735260e-02,
          1.17797539e-01, 9.78273600e-02, 6.41070157e-02, 0.,
          1.01528049e-01, 0., 0., 0., 1.27913319e-02, 0., 0., 0.,
          1.14511259e-01, 1.41116962e-01, 0., 7.36230612e-02,
          1.17749557e-01, 7.18463883e-02, 9.62440297e-02, 0.,
          1.14715196e-01, 0., 0., 0., 0., 0., 0., 0., 1.00602947e-01, 0.,
          8.07994679e-02, 1.25761330e-01 ]
      - [ 1.46000996e-01, 6.91938773e-02, 2.61481375e-01, 1.39315516e-01,
          1.32573098e-01, 8.32242966e-02, 3.69155407e-02, 4.12196852e-02,
          2.60995120e-01, 2.03800812e-01, 1.29975677e-01, 2.68093258e-01,
          2.78516054e-01, 1.34917125e-01, 1.01547554e-01, 1.50226384e-01,
          1.23446263e-01, 1.14648312e-01, 1.49760380e-01, 1.51692852e-01,
          1.60680145e-01, 2.05507040e-01, 2.13103816e-01, 2.22570539e-01,
          1.56992033e-01, 1.51742294e-01, 1.00517407e-01, 1.59992725e-01,
          4.06456143e-02, 9.88334045e-02, 1.46495864e-01, 1.56795591e-01,
          8.88875797e-02, 0., 9.76593047e-02, 6.97306022e-02,
          1.04333751e-01, 0., 0., 0., 0., 0., 3.51322331e-02, 0.,
          1.74889207e-01, 0., 1.38074264e-01, 0., 1.09297052e-01,
          1.38586059e-01, 0., 0., 1.27027288e-01, 0., 0., 0., 0., 0., 0.,
          0., 1.15159847e-01, 9.58712026e-02, 0., 0. ]
      - [ 1.61210686e-01, 1.54080272e-01, 1.62051484e-01, 1.62661135e-01,
          1.00201853e-01, 7.57908821e-02, 0., 5.53178973e-02,
          3.55715990e-01, 1.85182750e-01, 1.72520965e-01, 1.01101264e-01,
          2.43917555e-01, 1.90204859e-01, 1.25406697e-01, 1.51015341e-01,
          2.09538147e-01, 1.44235194e-01, 1.39662057e-01, 9.16818306e-02,
          1.16399348e-01, 7.80803636e-02, 2.29439229e-01, 3.21008772e-01,
          2.14696079e-01, 1.20755389e-01, 5.25200851e-02, 1.01225153e-01,
          7.44949505e-02, 2.07597733e-01, 1.34018362e-01, 1.10389493e-01,
          1.39209792e-01, 4.45029810e-02, 0., 0., 6.11208603e-02, 0.,
          3.55784707e-02, 0., 0., 0., 5.69087192e-02, 7.98417777e-02,
          1.11833245e-01, 7.55566731e-02, 0., 6.12536222e-02,
          1.40159115e-01, 1.54225305e-01, 0., 0., 1.26806974e-01, 0., 0.,
          0., 0., 0., 0., 0., 3.64206731e-02, 0., 0., 6.69335648e-02 ]
      - [ 2.22366959e-01, 1.01103842e-01, 6.89031258e-02, 0.,
          1.12366669e-01, 8.48483220e-02, 1.51497632e-01, 3.39823037e-01,
          2.53295392e-01, 1.45213902e-01, 2.21518159e-01, 9.49596688e-02,
          1.82963699e-01, 1.48342624e-01, 1.65534973e-01, 2.14895606e-01,
          1.56517774e-01, 1.18053205e-01, 8.25132504e-02, 8.91485810e-02,
          9.37088802e-02, 9.74364728e-02, 2.78918207e-01, 2.02351615e-01,
          2.65791357e-01, 1.32636517e-01, 6.79528415e-02, 1.13432541e-01,
          7.34805241e-02, 1.48929790e-01, 9.27604362e-02, 1.43851355e-01,
          1.34469539e-01, 0., 0., 0., 4.11219746e-02, 0., 0., 0.,
          2.93315854e-02, 0., 0., 0., 9.33921188e-02, 2.47305501e-02,
          1.44406930e-01, 1.69739455e-01, 1.58552989e-01, 1.22403294e-01,
          0., 0., 1.05616182e-01, 0., 0., 0., 0., 0., 0., 0.,
          7.76040852e-02, 0., 9.29141268e-02, 8.09931383e-02 ]
      - [ 2.36802787e-01, 1.12234242e-01, 1.59292579e-01, 1.91833213e-01,
          1.99245393e-01, 2.02020571e-01, 1.35442451e-01, 1.09973811e-01,
          2.77930349e-01, 2.31466815e-01, 1.16503671e-01, 9.25629586e-02,
          2.72563815e-01, 1.64599717e-01, 1.03345193e-01, 1.19285144e-01,
          3.12851906e-01, 1.88139081e-01, 0., 9.16185528e-02,
          6.94097281e-02, 0., 8.61001387e-02, 1.64375156e-01,
          2.84209222e-01, 2.13481694e-01, 0., 7.59051740e-02,
          1.16038524e-01, 1.06555492e-01, 2.44891252e-02, 1.16630316e-01,
          1.71331406e-01, 1.02002397e-01, 0., 0., 1.07288681e-01, 0., 0.,
          0., 4.94426414e-02, 0., 0., 9.31342542e-02, 1.14563324e-01,
          8.33699182e-02, 0., 7.81850368e-02, 0., 6.87742382e-02, 0., 0.,
          9.38361064e-02, 6.34783134e-02, 0., 4.45014685e-02,
          3.83600257e-02, 5.45367263e-02, 0., 0., 1.02996409e-01, 0., 0.,
          6.10137694e-02 ]
      - [ 3.00549686e-01, 1.47748798e-01, 1.19353965e-01, 8.78781676e-02,
          1.35397643e-01, 8.21636543e-02, 1.54889509e-01, 1.30221099e-01,
          3.25740755e-01, 2.08063066e-01, 1.56425267e-01, 5.26091792e-02,
          1.15688249e-01, 1.91273674e-01, 1.26442105e-01, 2.52473891e-01,
          2.30399743e-01, 2.37086549e-01, 1.21845834e-01, 7.60049969e-02,
          1.39949217e-01, 0., 1.98242992e-01, 1.69301048e-01,
          2.76298583e-01, 1.01586282e-01, 8.12790990e-02, 6.91490695e-02,
          8.64130855e-02, 0., 9.76271704e-02, 1.95206106e-01,
          7.09775984e-02, 0., 3.61349769e-02, 6.97249249e-02,
          1.58560470e-01, 0., 0., 4.66280989e-02, 5.85650243e-02,
          5.49189523e-02, 8.63322392e-02, 6.58092275e-02, 1.35890141e-01,
          0., 6.87588453e-02, 0., 0., 9.77252871e-02, 5.75103275e-02, 0.,
          7.34151453e-02, 0., 0., 0., 4.35737744e-02, 0., 0.,
          2.11285185e-02, 7.82608092e-02, 0., 7.63216913e-02,
          1.01985417e-01 ]
      - [ 7.41494149e-02, 0., 0., 0., 0., 0., 5.30775264e-03,
          4.56770658e-01, 1.50550827e-01, 1.20080926e-01, 9.77381170e-02,
          1.14826478e-01, 1.15456119e-01, 1.41687185e-01, 7.19526261e-02,
          4.76989031e-01, 1.48925379e-01, 1.32921323e-01, 1.18865542e-01,
          0., 0., 1.19279131e-01, 1.09943166e-01, 4.34357762e-01,
          1.18423946e-01, 0., 0., 0., 0., 0., 0., 4.14486736e-01,
          2.09345929e-02, 0., 0., 0., 0., 0., 0., 0., 0., 0., 0., 0.,
          8.92654061e-03, 0., 1.33482916e-02, 1.37471864e-02,
          3.39912549e-02, 2.51613259e-02, 0., 0., 6.31201733e-03, 0., 0.,
          0., 0., 0., 0., 0., 0., 0., 0., 4.91490439e-02 ]
      - [ 1.94867998e-01, 1.30932376e-01, 1.90390483e-01, 1.10451467e-01,
          1.08025201e-01, 9.85489711e-02, 5.94632812e-02, 2.22256124e-01,
          1.98392063e-01, 2.28861794e-01, 2.27157235e-01, 2.28476256e-01,
          1.84937805e-01, 1.56233117e-01, 1.13330729e-01, 9.29481089e-02,
          0., 0., 8.63161013e-02, 1.61894217e-01, 3.19311142e-01,
          2.46503949e-01, 1.49809897e-01, 8.75960812e-02, 1.55671358e-01,
          7.68966377e-02, 1.66640729e-01, 2.00274020e-01, 2.09628969e-01,
          8.78793597e-02, 6.44345954e-02, 6.88529387e-02, 7.49805495e-02,
          6.94683194e-02, 0., 6.96878582e-02, 1.57451794e-01, 0., 0., 0.,
          0., 5.80359213e-02, 7.43742660e-02, 1.33867696e-01,
          1.65249333e-01, 0., 0., 0., 0., 3.92096974e-02, 0.,
          3.39663066e-02, 1.84011504e-01, 0., 0., 0., 1.59628280e-02, 0.,
          0., 0., 1.74277455e-01, 0., 0., 0. ]
      - [ 1.14980653e-01, 7.10456967e-02, 1.08940765e-01, 2.12963685e-01,
          1.29106045e-01, 1.42429501e-01, 1.21492133e-01, 1.95242360e-01,
          1.59715578e-01, 1.81503773e-01, 1.47933587e-01, 2.28627563e-01,
          3.33160430e-01, 2.20414191e-01, 0., 1.02540404e-01,
          1.53502598e-01, 1.04997531e-01, 1.92531705e-01, 1.88416615e-01,
          2.16511875e-01, 1.93142280e-01, 9.77736861e-02, 2.55279183e-01,
          1.77402213e-01, 7.74987265e-02, 1.35049552e-01, 1.11081585e-01,
          1.50265679e-01, 1.20644949e-01, 7.14368969e-02, 8.37403163e-02,
          3.05303130e-02, 9.86995250e-02, 0., 5.50366864e-02,
          1.19346827e-01, 0., 0., 0., 0., 0., 0., 0., 1.73662633e-01,
          9.67059880e-02, 1.18589900e-01, 0., 4.17447202e-02, 0., 0.,
          1.45105943e-01, 1.52651563e-01, 4.36110273e-02, 4.81765606e-02,
          0., 0., 0., 0., 6.13908432e-02, 1.13977619e-01, 0., 0., 0. ]
      - [ 2.57456601e-01, 1.63771063e-01, 0., 8.07058290e-02,
          1.48146585e-01, 9.89319086e-02, 1.58946201e-01, 2.87328064e-01,
          2.91539162e-01, 5.45359366e-02, 1.64805546e-01, 7.40396976e-02,
          9.49434415e-02, 1.12406254e-01, 1.65255666e-01, 2.69194722e-01,
          2.34003454e-01, 2.36701623e-01, 1.07343309e-01, 8.91933665e-02,
          1.14802614e-01, 1.07313618e-01, 0., 2.13117823e-01,
          2.82430828e-01, 1.39317006e-01, 1.16955534e-01, 1.00569300e-01,
          1.26598164e-01, 1.37326390e-01, 1.89897150e-01, 1.37081772e-01,
          3.05151176e-02, 0., 3.39152515e-02, 9.43650603e-02,
          1.42598689e-01, 0., 7.08305314e-02, 0., 7.91993365e-02,
          9.98761579e-02, 0., 3.43386605e-02, 1.25701353e-01,
          5.00201806e-02, 0., 0., 0., 4.74020541e-02, 0., 0.,
          1.21676214e-01, 0., 4.46765833e-02, 3.79129425e-02,
          3.85234468e-02, 0., 0., 2.50430070e-02, 1.05067119e-01, 0., 0.,
          0. ]
      - [ 2.63317078e-01, 1.17823757e-01, 1.51317358e-01, 1.06300667e-01,
          1.60381228e-01, 1.32452637e-01, 5.10526970e-02, 2.18961447e-01,
          2.71601647e-01, 2.25589305e-01, 1.31260574e-01, 3.00891642e-02,
          2.00648144e-01, 1.43227413e-01, 1.55323341e-01, 1.84432372e-01,
          8.72754753e-02, 7.29368329e-02, 1.08127326e-01, 1.54448092e-01,
          2.24587977e-01, 2.64640063e-01, 1.41605034e-01, 1.28147319e-01,
          2.56280154e-01, 1.33979857e-01, 1.71620727e-01, 1.40763730e-01,
          1.35163084e-01, 4.53919508e-02, 9.50629860e-02, 1.51103571e-01,
          9.06439945e-02, 0., 0., 0., 8.76594558e-02, 4.94410284e-02, 0.,
          0., 4.76327613e-02, 0., 2.41159163e-02, 3.27975713e-02,
          1.42714277e-01, 1.06329858e-01, 1.14746511e-01, 0.,
          1.57720417e-01, 1.15653843e-01, 0., 0., 1.01408392e-01, 0., 0.,
          0., 0., 0., 0., 0., 6.23292774e-02, 0., 0., 1.30393922e-01 ]
      - [ 1.71945691e-01, 1.26023129e-01, 1.85698807e-01, 7.93975666e-02,
          1.37636214e-01, 1.78758338e-01, 1.33882731e-01, 2.14763746e-01,
          2.37860724e-01, 1.98921666e-01, 1.91677108e-01, 2.47580171e-01,
          1.48964390e-01, 1.86407149e-01, 1.01460271e-01, 1.30276784e-01,
          1.76840827e-01, 1.46331280e-01, 2.21298069e-01, 1.11866914e-01,
          1.87154815e-01, 9.38044712e-02, 1.06540136e-01, 1.28276184e-01,
          2.14533642e-01, 2.09322527e-01, 1.76644191e-01, 1.81517377e-01,
          1.69493943e-01, 0., 1.01346567e-01, 8.21379349e-02,
          3.50681916e-02, 1.23475909e-01, 0., 0., 1.02652371e-01, 0., 0.,
          0., 0., 0., 0., 2.64988635e-02, 1.47646695e-01, 0.,
          8.36363435e-02, 1.70544207e-01, 6.45482987e-02, 1.15178019e-01,
          0., 0., 6.53303415e-02, 0., 0., 0., 0., 0., 0., 0.,
          1.37107313e-01, 9.37720984e-02, 0., 0. ]
      - [ 2.50203371e-01, 1.00106262e-01, 7.99042061e-02, 7.25130513e-02,
          1.14939503e-01, 1.60365298e-01, 1.55379176e-01, 2.86607534e-01,
          2.45730102e-01, 1.78643614e-01, 1.60347775e-01, 1.19592026e-01,
          1.23760447e-01, 1.59919143e-01, 1.53937057e-01, 1.32600769e-01,
          2.15471625e-01, 6.56421259e-02, 1.30761743e-01, 1.38373718e-01,
          1.78382874e-01, 1.04569785e-01, 8.83583203e-02, 3.17005605e-01,
          2.12120816e-01, 1.25076041e-01, 1.66279897e-01, 1.25703961e-01,
          1.11071527e-01, 1.01309821e-01, 1.32378995e-01, 1.32539436e-01,
          1.25486404e-01, 8.95048380e-02, 0., 0., 9.48246121e-02, 0., 0.,
          0., 4.21151035e-02, 0., 0., 0., 1.15937553e-01, 1.12321064e-01,
          8.34982917e-02, 1.30499423e-01, 9.13914740e-02, 8.54333490e-02,
          1.03901699e-01, 0., 1.23609498e-01, 0., 0., 0., 0., 0., 0., 0.,
          9.37172920e-02, 0., 6.48634955e-02, 1.30077347e-01 ]
      - [ 2.36077935e-01, 1.91103406e-02, 0., 7.23855197e-02,
          2.10191295e-01, 2.23329306e-01, 1.69164553e-01, 1.43496171e-01,
          2.36788452e-01, 2.29243681e-01, 1.94776401e-01, 1.17691204e-01,
          1.49732292e-01, 1.45036235e-01, 1.39299124e-01, 1.63772970e-01,
          1.24938712e-01, 5.02873994e-02, 1.82901978e-01, 1.32189736e-01,
          1.85232565e-01, 1.42228425e-01, 2.14518577e-01, 1.92487344e-01,
          1.73941940e-01, 1.51923656e-01, 1.01508610e-01, 1.41223252e-01,
          2.33495221e-01, 1.74385279e-01, 8.94164369e-02, 1.05911214e-02,
          1.68781325e-01, 0., 0., 0., 5.93438819e-02, 0., 0., 0., 0., 0.,
          0., 0., 1.11521214e-01, 0., 1.43461868e-01, 1.74418673e-01,
          1.31468147e-01, 8.07306990e-02, 8.71868432e-02, 7.73299932e-02,
          1.25319034e-01, 0., 0., 0., 0., 0., 0., 0., 7.38717988e-02, 0.,
          8.95264000e-02, 0. ]
      - [ 1.34172052e-01, 1.44946575e-01, 1.80098295e-01, 7.82589018e-02,
          2.15462834e-01, 1.95931226e-01, 1.92071557e-01, 1.94604248e-01,
          1.52738899e-01, 2.16181695e-01, 1.30688146e-01, 1.99555784e-01,
          2.35166445e-01, 1.21109210e-01, 1.59438103e-01, 1.16183303e-01,
          1.01811677e-01, 1.05268039e-01, 1.31010249e-01, 1.28313839e-01,
          2.19804436e-01, 2.35642731e-01, 1.54513255e-01, 8.40672702e-02,
          1.69657931e-01, 1.82203576e-01, 1.32464588e-01, 2.30197415e-01,
          1.26753077e-01, 1.27663836e-01, 1.50562689e-01, 0.,
          1.11703575e-01, 1.22126877e-01, 0., 0., 1.00286841e-01, 0., 0.,
          0., 0., 0., 0., 0., 1.12030365e-01, 0., 1.60082430e-01,
          7.38872886e-02, 8.73736665e-02, 1.50543511e-01, 0., 0.,
          1.22311518e-01, 0., 0., 0., 0., 0., 0., 0., 9.06004906e-02, 0.,
          9.13101584e-02, 8.18271786e-02 ]
      - [ 1.99655190e-01, 1.93093047e-01, 1.63685426e-01, 0.,
          7.25581050e-02, 0., 0., 0., 3.49019229e-01, 2.24504232e-01,
          2.27039069e-01, 8.84253830e-02, 1.20600894e-01, 2.17655405e-01,
          1.69548169e-01, 2.02450693e-01, 1.63038298e-01, 1.42264545e-01,
          1.33718044e-01, 1.16493560e-01, 9.16326866e-02, 1.42639235e-01,
          1.68181226e-01, 3.13908547e-01, 2.28112265e-01, 1.49940565e-01,
          1.03805311e-01, 5.55643514e-02, 1.51325129e-02, 1.05990678e-01,
          9.74899530e-02, 8.45902860e-02, 1.97732478e-01, 0., 0., 0.,
          7.64154419e-02, 0., 0., 0., 0., 0., 0., 0., 1.28254920e-01, 0.,
          1.71468481e-01, 0., 1.53049782e-01, 1.51335657e-01, 0., 0.,
          1.23247169e-01, 0., 0., 0., 0., 0., 0., 0., 9.63027179e-02, 0.,
          9.56332237e-02, 8.05952474e-02 ]
      - [ 1.37568429e-01, 1.10952333e-01, 2.23159701e-01, 9.43007097e-02,
          2.41880268e-01, 1.55585125e-01, 1.13086335e-01, 9.62843746e-02,
          2.33548433e-01, 2.28568956e-01, 1.81361690e-01, 1.22549944e-01,
          1.99088678e-01, 2.95975506e-01, 1.29172370e-01, 5.09648696e-02,
          1.00617334e-01, 4.31475416e-02, 1.36491150e-01, 1.03903331e-01,
          2.11771831e-01, 2.16379851e-01, 1.95713922e-01, 1.39356747e-01,
          1.86493412e-01, 1.56421214e-01, 1.39831886e-01, 2.17990667e-01,
          2.33223125e-01, 3.59745994e-02, 0., 3.65829766e-02,
          3.17490511e-02, 0., 7.22625703e-02, 6.56805187e-02,
          8.32138062e-02, 0., 0., 0., 0., 0., 0., 0., 2.23820150e-01,
          5.81733286e-02, 0., 5.28003387e-02, 6.06745370e-02, 0.,
          1.16078965e-01, 6.11525513e-02, 1.41677067e-01, 0., 0.,
          7.72388801e-02, 6.17505461e-02, 4.78812717e-02, 0., 0.,
          5.61737046e-02, 0., 0., 0. ]
      - [ 3.75755936e-01, 0., 0., 0., 1.63637698e-02, 0., 0.,
          1.16064819e-02, 4.23807353e-01, 2.54666835e-01, 0.,
          7.96805769e-02, 1.72592759e-01, 0., 1.37073949e-01,
          1.47303179e-01, 9.44762770e-03, 6.42982647e-02, 0.,
          2.01041251e-01, 2.19795346e-01, 1.78208485e-01, 2.34881535e-01,
          1.86698392e-01, 3.24001849e-01, 1.13320537e-01, 9.35198218e-02,
          6.32352233e-02, 1.09415606e-01, 0., 1.12055711e-01,
          1.61041901e-01, 0., 0., 0., 0., 9.44762770e-03, 0., 0.,
          1.64166074e-02, 2.11755224e-02, 0., 0., 0., 1.02784336e-01,
          6.83130845e-02, 1.30420253e-01, 1.09721869e-01, 2.15569958e-01,
          0., 0., 0., 9.22454894e-02, 0., 0., 0., 0., 0., 0., 0.,
          8.94619301e-02, 0., 0., 1.82978630e-01 ]
      - [ 1.52626872e-01, 1.50437549e-01, 1.67180985e-01, 1.49049968e-01,
          1.62558421e-01, 1.78483173e-01, 1.51340157e-01, 1.61368668e-01,
          2.12799355e-01, 2.89394408e-01, 1.83106676e-01, 2.62789607e-01,
          2.10819617e-01, 1.64482251e-01, 4.68910113e-02, 1.34492129e-01,
          3.12307719e-02, 1.42200127e-01, 2.12016359e-01, 1.28300726e-01,
          1.73457652e-01, 9.02893841e-02, 1.39761701e-01, 0.,
          2.25485608e-01, 2.10196152e-01, 1.09444074e-01, 9.06865746e-02,
          1.72844291e-01, 1.61329567e-01, 8.85115638e-02, 1.09454781e-01,
          9.91787016e-02, 8.76069590e-02, 9.31220651e-02, 0.,
          1.03018731e-01, 0., 0., 0., 0., 0., 0., 0., 1.16755441e-01, 0.,
          1.39090911e-01, 1.63520247e-01, 9.22730863e-02, 7.79246390e-02,
          0., 0., 6.19013421e-02, 0., 0., 0., 0., 0., 0., 0.,
          9.95799750e-02, 8.32298920e-02, 8.95169005e-02, 4.65075299e-02 ]
      - [ 2.88030505e-01, 8.04402009e-02, 1.48084760e-01, 1.06333338e-01,
          1.09603137e-01, 6.93181902e-02, 1.45500630e-01, 1.98327675e-01,
          2.44149134e-01, 2.50089288e-01, 1.37096435e-01, 1.52430400e-01,
          1.62520587e-01, 1.38992175e-01, 1.65558711e-01, 2.03642666e-01,
          2.82143563e-01, 1.63481817e-01, 1.31703719e-01, 1.10648856e-01,
          1.03114925e-01, 1.81208700e-01, 1.83727860e-01, 2.16935188e-01,
          2.20913887e-01, 1.84974536e-01, 1.34872451e-01, 0.,
          1.39645308e-01, 9.31122825e-02, 1.04477651e-01, 1.38433352e-01,
          0., 7.13761672e-02, 0., 6.81522861e-02, 1.07289933e-01, 0., 0.,
          0., 2.23069340e-02, 0., 0., 9.48201269e-02, 1.22667901e-01,
          1.47058954e-02, 6.83357939e-02, 6.90210387e-02, 9.86937732e-02,
          9.15027931e-02, 0., 0., 9.30625647e-02, 0., 0., 4.56318744e-02,
          0., 0., 0., 6.78451583e-02, 8.62021819e-02, 7.22643211e-02, 0.,
          0. ]
      - [ 2.64878213e-01, 1.26046196e-01, 9.48246345e-02, 5.16217202e-02,
          1.37418285e-01, 1.59299344e-01, 2.27712005e-01, 1.83300644e-01,
          2.91329086e-01, 1.37417987e-01, 1.60256088e-01, 1.49561659e-01,
          1.98348835e-01, 8.23241398e-02, 4.04547192e-02, 0.,
          3.47405940e-01, 2.09238589e-01, 1.29012078e-01, 1.00266583e-01,
          1.01814911e-01, 0., 4.19716388e-02, 0., 4.11417276e-01,
          1.62160233e-01, 8.01934823e-02, 0., 7.19998702e-02,
          5.57736419e-02, 9.96216983e-02, 1.25096440e-01, 1.60531849e-01,
          1.30645037e-01, 0., 0., 9.52018052e-02, 0., 0., 0., 0., 0., 0.,
          0., 9.57411975e-02, 8.65428671e-02, 1.03524104e-01,
          1.32349893e-01, 9.45270211e-02, 1.31262705e-01, 0., 0.,
          9.03923512e-02, 0., 0., 0., 0., 0., 0., 0., 0., 0., 0.,
          5.23052402e-02 ]
      - [ 1.81115821e-01, 8.95694420e-02, 1.29186794e-01, 0.,
          1.68129548e-01, 6.81596100e-02, 2.12830797e-01, 2.55674124e-01,
          2.73721993e-01, 1.85781062e-01, 1.90210164e-01, 2.13889524e-01,
          1.67024136e-01, 1.84824631e-01, 1.11965202e-01, 2.27232739e-01,
          1.34171262e-01, 2.31614381e-01, 1.48887321e-01, 9.32188705e-02,
          1.58488974e-01, 1.10616453e-01, 2.16566652e-01, 1.66983694e-01,
          1.70182601e-01, 2.19828084e-01, 1.22921892e-01, 9.99132842e-02,
          5.98469935e-02, 0., 0., 5.33636436e-02, 1.58116937e-01, 0., 0.,
          0., 3.95612977e-02, 0., 0., 0., 0., 0., 0., 0., 1.32919252e-01,
          1.40988961e-01, 5.51048480e-02, 1.57997414e-01, 1.51010722e-01,
          1.59912124e-01, 0., 0., 1.15600668e-01, 0., 0., 0., 0., 0., 0.,
          0., 3.80092636e-02, 0., 5.06236404e-02, 0. ]
      - [ 1.95690826e-01, 1.58569172e-01, 1.83710515e-01, 1.39831707e-01,
          1.24809839e-01, 7.74458870e-02, 1.42459244e-01, 1.87938482e-01,
          2.98729300e-01, 1.26386642e-01, 2.84130871e-01, 1.76335990e-01,
          2.28424117e-01, 1.86510593e-01, 5.68045937e-02, 9.88852009e-02,
          9.71772671e-02, 2.21614629e-01, 1.86951771e-01, 1.08757496e-01,
          1.37354568e-01, 9.78308022e-02, 6.42545521e-02, 1.78427562e-01,
          1.91806853e-01, 2.24953145e-01, 0., 1.69747770e-01,
          1.77971572e-01, 1.38904750e-01, 0., 1.26304224e-01,
          1.46337971e-01, 9.41197127e-02, 8.21169838e-02, 3.87062281e-02,
          8.90014023e-02, 0., 0., 0., 1.55640626e-02, 0., 0., 0.,
          8.81810933e-02, 7.04019144e-02, 8.50875899e-02, 1.37592822e-01,
          6.67623952e-02, 7.52393454e-02, 5.60503863e-02, 0.,
          7.39907101e-02, 0., 0., 0., 0., 0., 0., 0., 1.15110949e-01,
          1.36480048e-01, 0., 0. ]
      - [ 1.29278347e-01, 1.49201691e-01, 1.42900825e-01, 2.23889634e-01,
          1.62927315e-01, 1.96511388e-01, 1.16563961e-01, 1.17440358e-01,
          2.08164081e-01, 2.37211719e-01, 1.57473579e-01, 1.93459183e-01,
          2.43241787e-01, 1.73776940e-01, 1.39712945e-01, 5.34959175e-02,
          1.05488002e-01, 1.20250665e-01, 6.25679791e-02, 1.33931100e-01,
          2.01116845e-01, 1.24389432e-01, 1.88923940e-01, 1.13834217e-01,
          2.98735112e-01, 1.22064635e-01, 1.31078035e-01, 1.35127574e-01,
          1.69277549e-01, 2.02401415e-01, 6.21534213e-02, 1.02039181e-01,
          5.00809401e-02, 8.83187577e-02, 7.14564845e-02, 0.,
          8.13591853e-02, 0., 0., 0., 0., 0., 0., 0., 1.41832709e-01,
          1.18823208e-01, 8.13046619e-02, 1.42027199e-01, 7.10074529e-02,
          0., 8.01255032e-02, 1.14786319e-01, 1.37669772e-01, 0., 0., 0.,
          0., 0., 0., 0., 8.27769786e-02, 0., 9.38339904e-02,
          8.10821876e-02 ]
      - [ 1.37277707e-01, 9.37432945e-02, 8.62069428e-02, 1.34326816e-01,
          2.33934313e-01, 1.01881422e-01, 8.13389644e-02, 1.89838022e-01,
          2.89303362e-01, 1.47167340e-01, 2.53592879e-01, 2.01090246e-01,
          1.63647905e-01, 1.70624509e-01, 1.43585652e-01, 1.84967756e-01,
          1.58327624e-01, 1.15743004e-01, 1.33816719e-01, 9.41226929e-02,
          1.86955899e-01, 1.89436793e-01, 1.43902287e-01, 2.49225870e-01,
          2.00458616e-01, 1.67952642e-01, 1.25263467e-01, 1.28870085e-01,
          1.56401902e-01, 1.21596418e-01, 9.72474441e-02, 8.50532576e-02,
          1.32669270e-01, 0., 0., 0., 7.54114240e-02, 0., 0., 0.,
          5.16151674e-02, 0., 5.74609376e-02, 0., 1.10540099e-01,
          4.20510061e-02, 1.30348399e-01, 1.36201754e-01, 1.04171179e-01,
          8.01614597e-02, 8.70224014e-02, 0., 8.66352171e-02, 0., 0., 0.,
          0., 0., 0., 0., 6.86545894e-02, 0., 0., 1.64122120e-01 ]
      - [ 1.22827418e-01, 1.47031263e-01, 1.49770737e-01, 1.06957592e-01,
          1.40582114e-01, 1.29328609e-01, 1.95250213e-01, 1.75629720e-01,
          2.82265633e-01, 1.14460446e-01, 1.95138782e-01, 1.46390557e-01,
          3.27063441e-01, 1.95897087e-01, 8.22143257e-02, 8.54973942e-02,
          1.63889274e-01, 1.84150055e-01, 1.38006538e-01, 1.68838322e-01,
          2.63301581e-01, 6.49444386e-02, 1.16455480e-01, 1.32351264e-01,
          2.11391211e-01, 1.16909690e-01, 1.43217787e-01, 1.96787745e-01,
          1.55427307e-01, 0., 5.33588305e-02, 0., 9.89315733e-02,
          6.96502700e-02, 0., 0., 9.39253345e-02, 0., 0., 0., 0., 0.,
          1.04124174e-01, 0., 1.46244019e-01, 0., 0., 1.90263689e-01,
          1.44437790e-01, 8.47479403e-02, 8.55125114e-02, 0.,
          1.26674563e-01, 0., 0., 0., 0., 0., 0., 0., 6.85354024e-02, 0.,
          0., 8.20555091e-02 ]
      - [ 1.96006879e-01, 9.98599231e-02, 6.99614733e-02, 0.,
          2.37036809e-01, 2.13443622e-01, 1.58962622e-01, 1.74754530e-01,
          1.55284807e-01, 2.39836708e-01, 1.84403867e-01, 1.96411610e-01,
          2.24497005e-01, 1.21691726e-01, 1.05205134e-01, 2.14405373e-01,
          1.12142652e-01, 6.57550097e-02, 1.70500845e-01, 1.00837857e-01,
          1.90476462e-01, 1.70146927e-01, 2.05847114e-01, 1.40934497e-01,
          1.95142031e-01, 1.50914520e-01, 1.43267751e-01, 1.66077271e-01,
          1.64446712e-01, 1.57989591e-01, 9.16591510e-02, 1.71512868e-02,
          9.42279920e-02, 0., 8.26854110e-02, 6.97634444e-02,
          1.16904125e-01, 0., 0., 0., 0., 0., 0., 0., 1.52569592e-01,
          9.35844406e-02, 1.50536329e-01, 0., 4.91911322e-02,
          7.51287565e-02, 1.27037734e-01, 5.63572869e-02, 1.46878928e-01,
          0., 0., 0., 4.76074144e-02, 0., 5.30133024e-02, 0.,
          1.28282189e-01, 0., 0., 0. ]
      - [ 1.43208653e-01, 5.83257116e-02, 1.47120848e-01, 1.48867548e-01,
          1.98315665e-01, 1.83923051e-01, 1.25251547e-01, 7.79956728e-02,
          1.21464916e-01, 9.13442522e-02, 2.75046557e-01, 2.87268192e-01,
          3.87636542e-01, 8.57700408e-02, 8.93767402e-02, 0.,
          1.09810196e-01, 1.50425822e-01, 2.14434624e-01, 1.08839966e-01,
          2.01078266e-01, 2.14307874e-01, 2.13690206e-01, 1.89663380e-01,
          2.04112887e-01, 2.13826671e-01, 1.15783021e-01, 0.,
          1.87536608e-02, 0., 0., 2.88517810e-02, 0., 0., 0., 0., 0., 0.,
          0., 0., 1.87536608e-02, 0., 0., 0., 2.35481888e-01,
          9.21889842e-02, 5.27920984e-02, 3.68818790e-02, 2.92254705e-02,
          0., 1.81146607e-01, 0., 1.60857260e-01, 0., 0., 0., 0., 0., 0.,
          0., 0., 0., 0., 0. ]
      - [ 2.45993629e-01, 1.16492920e-01, 8.85126591e-02, 8.51963386e-02,
          1.43214479e-01, 5.74677549e-02, 1.82609364e-01, 2.46939048e-01,
          3.10306698e-01, 1.51701152e-01, 8.28346089e-02, 2.49754302e-02,
          1.77756160e-01, 1.43380165e-01, 2.24667415e-01, 2.84124821e-01,
          2.23083347e-01, 2.00090975e-01, 1.43813729e-01, 8.44174474e-02,
          8.21520910e-02, 1.58323482e-01, 1.82848454e-01, 1.97709993e-01,
          2.11447328e-01, 1.31307840e-01, 9.33421776e-02, 1.12863488e-01,
          1.25510916e-01, 1.28831699e-01, 1.70117006e-01, 1.52606457e-01,
          4.54758741e-02, 0., 0., 0., 1.04710124e-01, 0., 1.01751417e-01,
          7.99245015e-02, 7.65769482e-02, 0., 7.95906484e-02, 0.,
          1.12285063e-01, 0., 0., 3.33419666e-02, 9.81090292e-02,
          8.35870728e-02, 0., 0., 8.73688236e-02, 0., 0., 0., 0.,
          4.49890457e-02, 5.12479171e-02, 0., 7.31928721e-02, 0., 0.,
          5.16048111e-02 ]
      - [ 1.80487245e-01, 1.05816975e-01, 5.45125678e-02, 1.11116566e-01,
          1.84823498e-01, 1.32494017e-01, 1.75788850e-01, 1.27975926e-01,
          2.38890067e-01, 1.72254086e-01, 2.12296665e-01, 2.27014929e-01,
          1.49912775e-01, 2.02053085e-01, 1.26338243e-01, 1.27568662e-01,
          1.80872738e-01, 1.70966700e-01, 1.61309645e-01, 1.14586271e-01,
          1.01904295e-01, 1.91617355e-01, 1.92874208e-01, 2.06148699e-01,
          2.41112009e-01, 1.28130257e-01, 1.16960280e-01, 1.64354622e-01,
          1.06908798e-01, 1.31593153e-01, 1.52600631e-01, 3.97781543e-02,
          9.51106995e-02, 1.32403031e-01, 0., 0., 1.05446808e-01, 0., 0.,
          0., 2.00271625e-02, 0., 0., 0., 1.19639561e-01, 0.,
          1.44520849e-01, 1.30244747e-01, 1.16853863e-01, 0.,
          8.30866396e-02, 7.89267942e-02, 1.10502839e-01, 0., 0., 0.,
          2.21408606e-02, 0., 0., 0., 1.00469045e-01, 0., 1.05061188e-01,
          1.24091469e-01 ]
      - [ 1.51832253e-01, 1.59026980e-01, 2.43792370e-01, 1.16320364e-01,
          1.47194773e-01, 8.53659809e-02, 3.13502625e-02, 1.56909496e-01,
          1.96779013e-01, 2.04975545e-01, 2.48704419e-01, 1.60675675e-01,
          2.55021960e-01, 1.45919621e-01, 1.59352750e-01, 1.34897739e-01,
          1.78027302e-01, 0., 1.92693934e-01, 1.31178126e-01,
          1.89362541e-01, 1.59770951e-01, 1.92073748e-01, 2.60515720e-01,
          1.71904385e-01, 1.18282422e-01, 1.79878831e-01, 9.72543955e-02,
          1.25172451e-01, 0., 1.10983707e-01, 1.77759483e-01,
          8.43163505e-02, 0., 7.45562911e-02, 0., 8.54826495e-02, 0., 0.,
          3.80030088e-02, 0., 9.06868055e-02, 0., 0., 1.06138565e-01, 0.,
          1.04464941e-01, 1.13495693e-01, 6.38703927e-02, 7.16452673e-02,
          1.26988053e-01, 0., 1.28322870e-01, 0., 0., 0., 0., 0., 0., 0.,
          1.01993769e-01, 0., 1.08527943e-01, 0. ]
      - [ 1.05455279e-01, 1.74516976e-01, 1.20546967e-01, 1.49969086e-01,
          2.04643667e-01, 2.13328362e-01, 1.77503780e-01, 1.34189844e-01,
          1.19012251e-01, 2.52298534e-01, 1.85694858e-01, 3.13949376e-01,
          2.65087724e-01, 5.32923564e-02, 5.99358007e-02, 1.14788592e-01,
          2.64006317e-01, 2.12160021e-01, 8.34362283e-02, 1.07102253e-01,
          1.52883396e-01, 1.04587428e-01, 1.36658296e-01, 1.58432052e-01,
          2.25004897e-01, 2.11505249e-01, 8.01670328e-02, 0.,
          1.24335997e-01, 4.89955917e-02, 0., 9.99488831e-02,
          1.04529522e-01, 1.50309518e-01, 0., 0., 1.18275374e-01, 0., 0.,
          0., 1.32373851e-02, 0., 0., 0., 1.48815140e-01, 7.66611993e-02,
          0., 7.09765255e-02, 2.09301431e-02, 6.60781860e-02,
          6.80158883e-02, 0., 1.64334059e-01, 0., 0., 0., 0.,
          4.83832322e-02, 0., 8.24181512e-02, 1.16408736e-01,
          5.49298488e-02, 0., 0. ]
      - [ 2.06118867e-01, 2.03333959e-01, 1.15983181e-01, 1.39857009e-01,
          1.46588281e-01, 2.33904243e-01, 1.25082597e-01, 1.93263486e-01,
          2.37443388e-01, 2.46905684e-01, 1.27999216e-01, 2.37696424e-01,
          2.03994498e-01, 6.86457455e-02, 0., 2.99476851e-02,
          2.70059764e-01, 2.09280267e-01, 1.74607173e-01, 9.23733860e-02,
          9.70055610e-02, 5.09151742e-02, 1.18664607e-01, 8.00017118e-02,
          3.31563532e-01, 1.65151998e-01, 5.03882356e-02, 8.80966485e-02,
          1.24513917e-01, 7.78792277e-02, 7.88635835e-02, 1.38483837e-01,
          1.13271229e-01, 1.05797686e-01, 0., 0., 1.64892972e-01,
          7.01245591e-02, 0., 0., 0., 0., 0., 0., 1.25358284e-01,
          9.68068391e-02, 9.80016366e-02, 1.34571642e-01, 1.14819305e-02,
          7.64772967e-02, 0., 0., 6.05392903e-02, 0., 0., 4.00330648e-02,
          0., 0., 6.84332922e-02, 2.37415452e-02, 9.15299356e-02, 0., 0.,
          0. ]
      - [ 2.01795772e-01, 2.14638278e-01, 1.58794180e-01, 1.13303930e-01,
          1.43584788e-01, 1.47843391e-01, 1.25182495e-01, 1.68307394e-01,
          3.40901196e-01, 1.50106117e-01, 1.47522867e-01, 7.81551152e-02,
          1.08046636e-01, 1.41890928e-01, 1.79797336e-01, 2.07852632e-01,
          2.12262481e-01, 7.81709179e-02, 1.31380200e-01, 1.42236933e-01,
          1.35083169e-01, 9.05762315e-02, 1.14367738e-01, 2.92741984e-01,
          1.51721075e-01, 1.75553977e-01, 8.61748978e-02, 4.83375341e-02,
          1.55366078e-01, 1.35234892e-01, 1.22562222e-01, 2.47125313e-01,
          9.23095047e-02, 6.71133846e-02, 1.02191880e-01, 0.,
          1.20624654e-01, 0., 0., 0., 0., 0., 0., 0., 9.11604986e-02,
          4.19621356e-02, 8.68969336e-02, 8.45132247e-02, 9.34182927e-02,
          0., 9.35022533e-02, 0., 8.85271505e-02, 0., 0., 0., 0., 0., 0.,
          9.14024562e-02, 1.44764259e-01, 0., 0., 3.63331549e-02 ]
      - [ 1.18572108e-01, 7.31019899e-02, 6.84907436e-02, 9.86527503e-02,
          1.14273436e-01, 9.79427695e-02, 1.06243029e-01, 2.48103663e-01,
          2.85802513e-01, 2.78541684e-01, 2.11966634e-01, 1.33541480e-01,
          1.52027786e-01, 1.52633414e-01, 1.92947760e-01, 9.89906266e-02,
          1.79856971e-01, 1.81799531e-01, 1.72244042e-01, 1.71033308e-01,
          1.19413733e-01, 1.56450808e-01, 1.79572523e-01, 2.54832447e-01,
          2.40339547e-01, 1.42117426e-01, 1.30905151e-01, 1.80941492e-01,
          1.60675019e-01, 8.18576291e-02, 8.22609663e-02, 0.,
          1.10897392e-01, 0., 0., 0., 3.09132002e-02, 0., 0., 0., 0., 0.,
          0., 0., 1.46711752e-01, 0., 1.74160987e-01, 1.16078608e-01,
          1.21583454e-01, 1.17983319e-01, 7.53624961e-02, 0.,
          1.21985495e-01, 0., 0., 0., 0., 0., 0., 0., 0., 0., 0., 0. ]
      - [ 1.58387899e-01, 7.55950436e-02, 1.49012506e-01, 2.66267419e-01,
          1.59635708e-01, 1.00817025e-01, 1.49013013e-01, 1.81242228e-01,
          2.43791908e-01, 1.22879229e-01, 2.08521172e-01, 2.12293103e-01,
          2.63125598e-01, 1.58496901e-01, 8.58378857e-02, 1.67520970e-01,
          1.35297880e-01, 7.83971697e-02, 4.59254198e-02, 2.15907127e-01,
          1.86606348e-01, 1.77943215e-01, 2.10464641e-01, 1.34060919e-01,
          2.03628033e-01, 9.97034833e-02, 1.51054874e-01, 1.10239208e-01,
          2.27910593e-01, 1.76695004e-01, 6.76567182e-02, 5.24196103e-02,
          3.54919881e-02, 7.36688748e-02, 3.59821618e-02, 6.22631498e-02,
          8.60972703e-02, 0., 0., 0., 0., 0., 0., 0., 1.38163015e-01,
          7.85064027e-02, 1.58802658e-01, 6.96355179e-02, 5.83859943e-02,
          1.12846777e-01, 3.31424363e-02, 0., 1.20886497e-01, 0., 0., 0.,
          4.72087599e-02, 3.08923963e-02, 0., 0., 4.77191396e-02,
          4.26849946e-02, 0., 0. ]
      - [ 8.88389871e-02, 9.92473140e-02, 7.81079978e-02, 1.37777224e-01,
          2.35951796e-01, 1.78999513e-01, 1.87400535e-01, 1.21323958e-01,
          1.30176753e-01, 2.02937454e-01, 2.34176323e-01, 2.64402926e-01,
          2.24193066e-01, 1.67742804e-01, 1.78984106e-01, 1.27789304e-01,
          1.26382932e-01, 0., 2.82284319e-01, 1.26533985e-01,
          1.19889915e-01, 1.54075101e-01, 2.85046935e-01, 1.67525917e-01,
          1.58832252e-01, 1.87062815e-01, 2.16024995e-01, 5.93498237e-02,
          9.29732174e-02, 0., 0., 2.00001597e-02, 4.69891801e-02, 0., 0.,
          0., 3.06523610e-02, 3.27617116e-02, 0., 0., 0., 0., 0.,
          4.49997783e-02, 1.90267280e-01, 1.41399279e-01, 6.36306107e-02,
          0., 3.44876386e-02, 0., 1.52780235e-01, 1.02149658e-01,
          1.71488941e-01, 0., 0., 0., 2.37432178e-02, 0., 0., 0., 0., 0.,
          0., 0. ]
      - [ 1.09471761e-01, 3.98676619e-02, 2.57746369e-01, 1.55300021e-01,
          1.02159195e-01, 1.07896589e-01, 9.88892838e-02, 9.21849161e-02,
          2.49321431e-01, 2.28636205e-01, 1.47953838e-01, 2.21560821e-01,
          3.05567205e-01, 1.80356920e-01, 1.05387270e-01, 1.02320306e-01,
          1.60265401e-01, 1.61735967e-01, 1.23137154e-01, 1.62806869e-01,
          1.47442952e-01, 2.39468068e-01, 2.41917044e-01, 9.05232280e-02,
          2.42891818e-01, 1.22488149e-01, 8.64120945e-02, 1.51240274e-01,
          1.62407786e-01, 9.91899073e-02, 8.60858783e-02, 0.,
          1.06489748e-01, 2.99709775e-02, 8.09753761e-02, 0.,
          7.43732005e-02, 0., 0., 0., 0., 0., 0., 0., 1.18443422e-01,
          1.00401841e-01, 1.19299665e-01, 1.19348027e-01, 5.87119013e-02,
          5.21066673e-02, 1.33593887e-01, 0., 1.27672166e-01, 0., 0., 0.,
          0., 0., 0., 0., 8.71145055e-02, 0., 9.15960595e-02,
          4.63301353e-02 ]
      - [ 1.47042304e-01, 1.59036249e-01, 1.48046196e-01, 2.09155604e-01,
          1.44463539e-01, 1.62424669e-01, 1.41710311e-01, 1.41102701e-01,
          2.75279611e-01, 2.23214298e-01, 2.17666090e-01, 2.26073772e-01,
          1.43206984e-01, 1.70290872e-01, 1.44973472e-01, 1.20142430e-01,
          1.57346770e-01, 8.00598487e-02, 2.06653818e-01, 1.46018073e-01,
          1.26978099e-01, 0., 9.50064585e-02, 1.55277774e-01,
          2.53173202e-01, 1.34529561e-01, 1.67127043e-01, 1.77705735e-01,
          1.80251837e-01, 1.17689297e-01, 1.02707110e-01, 8.35721046e-02,
          7.72609487e-02, 0., 9.72180441e-02, 8.92018601e-02,
          1.23084925e-01, 0., 0., 0., 2.01839600e-02, 0., 0., 0.,
          1.15618154e-01, 1.06776759e-01, 8.96610543e-02, 1.17113024e-01,
          2.85444297e-02, 0., 8.23452547e-02, 0., 1.01631120e-01, 0., 0.,
          0., 0., 3.17629836e-02, 0., 1.21854268e-01, 1.32066205e-01,
          6.64191991e-02, 0., 0. ]
      - [ 1.28339618e-01, 1.65473849e-01, 9.50010046e-02, 1.29049912e-01,
          1.73676342e-01, 1.18592799e-01, 1.24048479e-01, 2.46559992e-01,
          3.26487869e-01, 8.12638998e-02, 1.31253198e-01, 1.98307544e-01,
          1.71422735e-01, 1.83275774e-01, 6.69559166e-02, 2.29276553e-01,
          1.72363818e-01, 1.00465268e-01, 1.13541365e-01, 1.47915319e-01,
          1.23796143e-01, 1.65484309e-01, 1.75348029e-01, 2.82221556e-01,
          1.97507799e-01, 1.40438229e-01, 1.04847878e-01, 1.27119660e-01,
          1.56601056e-01, 1.45907521e-01, 1.38073862e-01, 6.51409775e-02,
          1.05450079e-01, 0., 0., 0., 3.24070603e-02, 0., 0., 0., 0., 0.,
          0., 0., 1.16270199e-01, 0., 1.12025470e-01, 2.04818130e-01,
          1.83775902e-01, 1.16051987e-01, 0., 0., 9.81362239e-02, 0., 0.,
          0., 0., 0., 0., 0., 2.31577493e-02, 0., 0., 0. ]
      - [ 2.69915134e-01, 6.79465011e-02, 0., 5.10279350e-02,
          1.90564573e-01, 1.83609784e-01, 1.61993563e-01, 1.88982844e-01,
          3.13650131e-01, 9.04310420e-02, 1.13120064e-01, 8.78245011e-02,
          9.94089320e-02, 5.30428067e-02, 1.36640593e-01, 2.93775171e-01,
          9.44889709e-02, 1.48338675e-01, 4.51651812e-02, 8.02443624e-02,
          8.33314434e-02, 1.20480783e-01, 2.17283249e-01, 1.85879856e-01,
          2.61544675e-01, 1.89963832e-01, 1.49632692e-01, 1.02639027e-01,
          1.37678310e-01, 1.10911176e-01, 2.10826084e-01, 8.38680416e-02,
          1.36339113e-01, 1.05859540e-01, 0., 0., 8.15487429e-02, 0., 0.,
          0., 0., 0., 0., 0., 1.21380851e-01, 0., 1.42484456e-01,
          1.44576117e-01, 2.02262461e-01, 0., 0., 0., 1.00518115e-01, 0.,
          0., 0., 0., 0., 0., 0., 9.54561308e-02, 0., 1.04078054e-01,
          1.30682513e-01 ]
      - [ 2.29185969e-01, 1.53317004e-01, 1.30491480e-01, 0.,
          1.42173469e-01, 1.67991713e-01, 1.36264086e-01, 2.28596583e-01,
          3.02286714e-01, 2.36997440e-01, 2.87693329e-02, 1.86375782e-01,
          1.76028833e-01, 1.69529647e-01, 1.15434378e-01, 1.44801393e-01,
          1.30279347e-01, 1.05588682e-01, 8.46872330e-02, 9.63210762e-02,
          1.71959624e-01, 1.33714840e-01, 1.24062777e-01, 3.23288143e-01,
          2.06814423e-01, 1.15959987e-01, 9.14559588e-02, 1.10587463e-01,
          1.60288781e-01, 1.43488631e-01, 9.06863734e-02, 1.71174347e-01,
          8.27571675e-02, 0., 0., 4.67110090e-02, 3.57159413e-02, 0., 0.,
          0., 0., 0., 0., 0., 1.33262068e-01, 9.16955322e-02, 0.,
          1.88963369e-01, 1.29515216e-01, 1.55655012e-01, 0., 0.,
          1.11827284e-01, 0., 0., 0., 0., 0., 0., 0., 3.29760648e-02, 0.,
          0., 1.05974048e-01 ]
      - [ 1.94026396e-01, 2.00312898e-01, 1.15384400e-01, 1.09405451e-01,
          1.08268924e-01, 6.70282468e-02, 1.67300642e-01, 1.41381562e-01,
          1.82218224e-01, 2.94874907e-01, 2.35989720e-01, 0.,
          1.84355855e-01, 1.60566628e-01, 9.23084617e-02, 2.13729486e-01,
          1.85788363e-01, 1.06683582e-01, 1.03920989e-01, 9.99508500e-02,
          1.97466791e-01, 1.97134808e-01, 2.41764590e-01, 1.66794568e-01,
          2.59784520e-01, 1.32600412e-01, 1.57935783e-01, 1.12726949e-01,
          8.33316445e-02, 2.78287977e-02, 1.12824790e-01, 9.54453126e-02,
          7.36676455e-02, 0., 9.83225033e-02, 3.74763012e-02,
          1.06938891e-01, 0., 0., 0., 0., 0., 0., 9.68738571e-02,
          1.41261414e-01, 7.85618350e-02, 9.48698819e-02, 1.04653716e-01,
          1.13765039e-01, 1.11457281e-01, 0., 0., 9.96928886e-02, 0., 0.,
          0., 0., 0., 0., 0., 1.04620486e-01, 0., 0., 1.73765004e-01 ]
      - [ 2.16723353e-01, 0., 0., 1.18830949e-02, 1.78750418e-02, 0., 0.,
          3.15755427e-01, 3.99731696e-01, 3.45037580e-02, 4.16390784e-02,
          1.16523884e-01, 0., 0., 0., 4.63682830e-01, 3.43581885e-01, 0.,
          0., 0., 0., 6.57403469e-02, 8.71863589e-02, 4.42175239e-01,
          1.55446067e-01, 0., 0., 0., 1.26395626e-02, 0., 5.31428168e-03,
          3.30998302e-01, 1.19594894e-02, 5.31428168e-03, 0., 0.,
          1.26395626e-02, 0., 5.31428168e-03, 7.94670451e-03,
          2.14775056e-02, 0., 0., 0., 0., 0., 0., 0., 2.75472887e-02, 0.,
          0., 0., 0., 0., 0., 0., 0., 0., 0., 0., 1.09461825e-02, 0.,
          1.31067494e-02, 1.55895622e-02 ]
      - [ 3.40736419e-01, 1.80458412e-01, 0., 0., 2.89312266e-02, 0., 0.,
          0., 2.02494845e-01, 4.41591263e-01, 1.15964405e-01,
          1.23971045e-01, 9.73569378e-02, 6.04712069e-02, 9.73525867e-02,
          1.59968033e-01, 1.58405110e-01, 1.46886066e-01, 0.,
          1.22205794e-01, 2.28614941e-01, 1.43141136e-01, 1.87530488e-01,
          2.63883978e-01, 3.02681476e-01, 1.48796558e-01, 0.,
          4.64775898e-02, 8.97452012e-02, 5.67933358e-02, 8.46857876e-02,
          1.37903750e-01, 4.43310589e-02, 2.91533433e-02, 0., 0.,
          2.53743641e-02, 0., 0., 0., 0., 0., 0., 0., 9.95761976e-02,
          6.96740523e-02, 1.24147095e-01, 1.06356151e-01, 2.26091743e-01,
          0., 0., 0., 8.86288434e-02, 0., 0., 0., 0., 0., 0., 0.,
          6.83225691e-02, 0., 0., 1.90611184e-01 ]
      - [ 1.11971803e-01, 1.00680396e-01, 1.38429940e-01, 1.53335139e-01,
          2.27564946e-01, 1.83820993e-01, 7.48043880e-02, 1.31119564e-01,
          2.00475737e-01, 2.26350218e-01, 2.22055405e-01, 2.00340465e-01,
          2.47576311e-01, 1.40325382e-01, 9.06813666e-02, 1.12943970e-01,
          1.24643028e-01, 1.71650171e-01, 2.01874763e-01, 1.73881009e-01,
          1.73145950e-01, 1.70247495e-01, 5.41058481e-02, 8.43781680e-02,
          2.48283610e-01, 2.22039685e-01, 9.37380493e-02, 1.95394218e-01,
          2.10880771e-01, 1.25552848e-01, 0., 6.47637323e-02,
          2.78024264e-02, 0., 1.15257315e-01, 0., 1.11209705e-01, 0., 0.,
          0., 0., 0., 0., 0., 1.55204833e-01, 8.37045088e-02,
          9.91829410e-02, 8.06057155e-02, 0., 0., 7.03575090e-02,
          4.10143323e-02, 1.12022713e-01, 0., 0., 0., 4.78331037e-02,
          2.60404795e-02, 0., 1.42016500e-01, 1.41218811e-01, 0., 0., 0. ]
      - [ 1.16248578e-01, 9.81008485e-02, 9.85866338e-02, 1.42304450e-01,
          1.65185407e-01, 9.83643308e-02, 1.69480890e-01, 2.61409193e-01,
          2.27246433e-01, 2.30819687e-01, 1.34336084e-01, 1.39570907e-01,
          1.82807222e-01, 2.40282774e-01, 1.84705466e-01, 1.50063872e-01,
          1.41781703e-01, 1.90423653e-01, 8.99438933e-02, 1.39842227e-01,
          1.90378428e-01, 1.74591318e-01, 1.41348988e-01, 1.63511902e-01,
          2.76478648e-01, 1.54787168e-01, 8.30204785e-02, 1.28772572e-01,
          1.69026613e-01, 1.05987065e-01, 1.16247617e-01, 5.40886112e-02,
          0., 1.35036260e-01, 0., 0., 1.00885324e-01, 0., 0., 0.,
          1.19032348e-02, 0., 0., 0., 1.50299028e-01, 0., 1.65947571e-01,
          1.28658995e-01, 1.20815143e-01, 1.05733983e-01, 6.22238331e-02,
          0., 9.70679373e-02, 0., 0., 0., 0., 0., 0., 0., 5.99116310e-02,
          0., 0., 8.47058296e-02 ]
      - [ 1.48716524e-01, 4.53733094e-02, 1.25441119e-01, 2.28599429e-01,
          2.80654162e-01, 1.45627230e-01, 1.53694540e-01, 1.42002165e-01,
          1.63774580e-01, 2.25355148e-01, 1.38309896e-01, 2.42779449e-01,
          2.68938452e-01, 1.58377796e-01, 1.21966742e-01, 1.28635481e-01,
          7.18518570e-02, 6.87278658e-02, 9.68830809e-02, 1.36179000e-01,
          2.04256728e-01, 1.04076535e-01, 1.64660826e-01, 1.72102883e-01,
          2.50432968e-01, 0., 1.53842896e-01, 1.60173774e-01,
          1.38847739e-01, 1.63253069e-01, 1.69783115e-01, 8.55080634e-02,
          6.78471550e-02, 0., 8.86180401e-02, 7.33389854e-02,
          1.00737870e-01, 0., 0., 0., 6.65694568e-03, 0., 0., 0.,
          1.35819927e-01, 7.61020854e-02, 1.20865166e-01, 8.22928026e-02,
          7.70597160e-02, 1.39662042e-01, 3.58447544e-02, 0.,
          1.29168764e-01, 0., 3.23634706e-02, 0., 0., 0., 0.,
          4.13496010e-02, 1.08367227e-01, 8.23815241e-02, 0., 0. ]
      - [ 1.19086012e-01, 1.88688338e-01, 1.44703642e-01, 2.06408873e-01,
          1.74887761e-01, 1.28968865e-01, 8.94446522e-02, 1.16258584e-01,
          3.20337355e-01, 1.40609533e-01, 1.38398364e-01, 1.79622680e-01,
          2.29924187e-01, 1.74205661e-01, 1.50011316e-01, 1.21459231e-01,
          1.40760019e-01, 1.10198289e-01, 1.25756741e-01, 1.55427665e-01,
          1.80820629e-01, 1.99864194e-01, 1.21141680e-01, 1.51855335e-01,
          2.52996862e-01, 1.24902412e-01, 2.19896227e-01, 7.08427429e-02,
          1.41912669e-01, 2.01341122e-01, 1.14533037e-01, 9.88111570e-02,
          1.05014548e-01, 7.82514364e-02, 0., 0., 6.31860867e-02, 0., 0.,
          0., 0., 0., 0., 0., 1.15662411e-01, 7.48628229e-02,
          1.54226452e-01, 3.67601812e-02, 0., 1.03438728e-01,
          7.80727416e-02, 0., 1.42690167e-01, 0., 0., 0., 5.90421259e-02,
          0., 0., 0., 9.29539949e-02, 0., 1.01343594e-01, 0. ]
      - [ 1.20919183e-01, 1.30078986e-01, 1.10515647e-01, 0.,
          1.27529338e-01, 2.45771974e-01, 1.96591467e-01, 1.84658259e-01,
          2.41995603e-01, 1.41725779e-01, 1.32154018e-01, 1.93325087e-01,
          1.51962832e-01, 1.17233507e-01, 1.56897277e-01, 2.20152840e-01,
          1.87607870e-01, 1.85994029e-01, 0., 7.22171888e-02,
          7.86019787e-02, 9.65211168e-02, 2.97794580e-01, 1.46639392e-01,
          2.20765755e-01, 1.14835806e-01, 2.00011402e-01, 1.39765367e-01,
          1.17022030e-01, 2.21439093e-01, 9.91583094e-02, 7.99931958e-02,
          1.22354820e-01, 7.56129548e-02, 6.42107129e-02, 0.,
          8.24335515e-02, 0., 0., 0., 0., 0., 0., 0., 1.24905691e-01, 0.,
          1.97763383e-01, 0., 7.90923387e-02, 1.19373821e-01,
          1.11928985e-01, 0., 1.40206292e-01, 0., 0., 0., 0., 0., 0., 0.,
          9.00707692e-02, 0., 9.69120488e-02, 7.61439651e-02 ]
      - [ 1.53096586e-01, 1.21063173e-01, 2.16875523e-01, 9.75161120e-02,
          1.56185523e-01, 1.67875066e-01, 1.96079046e-01, 1.97538361e-01,
          1.26372978e-01, 1.90410435e-01, 3.26941043e-01, 1.89234093e-01,
          1.94102466e-01, 8.69837254e-02, 1.47597879e-01, 1.00291349e-01,
          1.20522834e-01, 1.16965003e-01, 1.82850629e-01, 1.77881971e-01,
          1.97916359e-01, 4.20506857e-02, 1.19633801e-01, 1.36937574e-01,
          1.94483176e-01, 2.15642750e-01, 1.57732442e-01, 1.66748375e-01,
          1.82607010e-01, 9.56780612e-02, 6.59016743e-02, 1.50455907e-01,
          1.10032566e-01, 9.50086787e-02, 8.98555070e-02, 5.19375429e-02,
          1.14346109e-01, 0., 0., 0., 0., 0., 0., 0., 1.05051450e-01,
          1.17053255e-01, 0., 9.98166800e-02, 4.48913611e-02,
          7.29379803e-02, 0., 0., 5.83669916e-02, 6.47998601e-02, 0.,
          2.82877330e-02, 3.75249796e-02, 0., 0., 8.26682225e-02,
          1.39517471e-01, 0., 0., 7.99954608e-02 ]
      - [ 2.31448084e-01, 1.06271967e-01, 1.01845555e-01, 0.,
          1.28577515e-01, 6.71249703e-02, 1.95781827e-01, 2.59279370e-01,
          2.71585584e-01, 2.94888854e-01, 1.20560035e-01, 1.65087700e-01,
          1.29821643e-01, 2.18887642e-01, 9.66635868e-02, 1.32233620e-01,
          1.47699878e-01, 2.44348601e-01, 1.36781856e-01, 6.76066726e-02,
          7.30651096e-02, 1.59887344e-01, 1.56019673e-01, 2.12276727e-01,
          2.57076293e-01, 1.87841550e-01, 1.28907368e-01, 0.,
          1.89328939e-02, 0., 0., 0., 1.15838684e-01, 0., 0., 0.,
          2.85424106e-02, 0., 0., 0., 0., 0., 0., 0., 1.22566313e-01, 0.,
          1.67078808e-01, 2.13289991e-01, 1.97425872e-01, 1.55808210e-01,
          0., 0., 1.21229671e-01, 0., 0., 0., 0., 0., 0., 0., 0., 0., 0.,
          0. ]
      - [ 2.02912226e-01, 2.40452483e-01, 1.20652564e-01, 1.01926401e-01,
          1.42272085e-01, 1.88280389e-01, 1.92269936e-01, 1.11104064e-01,
          2.75217801e-01, 2.75312245e-01, 2.36976326e-01, 1.59638017e-01,
          1.13561913e-01, 1.89984798e-01, 8.66120085e-02, 1.04438201e-01,
          1.59110695e-01, 1.88812196e-01, 1.45086482e-01, 9.02825296e-02,
          1.29557833e-01, 0., 1.49282485e-01, 1.45715237e-01,
          2.13447601e-01, 2.23660767e-01, 1.36194929e-01, 1.57977626e-01,
          2.08476931e-01, 1.15953654e-01, 6.93465248e-02, 0.,
          7.89551735e-02, 0., 1.11163460e-01, 0., 9.79438946e-02, 0., 0.,
          4.47561033e-02, 4.50476408e-02, 0., 0., 4.53996398e-02,
          9.67254713e-02, 8.86485577e-02, 0., 1.48427695e-01,
          5.18473759e-02, 6.31165802e-02, 5.76813109e-02, 0.,
          6.16038591e-02, 0., 0., 0., 0., 0., 0., 0., 1.49216041e-01, 0.,
          8.54083449e-02, 4.81928959e-02 ]
      - [ 1.81484520e-01, 1.34764120e-01, 1.40228167e-01, 1.80949405e-01,
          9.34421122e-02, 1.15268797e-01, 1.78653598e-01, 2.27690905e-01,
          2.71264046e-01, 2.08349109e-01, 4.69281748e-02, 2.01360747e-01,
          1.64959565e-01, 1.96498513e-01, 1.30849674e-01, 1.17728971e-01,
          1.69695392e-01, 1.31197855e-01, 1.32650197e-01, 7.26619065e-02,
          1.26255617e-01, 2.05332622e-01, 1.75689742e-01, 1.96736008e-01,
          2.64418602e-01, 8.47779214e-02, 1.15079172e-01, 1.69840693e-01,
          1.42283380e-01, 1.47841975e-01, 8.27620476e-02, 1.02773398e-01,
          1.27890989e-01, 0., 0., 0., 5.42969741e-02, 0., 0., 0., 0., 0.,
          0., 0., 1.11888357e-01, 0., 1.63864374e-01, 1.62942603e-01,
          1.27176866e-01, 8.71042609e-02, 9.98107791e-02, 0.,
          1.14343584e-01, 0., 0., 0., 0., 0., 0., 0., 6.97916597e-02, 0.,
          0., 1.48355737e-01 ]
      - [ 1.18156381e-01, 7.40924701e-02, 1.06184527e-01, 6.45065382e-02,
          1.50882646e-01, 1.74839512e-01, 1.18399166e-01, 1.84393048e-01,
          2.40633324e-01, 2.71084726e-01, 2.14400440e-01, 1.42771766e-01,
          1.89978108e-01, 1.96847871e-01, 1.60887703e-01, 1.87712327e-01,
          1.47183001e-01, 1.30300254e-01, 1.54080793e-01, 1.67129397e-01,
          2.36130595e-01, 2.07696989e-01, 1.90875709e-01, 1.71974197e-01,
          1.93411380e-01, 1.62350491e-01, 9.36967731e-02, 1.21838398e-01,
          1.89000443e-01, 1.62544742e-01, 3.61026824e-02, 0.,
          1.36878729e-01, 7.39607885e-02, 0., 0., 7.61348680e-02, 0., 0.,
          0., 0., 0., 0., 0., 1.08771548e-01, 0., 1.48720860e-01,
          8.02416354e-02, 7.82908723e-02, 9.87633020e-02, 9.45224315e-02,
          0., 1.17880285e-01, 0., 0., 0., 0., 0., 0., 0., 7.76835307e-02,
          0., 8.78476351e-02, 3.38496305e-02 ]
      - [ 2.72275191e-02, 8.30455050e-02, 2.07533598e-01, 2.36795679e-01,
          3.03109810e-02, 7.34884664e-02, 0., 6.41344115e-02,
          1.32109895e-01, 2.43485659e-01, 2.79587299e-01, 2.35792607e-01,
          2.25919813e-01, 2.94721335e-01, 8.34045261e-02, 1.29978091e-01,
          9.11914259e-02, 1.12496980e-01, 1.36498466e-01, 2.33260751e-01,
          2.49127477e-01, 2.07929611e-01, 1.92642555e-01, 1.42101482e-01,
          1.43624604e-01, 1.00877091e-01, 1.00350782e-01, 1.81409225e-01,
          1.38778970e-01, 1.33386493e-01, 0., 1.09266117e-01,
          2.66290400e-02, 0., 7.42718130e-02, 1.01598665e-01,
          1.08465247e-01, 0., 0., 0., 0., 0., 0., 0., 1.81404203e-01,
          1.56644613e-01, 2.44591553e-02, 0., 4.61228490e-02,
          5.38216121e-02, 8.24364796e-02, 8.86344686e-02, 1.28212169e-01,
          0., 2.43788883e-02, 0., 0., 0., 0., 0., 6.52275607e-02,
          5.72560728e-02, 2.32754871e-02, 0. ]
      - [ 2.68091977e-01, 1.44046754e-01, 7.04184920e-02, 1.98514417e-01,
          1.34622574e-01, 1.07841514e-01, 1.85526311e-01, 1.64506331e-01,
          2.88081676e-01, 2.21797794e-01, 1.53774664e-01, 6.75120652e-02,
          1.29982039e-01, 1.47869676e-01, 1.70800865e-01, 1.14526868e-01,
          1.57423437e-01, 1.52467459e-01, 4.55798395e-02, 1.42051280e-01,
          1.39027938e-01, 1.04027994e-01, 1.55900553e-01, 3.10882598e-01,
          1.91479862e-01, 1.45588577e-01, 1.48670331e-01, 1.37637749e-01,
          1.97366923e-01, 9.60890502e-02, 1.09923676e-01, 4.16637473e-02,
          1.30164161e-01, 0., 0., 0., 4.01774086e-02, 0., 0., 0., 0., 0.,
          0., 0., 1.06608897e-01, 0., 1.47578329e-01, 7.27310553e-02,
          1.46115869e-01, 1.71109349e-01, 0., 0., 1.41990602e-01, 0., 0.,
          0., 0., 0., 0., 0., 6.07425347e-02, 0., 0., 1.28695622e-01 ]
      - [ 4.63623494e-01, 0., 0., 0., 0., 0., 0., 0., 4.85597104e-01,
          1.51146427e-01, 1.13925964e-01, 0., 1.16475724e-01,
          1.41988203e-01, 6.31394982e-02, 1.40132353e-01, 4.45472926e-01,
          1.11646153e-01, 1.18364796e-01, 0., 2.63184402e-02,
          1.19740352e-01, 1.10665284e-01, 1.21503301e-01, 4.27576095e-01,
          9.43672471e-03, 0., 0., 0., 0., 0., 0., 6.28038123e-02, 0., 0.,
          0., 6.31071860e-03, 0., 0., 0., 0., 0., 0., 0., 1.09304851e-02,
          0., 2.33833455e-02, 2.93207634e-02, 2.09302846e-02,
          1.31732197e-02, 0., 0., 8.92470311e-03, 0., 0., 0., 0., 0., 0.,
          0., 0., 0., 0., 0. ]
      - [ 2.56196588e-01, 1.16730496e-01, 1.35107562e-01, 8.28081965e-02,
          1.34460613e-01, 1.20338872e-01, 1.81021184e-01, 2.47424886e-01,
          2.81434208e-01, 1.91202089e-01, 1.35108083e-01, 1.14892773e-01,
          2.15514719e-01, 8.46966282e-02, 1.54404581e-01, 2.52384722e-01,
          2.38867775e-01, 1.98195368e-01, 9.10982341e-02, 9.33925360e-02,
          1.55704737e-01, 1.10871963e-01, 1.25971645e-01, 1.61629513e-01,
          3.30123127e-01, 7.67696351e-02, 0., 7.69927353e-02,
          8.42426419e-02, 1.12896368e-01, 1.73707336e-01, 1.62179515e-01,
          5.15793934e-02, 5.00810780e-02, 0., 7.09753409e-02,
          1.24194592e-01, 2.29538940e-02, 0., 0., 5.41004688e-02, 0.,
          4.90511134e-02, 0., 1.25643268e-01, 0., 6.56719208e-02,
          4.40294668e-02, 0., 8.45691264e-02, 6.92965612e-02, 0.,
          1.08910419e-01, 0., 0., 0., 4.24282923e-02, 0., 8.16303715e-02,
          0., 7.66933188e-02, 0., 0., 0. ]
      - [ 1.52453631e-01, 6.62701651e-02, 2.46783167e-01, 1.69333979e-01,
          1.11210458e-01, 5.97965159e-02, 7.04002976e-02, 1.35710925e-01,
          1.73813745e-01, 2.41303593e-01, 1.73470438e-01, 2.02713117e-01,
          2.60669857e-01, 1.84619918e-01, 1.07628472e-01, 6.28939644e-02,
          1.67966530e-01, 7.87864029e-02, 1.43806353e-01, 1.98470250e-01,
          1.81455940e-01, 2.49409229e-01, 1.86617658e-01, 1.34562552e-01,
          2.00392172e-01, 1.89242959e-01, 1.48428515e-01, 9.81653184e-02,
          1.42302975e-01, 1.57978192e-01, 1.13962479e-01, 6.69661611e-02,
          1.00695930e-01, 4.42253016e-02, 0., 0., 9.29174498e-02,
          5.34922816e-02, 3.28097530e-02, 0., 0., 0., 0., 0.,
          1.52982414e-01, 1.33346677e-01, 8.77583921e-02, 1.06883310e-01,
          1.68218717e-01, 1.12065725e-01, 0., 0., 1.19856738e-01, 0., 0.,
          0., 0., 0., 0., 0., 4.77836803e-02, 0., 0., 1.04510009e-01 ]
      - [ 1.94098592e-01, 1.44474521e-01, 1.12743206e-01, 1.58212513e-01,
          1.57696918e-01, 7.31547177e-02, 0., 0., 2.51924872e-01,
          2.77442306e-01, 2.30525255e-01, 1.77801982e-01, 1.87643945e-01,
          2.45361701e-01, 6.67121932e-02, 1.45188883e-01, 1.42002627e-01,
          2.05551356e-01, 0., 3.81822549e-02, 1.90632835e-01,
          1.65012494e-01, 2.74191141e-01, 2.23329619e-01, 2.03966781e-01,
          9.51067582e-02, 8.24544951e-02, 1.50497809e-01, 1.28246248e-01,
          8.15573260e-02, 8.48439485e-02, 8.80684480e-02, 1.09881170e-01,
          9.48041081e-02, 6.32107481e-02, 0., 8.50283653e-02, 0., 0., 0.,
          0., 0., 0., 0., 1.18696615e-01, 1.11895293e-01, 1.32871211e-01,
          0., 1.89924866e-01, 8.77549499e-02, 0., 0., 1.07495852e-01, 0.,
          0., 0., 0., 0., 0., 0., 1.01888590e-01, 0., 1.20171450e-01, 0. ]
      - [ 1.11030661e-01, 7.80183598e-02, 1.07240871e-01, 1.46510169e-01,
          1.87753528e-01, 1.19616672e-01, 2.14655876e-01, 1.41538069e-01,
          2.76705682e-01, 1.16100714e-01, 2.26735055e-01, 1.76444560e-01,
          2.33559459e-01, 1.63940430e-01, 1.54165998e-01, 1.42512664e-01,
          1.61225647e-01, 7.77097195e-02, 1.24209978e-01, 2.37230688e-01,
          2.03370109e-01, 2.40865573e-01, 1.19502865e-01, 1.73619553e-01,
          2.76811451e-01, 0., 1.50414124e-01, 9.52585116e-02,
          1.47266358e-01, 1.23284109e-01, 1.20821349e-01, 4.12582345e-02,
          8.67955163e-02, 8.09091404e-02, 0., 0., 7.46567547e-02, 0., 0.,
          0., 0., 0., 0., 0., 1.32852659e-01, 0., 1.66139260e-01,
          9.78718624e-02, 3.71132270e-02, 0., 4.51011956e-02,
          1.14838503e-01, 1.42096132e-01, 0., 0., 0., 0., 0., 0., 0.,
          8.26008022e-02, 3.94247659e-02, 7.84730911e-02, 0. ]
      - [ 2.25839570e-01, 1.35943845e-01, 4.30555977e-02, 1.13912329e-01,
          1.17671587e-01, 1.45856097e-01, 2.17578724e-01, 2.97215194e-01,
          2.51564354e-01, 1.27200797e-01, 1.21352464e-01, 1.55375749e-01,
          8.78119543e-02, 1.12610340e-01, 1.65709913e-01, 1.43358290e-01,
          1.68667138e-01, 1.53759241e-01, 9.07457545e-02, 2.90867593e-02,
          6.21030331e-02, 9.03061926e-02, 1.53093979e-01, 2.63659239e-01,
          2.83401310e-01, 1.22860402e-01, 1.42131209e-01, 1.22798979e-01,
          1.66947275e-01, 1.73731312e-01, 6.91782087e-02, 1.34036234e-02,
          1.99097708e-01, 0., 0., 0., 6.39991090e-02, 0., 0., 0., 0., 0.,
          0., 0., 9.05084014e-02, 0., 1.04808509e-01, 1.82582825e-01,
          1.72970653e-01, 1.67307481e-01, 0., 0., 1.11046076e-01, 0., 0.,
          0., 0., 0., 0., 0., 6.08582497e-02, 0., 0., 1.67656824e-01 ]
      - [ 2.11888850e-01, 2.09310591e-01, 5.97839467e-02, 0.,
          5.51887602e-02, 3.29034217e-02, 0., 5.59399948e-02,
          1.93978190e-01, 3.72404277e-01, 2.34494552e-01, 9.76686180e-02,
          1.93856284e-01, 2.45347321e-01, 2.30565771e-01, 1.71927005e-01,
          2.01606601e-01, 1.58496171e-01, 1.27572104e-01, 1.02409281e-01,
          1.38008252e-01, 1.37636095e-01, 2.77059764e-01, 1.58054695e-01,
          1.96676940e-01, 8.68899524e-02, 1.11264803e-01, 1.48290500e-01,
          9.82885361e-02, 3.43622454e-02, 9.32721570e-02, 7.13555515e-02,
          4.66871783e-02, 4.90304157e-02, 8.72428939e-02, 0.,
          8.65677148e-02, 0., 0., 0., 0., 0., 0., 0., 1.58956841e-01,
          1.67225420e-01, 4.31056470e-02, 0., 8.57982114e-02,
          9.02437419e-02, 1.11588426e-01, 0., 1.53735355e-01, 0.,
          4.49109450e-02, 0., 0., 3.81672680e-02, 0., 0., 1.08560197e-01,
          0., 0., 0. ]
      - [ 4.63882565e-01, 0., 0., 0., 0., 0., 0., 0., 4.85845447e-01,
          1.50881469e-01, 1.13632493e-01, 0., 1.16058454e-01,
          1.41942009e-01, 6.29142821e-02, 1.39918104e-01, 4.37303960e-01,
          1.40919253e-01, 1.18366450e-01, 0., 2.63303034e-02,
          1.20045848e-01, 1.10254817e-01, 1.21813849e-01, 4.27323133e-01,
          9.44097899e-03, 0., 0., 0., 0., 0., 0., 6.18746988e-02, 0., 0.,
          0., 6.31356286e-03, 0., 0., 0., 0., 0., 0., 0., 1.09354118e-02,
          0., 2.26792190e-02, 2.90869512e-02, 2.09397189e-02,
          1.31791569e-02, 0., 0., 8.92872643e-03, 0., 0., 0., 0., 0., 0.,
          0., 0., 0., 0., 0. ]
      - [ 1.25614330e-01, 1.07555509e-01, 1.09390497e-01, 5.77908233e-02,
          1.46436289e-01, 1.75831899e-01, 1.41839057e-01, 2.09850684e-01,
          2.69019455e-01, 1.74952790e-01, 1.56114072e-01, 1.73518881e-01,
          1.75101727e-01, 5.76976389e-02, 1.74243763e-01, 1.82727411e-01,
          1.70528904e-01, 1.01048216e-01, 1.28172621e-01, 1.63438067e-01,
          1.59238011e-01, 1.70616671e-01, 2.03342110e-01, 1.88243911e-01,
          2.63451546e-01, 1.77838877e-01, 1.04609534e-01, 1.76453322e-01,
          1.46679595e-01, 1.14564538e-01, 1.08534120e-01, 1.37411177e-01,
          1.13424987e-01, 1.02205150e-01, 0., 0., 7.67075717e-02, 0., 0.,
          0., 0., 0., 0., 0., 1.12670869e-01, 0., 1.18923113e-01,
          1.96931452e-01, 2.09349290e-01, 0., 0., 0., 9.96896327e-02, 0.,
          0., 0., 0., 0., 0., 0., 8.39185864e-02, 0., 8.89543518e-02, 0. ]
      - [ 3.49810183e-01, 6.46407083e-02, 0., 0., 0., 0., 0.,
          6.65737242e-02, 3.85602057e-01, 1.88292637e-01, 1.78264081e-01,
          1.67631388e-01, 1.57372311e-01, 1.44435257e-01, 8.28496292e-02,
          1.04845591e-01, 0., 0., 5.18681481e-02, 0., 3.98319691e-01,
          2.23355711e-01, 1.79660872e-01, 1.04447849e-01, 2.23603606e-01,
          1.87266961e-01, 1.72697201e-01, 1.31058648e-01, 1.81750312e-01,
          1.39838815e-01, 5.07104434e-02, 1.09808639e-01, 5.00566103e-02,
          0., 0., 0., 1.32818222e-02, 0., 0., 0., 0., 0., 0., 0.,
          1.90092266e-01, 0., 7.47281164e-02, 3.43042277e-02,
          5.04009724e-02, 9.07473043e-02, 1.10626012e-01, 0.,
          1.21729910e-01, 0., 0., 0., 0., 0., 0., 0., 9.65105146e-02,
          1.04178615e-01, 0., 6.50340244e-02 ]
      - [ 2.66796440e-01, 1.73211023e-01, 1.27161205e-01, 7.01537505e-02,
          1.07750013e-01, 5.19342795e-02, 1.58305183e-01, 2.21307814e-01,
          2.91686833e-01, 1.86422423e-01, 1.01627856e-01, 1.03101730e-01,
          1.36237219e-01, 2.01895401e-01, 1.01465143e-01, 2.31994197e-01,
          2.97140270e-01, 0., 1.10698402e-01, 6.19387589e-02,
          7.32028410e-02, 1.02502503e-01, 1.83686018e-01, 2.45642573e-01,
          2.90697038e-01, 7.98843950e-02, 5.03786243e-02, 3.75377424e-02,
          7.44224414e-02, 5.29254302e-02, 2.06636533e-01, 1.98605895e-01,
          9.00042206e-02, 0., 0., 7.54942521e-02, 1.03047252e-01,
          4.06924263e-02, 0., 0., 0., 0., 5.62432408e-02, 0.,
          1.19694889e-01, 0., 1.33542359e-01, 6.97339177e-02, 0.,
          3.59326862e-02, 0., 0., 8.82125571e-02, 0., 9.85851958e-02, 0.,
          9.94921178e-02, 8.87027830e-02, 8.02946314e-02, 0.,
          1.27424940e-01, 0., 0., 0. ]
      - [ 7.02285916e-02, 0., 0., 0., 1.09935207e-02, 0., 0.,
          4.38513398e-01, 1.35706991e-01, 1.38958812e-01, 1.57011345e-01,
          1.14242204e-01, 1.89039409e-01, 1.52094141e-01, 9.99099985e-02,
          4.22296286e-01, 2.16833800e-01, 8.65750313e-02, 1.07573904e-01,
          1.17703892e-01, 1.18492834e-01, 1.12681344e-01, 1.36634648e-01,
          4.16579485e-01, 1.23646565e-01, 0., 0., 0., 0., 0., 0.,
          3.30782115e-01, 2.45822594e-02, 0., 0., 0., 0., 0., 0., 0., 0.,
          0., 0., 0., 3.10943723e-02, 0., 4.18620817e-02, 1.54671267e-01,
          7.59857073e-02, 5.86169511e-02, 0., 0., 3.10943723e-02, 0., 0.,
          0., 0., 0., 0., 0., 2.33207792e-02, 0., 0., 1.35949507e-01 ]
      - [ 2.31380612e-01, 1.30081996e-01, 1.19165659e-01, 1.72399685e-01,
          2.29369611e-01, 1.51618168e-01, 0., 2.09305078e-01,
          2.76121914e-01, 2.38432109e-01, 8.81777033e-02, 2.09995285e-01,
          2.28673086e-01, 9.65329260e-02, 1.06438287e-01, 7.87087902e-02,
          2.93143332e-01, 1.99924529e-01, 7.80066773e-02, 9.38963518e-02,
          9.55809504e-02, 5.88487126e-02, 1.48944527e-01, 1.73255339e-01,
          2.37195298e-01, 2.24475607e-01, 1.18239649e-01, 4.11413796e-02,
          8.95172060e-02, 1.23728156e-01, 7.16005117e-02, 1.28564820e-01,
          2.50980645e-01, 0., 0., 0., 1.07895859e-01, 0., 0., 0., 0.,
          3.42511497e-02, 4.13970351e-02, 0., 9.44822878e-02, 0.,
          8.05081725e-02, 0., 6.55392557e-02, 6.50571957e-02,
          2.17836276e-02, 5.35272695e-02, 7.78182298e-02, 0., 0., 0.,
          5.59664741e-02, 0., 5.81155568e-02, 0., 7.64647648e-02, 0., 0.,
          7.74397478e-02 ]
      - [ 1.67749062e-01, 1.37275487e-01, 9.87610444e-02, 1.20219000e-01,
          1.44840568e-01, 1.63078994e-01, 1.49385795e-01, 1.59078166e-01,
          2.61453122e-01, 2.60210574e-01, 1.56754732e-01, 1.55332267e-01,
          1.67082250e-01, 2.57410854e-01, 1.85309485e-01, 1.04496516e-01,
          1.66337207e-01, 1.02290638e-01, 1.75423324e-01, 2.19482362e-01,
          2.19677076e-01, 1.83067366e-01, 1.87784687e-01, 1.33919090e-01,
          1.34569019e-01, 1.29769787e-01, 1.08144604e-01, 2.15207621e-01,
          1.15291014e-01, 1.04305923e-01, 3.27201337e-02, 5.62528372e-02,
          8.40536356e-02, 0., 0., 0., 7.14667067e-02, 0., 0., 0.,
          1.92294829e-02, 0., 0., 0., 1.23034887e-01, 0., 1.47849843e-01,
          1.54602766e-01, 1.78274542e-01, 9.40271392e-02, 0.,
          4.61820178e-02, 1.00380853e-01, 0., 0., 0., 8.39296654e-02, 0.,
          0., 0., 5.17769679e-02, 0., 0., 0. ]
      - [ 2.70282358e-01, 8.06039050e-02, 0., 6.37838542e-02,
          8.83249119e-02, 2.30242163e-01, 1.38323441e-01, 1.85835838e-01,
          3.32917571e-01, 2.07412645e-01, 1.66951537e-01, 1.02533117e-01,
          1.42511725e-01, 5.43202236e-02, 6.19178563e-02, 0.,
          2.55463570e-01, 3.84995103e-01, 9.31533203e-02, 4.18940224e-02,
          6.67799860e-02, 4.06573229e-02, 7.94064477e-02, 1.24613807e-01,
          4.20637220e-01, 6.52525127e-02, 0., 0., 5.24139032e-02, 0.,
          5.18868528e-02, 8.23763311e-02, 2.03255624e-01, 1.54079407e-01,
          0., 0., 1.29792690e-01, 0., 0., 0., 0., 0., 0., 0.,
          9.19183791e-02, 0., 1.14287734e-01, 8.51357356e-02,
          6.72043860e-02, 4.76980694e-02, 0., 0., 6.83014318e-02,
          4.23964821e-02, 7.64941126e-02, 6.94746748e-02, 4.49615084e-02,
          0., 0., 0., 2.59585381e-02, 0., 0., 0. ]
      - [ 2.10702077e-01, 1.56756639e-01, 1.18218884e-01, 7.37631693e-02,
          1.46525249e-01, 9.46918353e-02, 1.49353251e-01, 2.29795098e-01,
          1.95547909e-01, 2.24406004e-01, 1.61557466e-01, 1.60487533e-01,
          2.43149459e-01, 1.64854571e-01, 1.23031542e-01, 6.94411173e-02,
          1.52805030e-01, 1.08305514e-01, 1.93319798e-01, 1.03268459e-01,
          2.17716381e-01, 1.14416674e-01, 2.20481530e-01, 2.16163009e-01,
          2.73141801e-01, 8.64364579e-02, 9.62731019e-02, 6.68399408e-02,
          1.60326138e-01, 1.36576355e-01, 1.38180941e-01, 1.17956854e-01,
          1.30024180e-01, 7.95523152e-02, 0., 0., 7.59529769e-02, 0., 0.,
          0., 5.81729487e-02, 0., 0., 5.50658405e-02, 9.35100541e-02,
          7.42022172e-02, 1.35490775e-01, 9.13844109e-02, 1.23631045e-01,
          9.55197290e-02, 0., 0., 1.24787137e-01, 0., 0., 0.,
          6.34036958e-02, 0., 0., 0., 8.04545060e-02, 0., 0.,
          1.42747849e-01 ]
      - [ 2.02590615e-01, 2.04028934e-01, 7.33640119e-02, 4.36363295e-02,
          1.29990593e-01, 1.36398643e-01, 1.04843132e-01, 3.42662364e-01,
          2.35733971e-01, 2.07146659e-01, 1.12794653e-01, 1.49875849e-01,
          1.36079669e-01, 1.74716935e-01, 1.46052599e-01, 1.10267147e-01,
          1.61787167e-01, 8.44365656e-02, 8.94764289e-02, 1.22529775e-01,
          1.44810677e-01, 1.19888708e-01, 1.32062614e-01, 2.42468551e-01,
          3.01821768e-01, 1.34490818e-01, 1.07561842e-01, 1.17209293e-01,
          1.72861546e-01, 0., 5.30382544e-02, 2.02858418e-01,
          8.95564035e-02, 0., 0., 0., 5.74431904e-02, 0., 0., 0.,
          5.39459884e-02, 5.85012510e-02, 0., 7.20745996e-02,
          1.29954413e-01, 0., 1.09474950e-01, 1.73132822e-01,
          1.97400242e-01, 1.35187104e-01, 0., 0., 1.21478729e-01, 0., 0.,
          0., 0., 0., 0., 0., 0., 0., 0., 0. ]
      - [ 1.57169029e-01, 1.28788307e-01, 2.43402928e-01, 1.04409039e-01,
          1.25815883e-01, 8.76930207e-02, 8.91027004e-02, 1.49062753e-01,
          1.39520481e-01, 2.20737040e-01, 2.45313838e-01, 2.23348930e-01,
          2.22365797e-01, 1.44218206e-01, 1.24910265e-01, 9.17840004e-02,
          2.05186650e-01, 1.17452204e-01, 1.67939007e-01, 1.23610705e-01,
          1.87044621e-01, 1.81350872e-01, 2.35330135e-01, 1.72866717e-01,
          1.97603613e-01, 1.32413074e-01, 6.23907112e-02, 2.18615741e-01,
          1.36095643e-01, 1.19686551e-01, 0., 1.68199226e-01,
          6.78343773e-02, 0., 6.78268671e-02, 0., 8.73494744e-02, 0., 0.,
          4.88879569e-02, 0., 6.15895614e-02, 0., 0., 1.29739895e-01,
          8.13978240e-02, 9.49524045e-02, 1.27179429e-01, 1.50290087e-01,
          0., 1.31124660e-01, 0., 1.18402220e-01, 0., 0., 0., 0., 0., 0.,
          0., 6.47780001e-02, 0., 0., 1.03823289e-01 ]
      - [ 2.17062876e-01, 8.48092362e-02, 1.13347881e-01, 1.01619020e-01,
          1.71391964e-01, 1.17617950e-01, 1.20195493e-01, 2.35484868e-01,
          2.76005894e-01, 2.45150894e-01, 1.31171077e-01, 1.73756227e-01,
          2.16079593e-01, 1.76183045e-01, 1.60081863e-01, 1.09887436e-01,
          1.67953640e-01, 1.41799852e-01, 9.56567824e-02, 9.45016220e-02,
          1.16704397e-01, 1.72604814e-01, 1.82644829e-01, 1.96399614e-01,
          2.78746605e-01, 9.15271342e-02, 1.24946460e-01, 8.35342854e-02,
          1.20574258e-01, 1.23402730e-01, 1.25299886e-01, 1.10636003e-01,
          1.63085014e-01, 9.72745344e-02, 0., 0., 1.14951849e-01, 0., 0.,
          0., 6.46610931e-02, 0., 0., 2.78880764e-02, 1.26702294e-01, 0.,
          1.60197690e-01, 8.68141875e-02, 1.36308506e-01, 1.08855389e-01,
          0., 0., 9.16887745e-02, 0., 0., 0., 0., 0., 0., 0.,
          8.73171240e-02, 8.75168368e-02, 0., 6.76820949e-02 ]
      - [ 1.60123304e-01, 1.29573718e-01, 1.31383687e-01, 1.27511099e-01,
          1.92245334e-01, 1.20857909e-01, 2.44391069e-01, 1.41627014e-01,
          1.69349030e-01, 1.93586901e-01, 2.29277313e-01, 2.64443010e-01,
          2.18977183e-01, 1.49631739e-01, 2.35427156e-01, 0.,
          1.22545123e-01, 1.44102916e-01, 1.68142825e-01, 1.85828373e-01,
          2.18533367e-01, 1.36250630e-01, 1.72663525e-01, 1.65935278e-01,
          1.22032903e-01, 1.07225478e-01, 2.09548965e-01, 1.48661703e-01,
          1.22112736e-01, 4.85525019e-02, 6.08356595e-02, 6.95699826e-02,
          0., 8.72894451e-02, 0., 0., 4.98645380e-02, 0., 0., 0.,
          4.21014801e-02, 0., 4.95698676e-02, 0., 1.17729507e-01, 0.,
          1.47310093e-01, 1.75996780e-01, 8.00435618e-02, 1.19917534e-01,
          7.14262724e-02, 0., 1.03007719e-01, 4.44074348e-02, 0., 0.,
          5.20388223e-02, 0., 0., 0., 5.25097735e-02, 0., 0.,
          1.14047617e-01 ]
      - [ 2.38674134e-01, 1.77186936e-01, 1.10625446e-01, 1.43843144e-01,
          2.35507652e-01, 1.69290781e-01, 1.55199647e-01, 1.59923494e-01,
          2.13923261e-01, 1.92955643e-01, 2.01554671e-01, 1.87933236e-01,
          1.90695688e-01, 2.31840625e-01, 5.93632013e-02, 3.57813910e-02,
          2.71353394e-01, 2.35895798e-01, 1.61805660e-01, 6.85026497e-02,
          8.88482928e-02, 6.56060427e-02, 9.74792391e-02, 8.02551955e-02,
          3.02678972e-01, 2.13578463e-01, 1.08245783e-01, 1.10248871e-01,
          1.06492206e-01, 4.53417525e-02, 7.06975460e-02, 6.02700375e-02,
          1.68513939e-01, 0., 9.03704539e-02, 0., 1.25309482e-01, 0., 0.,
          0., 2.10039783e-02, 0., 0., 0., 1.22561991e-01, 8.07975158e-02,
          6.28168806e-02, 0., 3.63799557e-02, 0., 4.72561531e-02, 0.,
          8.32401216e-02, 0., 7.45863095e-02, 8.61843228e-02, 0.,
          8.26797634e-02, 0., 0., 1.05489634e-01, 0., 0., 0. ]
      - [ 1.67022169e-01, 1.26688808e-01, 0., 1.75971359e-01,
          1.39516339e-01, 1.35719523e-01, 2.46152654e-01, 1.00112975e-01,
          2.12438121e-01, 1.27474368e-01, 2.51119584e-01, 2.66303629e-01,
          2.17185959e-01, 1.98456079e-01, 1.58688203e-01, 5.96853346e-02,
          1.39714241e-01, 1.44406289e-01, 1.32827908e-01, 2.35511377e-01,
          2.22634703e-01, 1.84210166e-01, 2.04391912e-01, 1.17445007e-01,
          1.42121375e-01, 1.58992395e-01, 2.07852229e-01, 1.71951964e-01,
          8.08312073e-02, 0., 5.84719256e-02, 1.01378672e-01,
          7.40902871e-02, 0., 0., 0., 7.85755217e-02, 0., 4.90341261e-02,
          0., 4.90425974e-02, 1.62171945e-02, 0., 0., 9.47418511e-02,
          7.82764703e-02, 0., 1.77822322e-01, 8.36246908e-02,
          1.34024024e-01, 4.85578813e-02, 0., 9.89660323e-02, 0., 0., 0.,
          0., 0., 0., 0., 6.19945414e-02, 4.04177867e-02, 0.,
          9.41213444e-02 ]
      - [ 1.20925404e-01, 1.01173669e-01, 9.24011469e-02, 6.85733408e-02,
          1.74818709e-01, 1.03129409e-01, 1.69560447e-01, 2.23584309e-01,
          1.98706478e-01, 2.21844703e-01, 2.10307851e-01, 1.39044628e-01,
          2.22764909e-01, 2.50314653e-01, 1.33976772e-01, 1.78481236e-01,
          1.39647305e-01, 2.59261072e-01, 0., 1.14737675e-01,
          1.72463566e-01, 2.60733932e-01, 1.62499025e-01, 1.54454872e-01,
          1.77724615e-01, 1.52910218e-01, 2.82310009e-01, 9.29245800e-02,
          9.69973356e-02, 0., 3.80046554e-02, 6.08081445e-02,
          9.31333005e-02, 0., 0., 0., 7.59608224e-02, 0., 3.93106639e-02,
          0., 4.11167443e-02, 0., 0., 6.12398013e-02, 1.57673791e-01,
          8.10333937e-02, 6.10677935e-02, 9.63736176e-02, 8.75376463e-02,
          1.63029775e-01, 0., 0., 1.14062123e-01, 0., 0., 0., 0., 0., 0.,
          0., 3.83415632e-02, 0., 0., 8.54077637e-02 ]
      - [ 1.78765371e-01, 8.64267126e-02, 1.08676240e-01, 1.05314411e-01,
          1.41774952e-01, 1.65335640e-01, 1.38820782e-01, 2.75591493e-01,
          2.69127309e-01, 1.59624860e-01, 1.31749943e-01, 2.16588154e-01,
          1.13387965e-01, 1.85308531e-01, 2.83396430e-02, 2.31209591e-01,
          1.94303840e-01, 1.22192048e-01, 1.32793441e-01, 1.08201899e-01,
          7.01016709e-02, 1.80559531e-01, 1.18561864e-01, 2.50299484e-01,
          2.67780274e-01, 1.04634687e-01, 6.23947345e-02, 8.66484269e-02,
          2.17179865e-01, 9.78711545e-02, 1.02287062e-01, 1.73004910e-01,
          1.66990951e-01, 0., 0., 0., 6.88929260e-02, 0., 0., 0., 0., 0.,
          0., 0., 1.20725818e-01, 6.76050410e-02, 1.46911457e-01,
          6.86592385e-02, 1.18152410e-01, 0., 9.07717124e-02,
          7.50642568e-02, 1.10365778e-01, 0., 0., 0., 2.04944108e-02, 0.,
          0., 0., 5.30484654e-02, 0., 0., 1.50368810e-01 ]
      - [ 3.33357632e-01, 0., 8.92869234e-02, 9.24639255e-02,
          1.51093990e-01, 6.59252331e-02, 1.39699578e-01, 1.96301758e-01,
          2.79701769e-01, 2.08282799e-01, 1.28775090e-01, 1.12383589e-01,
          1.52833939e-01, 1.35468856e-01, 1.36664897e-01, 2.23851621e-01,
          2.29694337e-01, 1.68485984e-01, 1.00472599e-01, 1.17445610e-01,
          1.76924750e-01, 1.21621929e-01, 1.59633949e-01, 2.72478431e-01,
          2.02591032e-01, 7.39133433e-02, 9.76799503e-02, 1.19196177e-01,
          1.67750224e-01, 7.07135871e-02, 6.38350025e-02, 2.36474931e-01,
          0., 0., 0., 6.00309633e-02, 9.78630781e-02, 0., 8.08058977e-02,
          0., 7.47280270e-02, 7.73945376e-02, 0., 0., 1.17701821e-01,
          4.72038798e-02, 4.87201512e-02, 6.35670796e-02, 6.01697937e-02,
          9.52797309e-02, 0., 0., 1.08784370e-01, 0., 6.95131496e-02,
          3.06996703e-02, 4.95923087e-02, 0., 0., 0., 1.22669764e-01, 0.,
          0., 9.97815281e-02 ]
      - [ 1.74621239e-01, 1.04567163e-01, 7.42039159e-02, 9.72949117e-02,
          1.50975123e-01, 1.60265326e-01, 1.47247985e-01, 1.96203277e-01,
          2.16878921e-01, 2.41203159e-01, 1.85948104e-01, 1.52411476e-01,
          1.79953277e-01, 1.72688499e-01, 1.67653769e-01, 9.95017961e-02,
          1.86284065e-01, 9.29858685e-02, 2.12645456e-01, 9.99294892e-02,
          1.49567217e-01, 1.95653111e-01, 1.88447565e-01, 2.45821476e-01,
